// Checkpoint: ../PPO/PPO_Quadcopter_335d0_00000_0_2021-08-31_13-04-24/checkpoint_001075/checkpoint-1075
#ifndef BRAIN_H
#define BRAIN_H
const int structure[3][2] = {{64, 18}, {64, 64}, {8, 64}};
const float HIDDEN_WEIGHTS_0[64][18] = {{1.36539221e-01,-1.75130680e-01,-1.78766713e-01,-1.93975270e-01,1.48146585e-01,1.26041740e-01,2.33384296e-01,-2.73551315e-01,2.34425105e-02,-3.13862920e-01,-1.70883849e-01,2.66629100e-01,7.48375952e-02,1.25565007e-01,-1.95158824e-01,-3.68482739e-01,4.36892837e-01,2.14283109e-01},{4.98099029e-02,2.93011237e-02,-3.32621485e-01,5.35068274e-01,4.93352599e-02,-3.22828829e-01,2.35410556e-02,1.97392434e-01,-6.99840812e-03,-3.34787965e-01,2.85236001e-01,-2.80179441e-01,2.45044380e-01,1.08273765e-02,1.12863816e-01,-2.44338855e-01,-2.39978246e-02,1.25039011e-01},{-2.66554058e-01,1.84595704e-01,1.87668771e-01,-4.72732544e-01,-2.17627257e-01,-2.74436232e-02,-2.33762532e-01,-1.69846162e-01,-1.08064108e-01,-1.92794010e-01,-2.66750008e-01,-4.00771111e-01,-4.35639590e-01,-5.38961530e-01,-7.59609565e-02,2.47061923e-02,-5.07553220e-02,1.91720709e-01},{-2.33785793e-01,1.93479910e-01,1.91905558e-01,-1.20093055e-01,6.62942156e-02,9.63880867e-02,-2.25082904e-01,3.13202471e-01,4.28026915e-01,-4.40722495e-01,-3.68773907e-01,-3.40702683e-01,-1.02361858e-01,4.88287807e-01,-1.70708463e-01,9.24469680e-02,-1.26479536e-01,-3.08617383e-01},{3.57856005e-01,2.52319187e-01,-1.15418695e-01,1.69314578e-01,-1.00504681e-02,-1.69566333e-01,-3.01871210e-01,4.72954422e-01,-2.21064501e-02,2.02033892e-01,2.44518012e-01,2.43338332e-01,-7.33026326e-01,4.24653620e-01,2.34554857e-01,1.83742106e-01,-1.39234345e-02,-2.60862224e-02},{-7.91091546e-02,-4.01198685e-01,-1.01777039e-01,-2.68431067e-01,-8.24439451e-02,-5.08515060e-01,-9.89180896e-03,-1.20842218e-01,3.38889599e-01,1.02374768e-02,9.49195027e-02,-4.89173234e-02,2.40217581e-01,-1.92546085e-01,1.98688060e-01,4.56611037e-01,9.62773785e-02,-3.59463513e-01},{4.73632753e-01,2.72047639e-01,-1.19713940e-01,1.41981289e-01,1.16021767e-01,1.04718789e-01,1.81456693e-02,-2.49576673e-01,-2.54708081e-01,6.18705228e-02,2.20140547e-01,2.98617452e-01,1.26197949e-01,5.09031862e-02,2.37475440e-01,3.85226071e-01,-4.78853822e-01,-8.18600655e-02},{-3.99564244e-02,-4.10798974e-02,5.79547510e-02,-2.56127119e-02,1.60237178e-02,-2.06685558e-01,9.04962569e-02,-4.93535697e-01,2.73648165e-02,1.07402451e-01,4.82246161e-01,-4.17020209e-02,4.04548526e-01,4.15741116e-01,2.73379534e-01,-3.06907445e-01,-2.06212297e-01,-2.74251997e-01},{2.68891364e-01,1.75120030e-02,3.78458947e-01,9.15532932e-02,-3.98737848e-01,-3.34858030e-01,5.34069315e-02,-6.80178031e-02,-3.08170706e-01,-1.39743075e-01,4.34858352e-01,3.89919132e-02,-2.07501769e-01,-2.97695577e-01,1.58213452e-01,2.26968750e-01,-3.78306299e-01,8.25324953e-02},{1.04485691e-01,-1.36997327e-01,3.85702014e-01,-2.20362488e-02,-8.36557057e-03,-1.52851000e-01,-3.31062973e-01,-2.28251189e-01,1.97227120e-01,2.62926102e-01,-3.03568095e-01,-1.68665722e-01,1.90697268e-01,7.89519623e-02,-1.79217011e-01,4.09835070e-01,-4.22097027e-01,-1.92706361e-01},{-3.08392614e-01,2.94488490e-01,-2.49873504e-01,5.65946810e-02,4.19839919e-01,1.64356455e-02,7.84426089e-03,-2.52083570e-01,2.05735043e-01,6.26206025e-03,-2.03624561e-01,6.69187784e-01,9.98657122e-02,-3.63299370e-01,3.26139241e-01,-5.00470340e-01,2.88960338e-02,1.38544634e-01},{1.54115736e-01,-1.01880312e-01,-2.79846251e-01,2.58216709e-01,-2.77895778e-02,-4.13196206e-01,-4.25015509e-01,-1.30898744e-01,1.59589499e-01,1.33598119e-01,-4.39379483e-01,1.00057371e-01,2.08104268e-01,3.08093373e-02,-9.52919647e-02,-3.78529966e-01,-1.73623547e-01,2.03322574e-01},{-1.74396649e-01,3.78457516e-01,1.77489176e-01,-2.49904692e-01,-2.09487364e-01,5.07184230e-02,2.73691624e-01,3.45623136e-01,5.65827005e-02,-2.77250353e-02,-7.22487941e-02,1.29662588e-01,-4.53942195e-02,-1.39037237e-01,-8.71569961e-02,3.50196064e-01,4.09943342e-01,3.76330018e-01},{-4.89898212e-02,-3.25192541e-01,-1.55858368e-01,-5.21188676e-01,-1.64643094e-01,2.09315106e-01,-9.56115052e-02,3.18730950e-01,-3.09312254e-01,-8.30806643e-02,1.08827859e-01,1.53846830e-01,-7.25158751e-02,4.96129505e-02,3.17607284e-01,2.77659655e-01,-1.60782561e-01,-2.86770910e-01},{7.45218173e-02,-4.58951801e-01,3.70346345e-02,8.44148025e-02,-2.35739246e-01,2.95581043e-01,-3.34496409e-01,-9.79395211e-02,-2.07153112e-01,3.32965136e-01,-1.55954540e-01,8.82226899e-02,-9.53777283e-02,5.28688669e-01,-4.30236220e-01,-2.00148925e-01,2.71521688e-01,2.06832126e-01},{-2.43076161e-02,1.18799679e-01,2.09586650e-01,-2.16544673e-01,3.11291069e-01,-1.28902093e-01,-1.17928304e-01,-3.50326359e-01,3.79270524e-01,2.73077786e-01,1.20379582e-01,-3.11545759e-01,-3.95255685e-01,4.58697081e-01,-5.57129920e-01,3.84142064e-02,-1.51290983e-01,-1.50252953e-01},{-3.40289362e-02,-5.16506612e-01,2.17638891e-02,-1.18288018e-01,-1.82887092e-01,3.08791578e-01,1.11809470e-01,-3.21522802e-01,-2.80908272e-02,3.15731734e-01,4.38877016e-01,7.94391707e-02,-2.69301981e-01,-4.69620347e-01,1.65584221e-01,-3.24477315e-01,-6.58081099e-02,1.50706679e-01},{6.24415353e-02,-4.69163340e-03,-2.74130195e-01,-1.19191848e-01,-2.47449502e-01,-3.81822474e-02,-5.25203049e-02,-3.92682016e-01,-8.43471289e-01,1.89212129e-01,6.07159436e-02,-9.83766988e-02,-8.32742732e-03,6.83432221e-02,-1.64972186e-01,3.22224587e-01,1.05923794e-01,-1.18650503e-01},{2.81744093e-01,-2.42022917e-01,-6.50785208e-01,-8.63265432e-03,3.39897978e-03,-3.97908203e-02,2.12053865e-01,-6.73538521e-02,-1.67330533e-01,2.77642936e-01,2.37724885e-01,3.31731468e-01,-1.42205775e-01,-8.01672041e-02,1.96929082e-01,7.83021301e-02,-3.67309511e-01,-7.78241381e-02},{-3.43053788e-02,3.67402911e-01,9.45806876e-02,1.11834325e-01,4.37882185e-01,4.08325821e-01,3.15528005e-01,6.73683509e-02,-3.64057511e-01,-3.21807295e-01,1.94195583e-02,2.63111055e-01,1.30201876e-01,-3.02975655e-01,-1.72883235e-02,-2.79576600e-01,-1.35246636e-02,2.69834578e-01},{-1.85609102e-01,-2.82368958e-01,4.11765039e-01,-2.07467168e-03,6.09471230e-03,7.52492905e-01,-3.68064284e-01,1.63477547e-02,-1.32868528e-01,-6.00455143e-02,1.60447150e-01,-1.83233991e-01,2.39286363e-01,-2.38515198e-01,-1.51657715e-01,-3.70529324e-01,1.36933163e-01,1.14685439e-01},{3.99053186e-01,-1.56322837e-01,-7.52092823e-02,3.47327262e-01,-2.65492976e-01,-1.68255270e-02,-1.33925557e-01,7.82088786e-02,3.86869222e-01,5.00397868e-02,-2.29568377e-01,-3.83983254e-01,-3.08550119e-01,-1.67413831e-01,2.92330861e-01,5.64071715e-01,1.20294303e-01,2.73133963e-01},{-3.24485093e-01,-2.66826063e-01,1.37178600e-01,1.80212185e-01,-4.45204861e-02,2.46069357e-02,-4.21667136e-02,-1.21923327e-01,-1.70869768e-01,4.04391617e-01,-4.07413244e-02,-6.30650818e-01,4.97216493e-01,3.97920221e-01,-2.84088105e-01,-2.25059643e-01,-6.15715459e-02,5.39245047e-02},{7.51366317e-02,-7.90606067e-02,-2.90355146e-01,3.07343990e-01,1.61642954e-01,1.31917223e-01,-3.94099236e-01,-3.95165905e-02,-4.49550934e-02,-9.44981351e-02,-4.50695008e-01,3.63423824e-01,-7.69713938e-01,2.85342157e-01,8.60739574e-02,7.24344030e-02,-3.35883498e-02,4.34280280e-03},{-1.57421708e-01,2.42070913e-01,-1.44060165e-01,1.64292514e-01,3.43067139e-01,-5.17384633e-02,4.18442041e-02,2.47940645e-01,3.87511790e-01,-4.60561860e-04,2.76772469e-01,-2.11475149e-01,-8.66588235e-01,-6.59256518e-01,2.14743495e-01,3.58546935e-02,1.47373140e-01,1.23626783e-01},{-2.43569940e-01,-3.11266482e-01,-1.89686175e-02,3.37200791e-01,-1.11763828e-01,8.09475332e-02,-1.84571505e-01,-1.63197085e-01,1.50994450e-01,4.38667208e-01,-1.90199807e-01,-2.41942093e-01,2.77814627e-01,-7.88104534e-01,-3.83305967e-01,-2.56178349e-01,1.24653026e-01,-3.23626138e-02},{-1.29466921e-01,-1.60875589e-01,9.14396718e-02,2.63512880e-01,1.72615424e-01,-7.03529567e-02,2.27384716e-01,-1.61237091e-01,1.91939771e-01,-1.56039745e-01,3.75770926e-02,-4.69401360e-01,-3.98869514e-01,3.75770926e-01,2.41834193e-01,1.29995480e-01,5.25803208e-01,-1.80972964e-01},{-5.58111966e-02,4.59814817e-02,4.59426194e-02,-8.77054259e-02,1.93459183e-01,-1.03025302e-01,2.60551691e-01,-1.03214130e-01,3.20892818e-02,5.61099946e-01,2.65667081e-01,-5.25783002e-01,-6.22960091e-01,3.76510382e-01,2.14616880e-01,2.25017697e-01,-9.63071827e-03,-1.09760582e-01},{-7.09420592e-02,1.49723008e-01,-3.28498632e-01,3.51086706e-02,-2.00221628e-01,-1.99604601e-01,1.70923769e-01,2.58937508e-01,-3.03091615e-01,2.52648115e-01,-6.17174566e-01,2.32650772e-01,-3.02019063e-03,-1.86189979e-01,1.77794963e-01,1.75695613e-01,-1.14183396e-01,1.64253980e-01},{3.54377806e-01,1.86915308e-01,5.51476553e-02,-4.85225141e-01,2.11288869e-01,2.05540821e-01,3.49231549e-02,-3.16947609e-01,-1.20726451e-01,-1.97148211e-02,6.82609454e-02,1.68783501e-01,5.09832263e-01,-6.69686615e-01,1.79809611e-02,-3.00142676e-01,-3.40143949e-01,-5.40764183e-02},{-7.58468360e-02,-4.63573597e-02,-1.79816186e-02,-1.51019707e-01,-4.37670797e-02,4.44590926e-01,-2.93511033e-01,7.95812756e-02,-1.85407564e-01,3.11777294e-01,-2.54651755e-01,-2.61447448e-02,-4.02269930e-01,-1.90038979e-01,2.16680452e-01,1.39890343e-01,-9.11591351e-02,-4.80880618e-01},{-1.92428112e-01,1.04208365e-01,-9.37142223e-02,2.85640135e-02,5.33330441e-01,4.16541219e-01,-3.37761730e-01,-2.68979877e-01,-3.51396836e-02,3.18168283e-01,2.77839750e-01,3.63923937e-01,-3.89015853e-01,-1.88321784e-01,-2.46000618e-01,-4.68918681e-02,8.59854296e-02,-3.16199251e-02},{-2.16501236e-01,-1.62998021e-01,-3.01439494e-01,-2.25989103e-01,-1.62037328e-01,-4.97769922e-01,-1.78205483e-02,2.78705537e-01,2.07817554e-01,2.21925616e-01,-3.63396704e-01,-3.03606391e-01,2.05830440e-01,2.40714140e-02,3.52663398e-01,8.84828195e-02,-1.57346159e-01,-1.14385128e-01},{3.06251407e-01,-4.74565178e-02,2.27141410e-01,2.79881090e-01,1.26085401e-01,4.23112780e-01,2.46105477e-01,3.61260355e-01,-3.56388777e-01,5.18439487e-02,-1.50264099e-01,-1.19756088e-01,-2.84671843e-01,3.16121519e-01,-2.34092295e-01,-5.56061387e-01,-1.17650710e-01,-2.37961814e-01},{-1.40996397e-01,-5.01978062e-02,-7.32256323e-02,-5.55787459e-02,6.91966992e-03,-1.78000882e-01,3.25203031e-01,3.00571710e-01,-4.28785011e-02,1.24125049e-01,6.04511380e-01,3.59174073e-01,-3.68758738e-01,4.53691274e-01,-3.52382779e-01,1.75080240e-01,-4.01103944e-01,-7.96388462e-02},{-3.41260523e-01,-4.86407131e-02,6.86304644e-02,1.64028645e-01,-2.41030985e-03,4.79353487e-01,-1.91063195e-01,4.03586239e-01,1.62545145e-01,-1.30192459e-01,-2.82328606e-01,-1.11390576e-01,3.75724733e-01,2.80294418e-01,-1.05422445e-01,-1.10565454e-01,8.39295536e-02,-4.37334180e-01},{1.82430968e-01,6.88243052e-03,-7.94732943e-02,-1.68399476e-02,-1.03174746e-01,4.57899496e-02,-4.66706604e-01,-2.36588512e-02,-8.30583367e-03,4.31914955e-01,-1.09669507e-01,3.30102384e-01,3.49173963e-01,4.07330133e-02,-3.18700790e-01,-6.91222697e-02,1.99317306e-01,-5.13616920e-01},{4.69517380e-01,-1.38528705e-01,1.21353537e-01,-2.12757319e-01,4.56445396e-01,1.16470024e-01,2.85475671e-01,-7.68676698e-02,-2.10645348e-01,-1.09029435e-01,6.88074678e-02,9.81111526e-02,3.38969417e-02,9.25230328e-03,4.18864369e-01,-1.43649429e-02,-6.12159334e-02,4.54324722e-01},{7.00464323e-02,5.30014299e-02,-7.62744486e-01,2.33055856e-02,-4.74713556e-02,-1.75664768e-01,-1.69097200e-01,1.61046922e-01,-5.35875149e-02,1.84031084e-01,-1.15284391e-01,2.67395318e-01,-1.69292137e-01,-1.55204348e-02,-2.63736874e-01,1.91729352e-01,-2.14449182e-01,3.16130519e-01},{-1.00609399e-01,-1.95020631e-01,-1.30848050e-01,1.92494765e-01,3.11629713e-01,4.38858718e-01,3.55188906e-01,1.55406505e-01,2.33101472e-02,1.41731828e-01,-2.53373295e-01,-1.67019486e-01,-3.37009966e-01,3.47629994e-01,3.47922891e-01,1.84462905e-01,1.43713593e-01,-1.42065719e-01},{-3.08885742e-02,3.36621791e-01,1.77947477e-01,3.11513066e-01,2.83379145e-02,-1.31433040e-01,4.15272355e-01,2.83335865e-01,-2.01303244e-01,2.89962769e-01,-1.00724593e-01,3.02752316e-01,-5.12460113e-01,3.56661707e-01,-6.91261739e-02,-2.81158760e-02,9.45886746e-02,-1.60510525e-01},{2.26499617e-01,-1.94489866e-01,-1.23433255e-01,-4.20040451e-02,-1.02605700e-01,8.11586976e-02,-2.90139884e-01,-1.54780805e-01,4.12738442e-01,-1.27781346e-01,2.77652562e-01,-1.97542569e-04,3.03734034e-01,-2.30659723e-01,9.12369788e-02,-4.34847809e-02,-1.30557954e-01,5.75230718e-01},{3.12784702e-01,1.56701043e-01,-6.79856166e-02,1.02533042e-01,-2.68489659e-01,1.11718237e-01,6.11614101e-02,1.16980948e-01,3.40317756e-01,-4.86683309e-01,-3.35434191e-02,2.17118591e-01,5.16619086e-01,7.36300945e-01,1.74322858e-01,5.45192733e-02,-6.03887960e-02,1.38737276e-01},{-7.19396546e-02,1.61173671e-01,2.11108983e-01,4.13378716e-01,1.87826321e-01,-2.90170372e-01,2.78458625e-01,-1.29312694e-01,1.00337587e-01,2.44988531e-01,-2.57666796e-01,2.08286066e-02,3.41475457e-01,-1.36323735e-01,8.84647727e-01,-3.71977910e-02,-2.93836053e-02,9.22345743e-02},{-6.39303401e-03,2.70678967e-01,1.94943696e-01,3.05210084e-01,3.40159684e-01,-2.50419118e-02,-1.24869101e-01,1.40026912e-01,9.60526336e-03,-2.32118592e-02,-2.90225834e-01,5.11685014e-01,5.75645119e-02,7.35312343e-01,-2.60018855e-01,2.67114908e-01,-2.07558930e-01,-1.09704480e-01},{-4.92733195e-02,-5.20985246e-01,4.31914538e-01,-2.59884506e-01,9.09579918e-02,-9.12384540e-02,-2.33323872e-03,-3.16569328e-01,-9.12773535e-02,1.58383936e-01,-6.38759956e-02,4.26475495e-01,-3.17274451e-01,-5.69448352e-01,-1.27227396e-01,-2.07140557e-02,-2.55705267e-01,6.12434559e-02},{-1.04039997e-01,-4.63138409e-02,-3.73809367e-01,-1.83249020e-03,-1.74556658e-01,2.55445838e-02,-1.89574614e-01,-7.10457116e-02,-3.77597839e-01,-1.79267108e-01,-1.60849035e-01,2.00777322e-01,6.51171446e-01,5.34920275e-01,-1.73893824e-01,3.77255857e-01,-2.49104232e-01,-1.93492949e-01},{1.67169228e-01,-1.21294335e-02,6.95107738e-03,5.17162144e-01,2.61603862e-01,1.31393792e-02,-3.10585797e-01,1.80475578e-01,-2.88544357e-01,-4.52646613e-02,1.13815933e-01,-1.98295400e-01,2.21614674e-01,-3.06748539e-01,-1.09723262e-01,2.36051176e-02,2.33642116e-01,-4.34721440e-01},{-2.71762908e-01,5.14868237e-02,-6.62648380e-02,2.79649179e-02,-4.29795414e-01,-1.16235815e-01,-4.12178963e-01,2.30424002e-01,-2.79747158e-01,-6.13969415e-02,3.35111432e-02,-1.02537140e-01,-1.10792324e-01,-1.97303578e-01,1.86649337e-02,-5.64919472e-01,-6.94820359e-02,-1.89416446e-02},{3.58126312e-01,1.50843576e-01,-4.60411459e-01,-9.59888473e-02,1.97762206e-01,1.26170367e-01,-9.56631973e-02,-5.00728525e-02,-2.20519185e-01,-3.77568305e-01,-7.87086859e-02,-1.63200095e-01,5.37209153e-01,-8.39422196e-02,-3.89702350e-01,-1.68474570e-01,-6.59514368e-02,-1.13455825e-01},{2.63939381e-01,1.40914708e-01,2.06052318e-01,2.32597709e-01,-2.37655528e-02,-4.39375967e-01,3.17584604e-01,-1.64678201e-01,4.61998671e-01,1.23530917e-01,-1.82177484e-01,-3.14883083e-01,-1.14033401e-01,3.37440848e-01,-1.34620368e-02,-9.12097469e-02,-9.89838392e-02,-2.73512393e-01},{1.73445597e-01,4.27345335e-01,-1.85697913e-01,1.38187572e-01,-2.53975779e-01,1.48676515e-01,2.67004967e-01,5.11983335e-01,-2.44390473e-01,-1.91827297e-01,-1.72469214e-01,1.28554329e-01,-6.55138493e-01,-3.77772450e-01,-2.01220423e-01,-3.71759176e-01,1.16663292e-01,4.97836135e-02},{-7.54861832e-02,3.47970843e-01,-6.43919557e-02,-2.13878065e-01,-4.31859717e-02,1.36322394e-01,2.01124176e-01,-4.05877858e-01,-2.23228961e-01,-6.58085823e-01,1.32406309e-01,1.49435505e-01,-1.91945404e-01,2.86537915e-01,-3.73344988e-01,6.67270944e-02,5.40420674e-02,-2.55418159e-02},{-1.70369893e-01,-2.58137494e-01,2.50831991e-01,4.49180268e-02,-2.86996603e-01,-9.60136056e-02,2.56633580e-01,-2.55692691e-01,-2.51471072e-01,2.07668602e-01,3.42448294e-01,1.46732002e-01,-3.20256829e-01,-4.01823789e-01,6.81945026e-01,-1.70307145e-01,1.31669715e-01,-2.20541982e-03},{4.58012335e-03,-4.56282757e-02,-4.07916248e-01,4.88000102e-02,1.05148891e-03,-3.37082386e-01,-9.43358615e-02,3.79707873e-01,5.83275780e-02,-6.66211993e-02,-2.72068292e-01,1.35856032e-01,1.47083467e-02,5.23931623e-01,1.23971410e-01,-7.27112442e-02,2.70437133e-02,6.48847580e-01},{-3.56693953e-01,1.86808348e-01,-9.51457918e-02,-4.99912445e-03,3.95107895e-01,-5.09487450e-01,-1.09650098e-01,2.20304638e-01,2.65300691e-01,1.57343104e-01,-9.56971943e-02,-8.36221129e-02,1.30890265e-01,-2.85403669e-01,2.67697543e-01,-5.04508853e-01,2.04738043e-02,-1.89281508e-01},{-6.02957942e-02,-8.48034397e-02,2.49946475e-01,1.84473440e-01,-4.12647799e-02,-2.28799358e-01,3.75301600e-01,3.75879169e-01,2.91877352e-02,-1.51296020e-01,-3.99389386e-01,7.27452990e-03,9.92293656e-02,-1.31912068e-01,3.31239790e-01,-2.30664149e-01,1.44403130e-01,-2.57310420e-01},{4.91148010e-02,-2.51845419e-01,2.39481390e-01,-2.20315412e-01,1.32726103e-01,-3.43462944e-01,-6.08513318e-02,1.34090841e-01,-2.68483579e-01,-3.64548177e-01,4.53392625e-01,-3.04958016e-01,-1.25924442e-02,2.49627829e-01,1.46660835e-01,3.66986431e-02,-1.91151068e-01,-3.35925370e-01},{-7.45404139e-02,-2.80389249e-01,4.21673525e-03,2.46917680e-02,-4.12442565e-01,-6.01415820e-02,-2.41654769e-01,-3.36396359e-02,1.71008229e-01,3.45192879e-01,-4.30051446e-01,-2.80466884e-01,-6.13411605e-01,1.27059231e-02,4.27025378e-01,2.07995668e-01,5.80197647e-02,9.88289639e-02},{1.16979435e-01,1.71102822e-01,2.48499006e-01,1.31842017e-01,1.46613168e-02,-2.44431780e-03,1.18324287e-01,-1.97184160e-01,-2.25458011e-01,-2.95726061e-01,-3.73957485e-01,-1.54524177e-01,-2.36725196e-01,4.27330941e-01,4.12954509e-01,1.52561262e-01,2.78128147e-01,3.89365971e-01},{3.98899466e-01,-3.00657511e-01,8.95549804e-02,3.30600202e-01,-2.41078958e-01,4.36692946e-02,-6.41786382e-02,1.32322371e-01,1.08610548e-01,-3.40491533e-01,5.20331413e-03,4.95707512e-01,3.30853790e-01,-5.55334687e-01,-5.40289938e-01,-7.58435056e-02,-6.75244853e-02,-9.51567963e-02},{4.21401650e-01,-1.90257486e-02,6.94502294e-02,4.47955076e-03,3.77870679e-01,-3.53597164e-01,3.28638345e-01,7.12962523e-02,-3.87392730e-01,3.55203360e-01,-9.16500762e-02,-8.80915746e-02,-2.60554091e-03,-3.88259083e-01,-1.02509245e-01,1.08804904e-01,-2.49517076e-02,3.22551429e-01},{1.97300032e-01,-3.61892581e-01,-1.59857377e-01,-2.25824237e-01,-7.99353793e-02,4.01153028e-01,1.62506938e-01,-4.87791419e-01,-1.66050032e-01,3.17865252e-01,2.47315064e-01,-7.64678493e-02,-5.76795876e-01,-1.09546177e-01,1.86064377e-01,1.69639006e-01,2.42086574e-01,1.35647565e-01},{-3.71133775e-01,-4.04001534e-01,-3.23222697e-01,-1.81309402e-01,8.30161944e-02,-8.34616646e-02,-1.04698181e-01,-4.95897442e-01,-2.02106178e-01,-2.86753893e-01,-7.00436532e-02,-2.21594438e-01,4.51124310e-01,3.22413385e-01,3.23358983e-01,2.45146796e-01,-5.06219491e-02,-9.23421979e-02}};
const float HIDDEN_BIASES_0[64] = {-0.00657915,-0.00369723,-0.00350617,-0.17785968,0.10886661,0.16689572,-0.14487831,0.04822531,0.16409545,0.03294031,0.13906899,-0.0917616,0.06057788,-0.199284,-0.17617375,0.01825277,0.11213183,-0.05584902,-0.04515311,0.20967938,-0.03948243,0.04401071,0.06778272,-0.10602974,0.02612503,0.00351059,0.10135669,0.12865399,-0.16273095,0.0896486,-0.15671445,-0.27305272,0.20542198,-0.05773764,-0.04488754,-0.1285155,-0.08566256,-0.06948826,0.12499531,0.17359714,0.16628125,-0.11094512,0.00600358,0.38155878,-0.05071821,0.02832872,-0.07827511,-0.09601575,-0.10008474,-0.17241095,0.06876588,-0.12665123,-0.2817894,0.29166588,-0.05782857,0.11105237,0.10598556,0.26259398,0.2975063,0.16199565,-0.18582767,-0.00905772,-0.04517114,0.08773013};
const float HIDDEN_WEIGHTS_1[64][64] = {{-6.15558960e-02,-1.99867085e-01,3.04874573e-02,8.58210400e-03,3.95908147e-01,2.30193540e-01,-4.62730564e-02,9.82105285e-02,1.64298981e-01,4.26347479e-02,2.21658070e-02,1.67119101e-01,3.15414071e-01,3.06697972e-02,4.24463525e-02,7.79337250e-03,1.93381369e-01,1.25336215e-01,1.56785160e-01,1.87643200e-01,1.68952122e-01,1.10594630e-01,-1.37722403e-01,5.34011088e-02,-5.79055138e-02,-3.27504706e-03,5.68391569e-02,1.99421093e-01,5.57532571e-02,9.08767730e-02,-2.13063851e-01,-2.73746182e-03,2.58264784e-02,5.35576195e-02,-1.75887868e-01,2.81042769e-03,-1.72890928e-02,2.97830198e-02,-8.93598348e-02,-3.55637036e-02,2.55581975e-01,-2.71803349e-01,-3.03228050e-02,6.15355410e-02,-3.75704646e-01,3.03035766e-01,-9.85516533e-02,4.23353687e-02,-1.21697746e-01,9.64935273e-02,9.77765247e-02,2.52117440e-02,1.62345506e-02,2.37382781e-02,-1.20255128e-02,3.03263694e-01,-2.68747527e-02,1.40941590e-01,-1.52353449e-02,1.51264250e-01,-1.10940449e-01,-1.24467805e-01,3.09380814e-02,7.65918149e-03},{-7.18087927e-02,-7.86601305e-02,4.00472283e-02,1.09306008e-01,-2.62237549e-01,1.41029671e-01,5.12178577e-02,-7.86851868e-02,2.43576895e-02,-2.54980087e-01,4.71033603e-01,-9.88282114e-02,6.16657920e-02,-1.07888438e-01,-3.30414772e-02,-1.05589755e-01,-6.45986646e-02,-1.71602443e-01,-1.08135775e-01,1.50640607e-01,4.87119667e-02,1.32822677e-01,-1.79387466e-03,-1.73490420e-01,1.20702228e-02,7.90149197e-02,1.44144772e-02,-1.95738092e-01,1.86226651e-01,-1.73460525e-02,1.04649343e-01,-1.38333201e-01,1.94800481e-01,-4.00698870e-01,6.22036383e-02,-1.78291142e-01,-1.04151078e-01,1.71227470e-01,6.94168545e-03,3.33370157e-02,-1.47368550e-01,-5.31949103e-02,2.19686087e-02,2.03983724e-01,-4.38767299e-02,6.29356876e-02,1.02486663e-01,-9.30761173e-02,-3.42557989e-02,-6.23345375e-03,-9.57965329e-02,-1.92931652e-01,-3.76523018e-01,-7.90081639e-03,5.60464635e-02,2.65380025e-01,3.34640406e-02,-2.54545480e-01,-9.75702237e-03,-1.87264988e-03,-7.39149079e-02,-2.75053710e-01,1.06590360e-01,-4.18131053e-02},{-6.37862235e-02,-1.88983664e-01,5.52224889e-02,-2.16022022e-02,-1.95827633e-01,-2.17379525e-01,-3.56864855e-02,8.35887715e-02,-1.20114185e-01,2.08444610e-01,-9.07250866e-02,1.80057392e-01,7.61532113e-02,1.72687888e-01,6.18386157e-02,-9.16320682e-02,-9.33724979e-04,1.97645202e-01,-2.06827447e-01,-3.00416034e-02,1.39307559e-01,-2.31008768e-01,2.67033637e-01,2.44599149e-01,-8.92888755e-02,9.41951200e-02,-1.58488527e-02,4.00214829e-02,-3.33654694e-02,-2.52450947e-02,9.73286331e-02,-2.75379326e-02,-3.81993473e-01,6.66589811e-02,8.33050311e-02,5.98091260e-02,2.60195285e-01,1.11132273e-02,1.93278015e-01,-6.03935681e-03,-1.29474513e-02,-1.79576185e-02,1.44463316e-01,-5.80456406e-02,1.16097815e-01,4.74880263e-03,1.71588078e-01,4.60869297e-02,2.75889896e-02,-5.58994859e-02,8.55720311e-04,6.42323308e-03,2.22575933e-01,3.36712539e-01,-4.13254723e-02,-2.63260186e-01,4.74280007e-02,-1.17904849e-01,-1.08111128e-01,1.26382113e-01,1.57355055e-01,-2.28835210e-01,-3.73905987e-01,-6.09629564e-02},{-2.71134321e-02,5.39812781e-02,7.14150965e-02,2.99753606e-01,-1.20678686e-01,1.36194965e-02,5.92756905e-02,-2.13083521e-01,-2.11873844e-01,9.77125168e-02,-1.72676221e-01,1.08528405e-01,1.68714821e-01,1.29682764e-01,3.19613546e-01,7.83004686e-02,-2.08809540e-01,-3.16289999e-02,2.22513862e-02,-5.82089983e-02,-9.21575949e-02,-3.37799013e-01,-9.13447738e-02,1.27300397e-01,-1.91772029e-01,-5.01644947e-02,-2.10032523e-01,1.45307444e-02,8.18747357e-02,-2.15101600e-01,1.34349555e-01,1.99362397e-01,-1.58740729e-01,2.59017944e-01,-2.67516106e-01,4.80316393e-02,1.18817434e-01,3.78667228e-02,1.28061280e-01,-3.11227649e-01,-1.34659588e-01,-1.21712185e-01,-1.02566361e-01,-3.36322963e-01,2.15351045e-01,4.29453515e-03,5.87896816e-02,6.86732307e-02,-1.49257230e-02,7.64337927e-02,-2.44270623e-01,8.82749632e-02,4.71501946e-01,-1.89066127e-01,1.59135267e-01,8.26193467e-02,-1.92704290e-01,-1.67215422e-01,-4.23962444e-01,4.56902087e-02,-1.27107259e-02,-5.16170897e-02,1.41837850e-01,-4.19153683e-02},{-6.84892163e-02,1.26147047e-01,1.19033992e-01,-1.29023060e-01,1.67919695e-02,-6.45537600e-02,-9.74413306e-02,1.42452404e-01,8.00797902e-03,3.40111069e-02,5.26260324e-02,-3.86850312e-02,-1.61551133e-01,-1.91892497e-02,-2.00409025e-01,-1.35390991e-02,2.13856131e-01,-2.55059153e-01,-2.66661942e-01,3.75240922e-01,1.54411420e-01,1.51239093e-02,4.09621820e-02,-3.34916621e-01,1.42777234e-01,-5.60178459e-02,1.82432115e-01,1.97962876e-02,-1.38259619e-01,-1.75487310e-01,3.64900082e-02,-2.17799067e-01,1.54587850e-01,-2.03964636e-01,5.13500497e-02,5.75513244e-02,-1.78966865e-01,-3.99080198e-03,-3.48913595e-02,-3.48812900e-02,-1.30140021e-01,-1.08497210e-01,4.46506701e-02,-2.94867810e-02,-3.67083699e-02,4.28573750e-02,-8.10740739e-02,-2.18637943e-01,-7.82244205e-02,-2.57243365e-01,1.50739804e-01,7.25793317e-02,-1.74813107e-01,2.79507618e-02,-7.97097571e-03,-5.92255965e-02,-3.07352245e-01,-4.20779511e-02,7.83050433e-02,6.70670420e-02,1.09722875e-01,3.09339184e-02,-2.20778018e-01,-1.72845483e-01},{1.55611843e-01,1.87501777e-02,-3.11278075e-01,-3.15844901e-02,9.56512764e-02,-5.32568898e-03,-4.48763780e-02,6.49618059e-02,-2.30902329e-01,-1.07377887e-01,-1.30936474e-01,-7.41019025e-02,-1.33217379e-01,4.97516580e-02,-2.31665507e-01,-2.28303164e-01,3.22841495e-01,5.15491404e-02,-1.27919745e-02,-1.39328942e-01,5.55993570e-03,1.64218232e-01,6.59610182e-02,-2.00462015e-03,7.56740645e-02,1.70442283e-01,7.05590174e-02,-2.66863108e-01,-5.10809198e-02,-2.10155034e-03,-2.42204741e-01,1.39816508e-01,6.42151982e-02,-9.08277035e-02,-1.68431774e-01,1.41639933e-01,1.85006216e-01,-2.70716578e-01,-9.40839276e-02,5.11910953e-02,-6.82266476e-03,1.03356741e-01,9.87699479e-02,7.63832685e-03,-1.13443285e-01,-6.65564090e-02,-1.24756239e-01,-7.54587203e-02,5.53635657e-02,1.52958870e-01,1.46169707e-01,-5.16238697e-02,7.85922185e-02,-3.08575064e-01,1.46213517e-01,6.90473244e-02,-7.47338608e-02,2.06886288e-02,-1.38365394e-02,8.96185040e-02,-1.06648672e-02,-9.04804282e-03,-7.16685802e-02,1.09522060e-01},{5.48222288e-02,8.40151459e-02,-2.92865664e-01,-3.34581882e-01,8.23351741e-02,2.44404413e-02,-1.04374580e-01,-1.99562505e-01,-8.64284709e-02,1.15472026e-01,1.31362513e-01,3.97830606e-02,1.47460938e-01,8.79790187e-02,-1.59459457e-01,1.42887607e-01,1.00313395e-01,-2.54360251e-02,1.92704157e-03,9.16461051e-02,6.88397512e-02,1.02958651e-02,-1.16704710e-01,-2.43929848e-01,2.71169897e-02,2.57873029e-01,-1.28356248e-01,-3.17476004e-01,-1.48047805e-01,3.90672162e-02,6.20146953e-02,-3.97694319e-01,1.27318144e-01,-2.18952090e-01,-3.63618024e-02,-1.23568445e-01,4.59256433e-02,-8.35652053e-02,2.69238144e-01,-8.23371485e-02,8.73738602e-02,-7.14706928e-02,-2.43682638e-01,1.35514781e-01,6.23457658e-04,-3.70910279e-02,1.66455224e-01,-6.23874143e-02,4.56505790e-02,-4.83743884e-02,-1.01295985e-01,-2.11184938e-03,-1.98169015e-02,4.15305309e-02,-1.35556683e-01,2.13388652e-01,-1.30780965e-01,2.51107961e-01,1.01328656e-01,-1.24771677e-01,-1.51613904e-02,-5.43708876e-02,-3.80035378e-02,1.72630399e-01},{1.91384688e-01,-1.10578746e-01,1.38522565e-01,9.69912112e-02,-1.05087489e-01,-1.60064131e-01,-1.28466427e-01,2.44256169e-01,-5.28510995e-02,2.02783942e-01,1.48024589e-01,1.05892211e-01,-9.85791683e-02,1.16219714e-01,4.24430035e-02,1.49029106e-01,-1.02088548e-01,-3.79562303e-02,1.71107098e-01,1.26559570e-01,1.18668079e-01,-2.29356125e-01,2.00150069e-02,3.70501392e-02,-9.19758156e-02,5.37421666e-02,-3.73650417e-02,-9.26468372e-02,6.24743626e-02,1.27592877e-01,2.01377615e-01,1.48379840e-02,-1.51039481e-01,-6.87907189e-02,-6.67658448e-02,-1.63817078e-01,3.95279229e-02,-3.62997979e-01,7.61368796e-02,-1.70076504e-01,-3.88631165e-01,1.76274508e-01,-1.10476553e-01,-5.54931872e-02,-3.66876125e-02,-1.31316781e-02,-2.30376750e-01,3.01130235e-01,7.59275258e-02,-1.08030044e-01,-1.14331894e-01,-1.92184821e-01,2.56565690e-01,1.17812254e-01,2.01453060e-01,5.44103868e-02,4.73578535e-02,1.54602632e-03,2.61693243e-02,-1.94663219e-02,1.65242463e-01,2.60015298e-02,6.38429597e-02,-6.05642088e-02},{1.63339227e-01,7.29018822e-02,5.57166450e-02,1.88081563e-01,-2.03412175e-01,1.45974889e-01,1.11307450e-01,-2.17715964e-01,-2.46715620e-01,-1.35232851e-01,-1.90902948e-01,1.73567027e-01,-1.35457963e-01,-1.20467037e-01,6.11239448e-02,1.57597974e-01,-5.90904616e-02,5.71297146e-02,1.13117635e-01,-1.12829864e-01,-1.31222978e-01,2.27741137e-01,-7.09496578e-03,1.61612540e-01,1.72564253e-01,-3.23806494e-01,1.05832085e-01,3.54438126e-02,6.90001622e-03,7.37681687e-02,2.07149796e-02,2.03663751e-01,-4.68381820e-03,1.06782481e-01,2.70165112e-02,1.62240475e-01,8.30186007e-04,-5.85706569e-02,1.62254974e-01,5.65893538e-02,5.68319336e-02,-2.44568571e-01,8.82908106e-02,-1.01679362e-01,2.61005908e-01,-1.22100286e-01,3.72627983e-03,-1.46881148e-01,2.54131764e-01,-1.70661369e-03,1.04860932e-01,3.27983238e-02,1.61259677e-02,6.12774342e-02,2.46487036e-01,-2.57192720e-02,-1.96961015e-01,-7.85604864e-02,2.19738081e-01,-1.66402996e-01,3.13616768e-02,-1.51492491e-01,1.02674909e-01,-1.60755813e-01},{-8.08168799e-02,7.96556175e-02,5.07793278e-02,-2.47018054e-01,3.41887251e-02,3.29588652e-02,4.66393977e-02,1.68725222e-01,1.33174583e-01,1.08618345e-02,7.26748481e-02,-1.52167410e-01,1.29231419e-02,-1.91933036e-01,2.78832181e-03,7.78598487e-02,1.09739758e-01,-1.16841393e-02,2.55651176e-01,1.61047116e-01,-3.23792323e-02,7.84690608e-04,9.72210467e-02,9.20054764e-02,1.85422242e-01,-2.78822690e-01,3.11886612e-02,1.29034415e-01,7.26849213e-03,-3.50911543e-02,-1.74128830e-01,1.09348148e-01,2.95998007e-01,-1.37856498e-01,2.69032329e-01,1.27279699e-01,-4.68510874e-02,-3.27094138e-01,-5.22615537e-02,2.07316950e-01,1.14331700e-01,3.36716101e-02,1.72763169e-01,1.37311950e-01,-8.98996517e-02,6.17543459e-02,-1.83619142e-01,-2.30687708e-01,5.96139692e-02,-1.71674997e-01,4.20257673e-02,8.03217739e-02,-3.29870939e-01,2.19951928e-01,-3.91559035e-01,-1.84579566e-01,8.69798362e-02,1.72116771e-01,4.23037335e-02,1.06391259e-01,5.68345515e-03,-7.27489293e-02,1.76025346e-01,5.76222278e-02},{6.09078407e-02,-1.06871553e-01,-1.47771239e-01,-1.02198191e-01,-1.11241667e-02,9.38504413e-02,-1.27172858e-01,3.68144363e-02,-2.23943457e-01,1.73910633e-01,1.60969123e-01,9.61431861e-02,-3.59662063e-02,1.89392254e-01,1.86842695e-01,2.00202763e-01,5.95764518e-02,-4.36321609e-02,2.33824551e-02,1.22801572e-01,-9.01154131e-02,1.35943079e-02,1.23951934e-01,1.67818323e-01,8.86805262e-03,-2.90249474e-02,-2.76634216e-01,1.62141621e-02,2.06317566e-02,-3.52953002e-02,2.51597613e-01,-2.79406965e-01,-6.69258609e-02,-1.28838331e-01,1.04521774e-02,1.71907902e-01,4.20490652e-02,2.61054248e-01,1.54442370e-01,9.53287333e-02,-5.42577207e-02,1.70483872e-01,2.58809358e-01,-3.10644358e-02,-6.45642802e-02,-1.99178681e-01,-3.81091423e-02,-4.53315079e-02,3.09171295e-03,1.09549120e-01,1.98519588e-01,-1.54771022e-02,2.15322986e-01,-6.64051175e-02,4.30000834e-02,8.74199420e-02,1.06593026e-02,1.33856479e-02,7.24406093e-02,2.39248157e-01,-2.37515047e-01,-1.47249773e-02,1.10707663e-01,2.18477070e-01},{6.54722739e-04,3.09954863e-02,-2.58684546e-01,2.77553266e-03,3.06716859e-01,-1.09250247e-01,1.17602814e-02,1.11935675e-01,9.05210823e-02,1.63929202e-02,2.06676219e-03,-8.65027774e-03,1.13694169e-01,6.30439892e-02,1.62412405e-01,-5.14787063e-02,2.23281179e-02,7.70725086e-02,-1.59990340e-01,-1.64691225e-01,1.36868477e-01,7.33792782e-02,2.25990012e-01,7.81981926e-03,2.01506913e-01,2.03042906e-02,-1.70190915e-01,1.76248595e-01,-9.33272988e-02,1.78172797e-01,2.93685263e-03,-1.11694641e-01,6.81216493e-02,-3.50872315e-02,-2.52122525e-03,5.94852641e-02,-2.09212657e-02,8.82291198e-02,-1.19212091e-01,1.13219246e-01,-3.54532376e-02,1.65500551e-01,2.28526205e-01,-1.70675293e-01,-1.58284828e-01,8.34609866e-02,2.40970954e-01,-5.33708334e-02,2.58770347e-01,1.18960187e-01,-2.08199427e-01,-6.82332367e-02,2.02812612e-01,4.57417071e-02,1.24011576e-01,-1.17883779e-01,-3.57635081e-01,9.29057524e-02,1.12953432e-01,1.84992015e-01,-1.08867988e-01,-1.33210972e-01,-6.39300346e-02,9.94435772e-02},{-1.54032901e-01,1.79331899e-02,2.51369067e-02,-9.25792195e-03,-5.90047352e-02,-8.80916193e-02,-1.06978286e-02,-2.02593848e-01,3.35225761e-02,1.51462734e-01,-2.70555705e-01,7.98349828e-02,2.53767110e-02,2.64850914e-01,4.39277701e-02,-7.19684456e-03,-1.25215709e-01,-5.00809252e-02,-3.47114764e-02,-3.23615253e-01,1.49735659e-01,-2.19624802e-01,1.43600926e-02,1.62196413e-01,-2.27394514e-02,4.12047394e-02,1.05548680e-01,1.07769549e-01,-1.06002904e-01,2.00445548e-01,-5.41614257e-02,5.69393188e-02,7.20340619e-03,-6.17680028e-02,1.17385499e-01,1.84590325e-01,3.69024724e-02,-1.38099775e-01,1.52153699e-02,1.26227766e-01,-1.92852676e-01,-4.58924696e-02,2.22760960e-01,-3.05079669e-01,2.20116109e-01,9.46445093e-02,-1.25577644e-01,1.71336398e-01,1.87977955e-01,5.67881539e-02,-2.47314408e-01,1.61590576e-01,4.50563520e-01,-2.13287547e-01,2.35607609e-01,3.56275029e-02,-3.32080834e-02,-1.77484214e-01,-8.58890861e-02,2.44046282e-02,1.65796772e-01,3.02077476e-02,-1.86455533e-01,-1.52450129e-01},{-1.33314177e-01,9.26098879e-03,-2.41048500e-01,-8.08209181e-03,1.00998767e-02,-8.43330845e-02,6.97737858e-02,-1.81944296e-02,1.63782999e-01,2.11909562e-01,-8.03542032e-04,-9.21361446e-02,5.52617572e-02,-5.33586927e-02,3.64410460e-01,8.43509380e-03,-2.59655058e-01,-2.33266219e-01,1.48057729e-01,-1.14047527e-01,7.81122521e-02,-6.61280099e-03,-1.64512336e-01,2.06424564e-01,-3.47648382e-01,8.95421654e-02,-1.84892312e-01,-1.45824060e-01,7.23470449e-02,-1.13531381e-01,1.52818039e-01,1.52531087e-01,-5.23783043e-02,-9.29737240e-02,-3.33490446e-02,-1.82950407e-01,-5.09660356e-02,-4.90227677e-02,6.42398819e-02,4.57033142e-02,1.81278493e-02,-1.97337434e-01,3.04162670e-02,-5.53362886e-04,3.05791348e-01,2.01527759e-01,-7.01876506e-02,2.48137549e-01,3.93417746e-01,7.30069429e-02,3.67318578e-02,4.93320590e-03,1.17795309e-02,-2.80624747e-01,2.23359138e-01,1.81802079e-01,3.88886081e-04,-1.24687470e-01,-3.02057713e-01,3.47383320e-02,3.15618753e-01,6.65590614e-02,-1.40993863e-01,-2.30177522e-01},{-1.10067636e-01,-1.30628467e-01,-9.07610357e-02,-2.18431145e-01,-5.26625570e-03,-1.30155802e-01,2.26089004e-02,3.30686361e-01,2.57261038e-01,1.96329117e-01,2.57477872e-02,1.39400005e-01,-1.63083270e-01,-6.21611178e-02,-3.08481455e-01,-7.48119950e-02,1.14042051e-01,-1.50778979e-01,1.17247991e-01,2.73426652e-01,-1.58131063e-01,1.14745423e-01,-4.01659682e-02,-1.62664548e-01,-6.09333403e-02,1.49161607e-01,1.74977273e-01,-4.48255539e-02,-1.38911486e-01,2.82789171e-01,-1.62199199e-01,-5.03397174e-02,2.59874970e-01,-4.37295884e-02,-3.27479392e-02,-1.29168808e-01,-1.78824887e-01,1.37332380e-01,1.01104053e-03,7.47593492e-03,1.03161871e-01,2.86175042e-01,-4.26437706e-02,4.37514395e-01,-1.59024432e-01,4.24649306e-02,5.94832096e-03,-2.24315494e-01,-4.80515920e-02,2.86468007e-02,2.50941515e-01,-2.15589806e-01,-3.46837282e-01,2.81090289e-01,2.98919734e-02,2.78585423e-02,-4.70499545e-02,9.14688557e-02,1.63043573e-01,-6.18269779e-02,-1.08893037e-01,6.71523362e-02,1.97175220e-01,-3.16806212e-02},{1.12036690e-01,-2.12767348e-01,-1.25945091e-01,-4.16609049e-02,-9.24996063e-02,-1.80439036e-02,1.37783915e-01,3.75286825e-02,7.09598837e-03,-1.12185646e-02,-6.63632760e-03,1.25855684e-01,1.65487796e-01,2.19552413e-01,-1.35839745e-01,1.05711721e-01,-2.55697872e-02,1.44181132e-01,-2.34936830e-02,-1.15684792e-01,-3.75978276e-02,-2.74476528e-01,-7.49971569e-02,1.97481215e-01,1.59144606e-02,1.91265523e-01,1.01571716e-01,2.38219261e-01,4.13953096e-01,6.12097010e-02,-3.87939103e-02,5.89130484e-02,-2.28732869e-01,-4.32939181e-04,1.42159805e-01,3.00051402e-02,1.86928898e-01,1.45727322e-01,-6.76543266e-02,-2.04284564e-01,2.60541420e-02,1.28960744e-01,-1.24998800e-02,-1.56555697e-01,-3.98886539e-02,-9.73996669e-02,2.03220204e-01,4.24460359e-02,-1.05946451e-01,1.28257424e-01,-2.71184951e-01,5.69394566e-02,9.45929140e-02,-2.33246554e-02,-1.63908880e-02,1.27503097e-01,-1.43834531e-01,-3.64609331e-01,-2.76434779e-01,-5.76677360e-02,1.63274601e-01,-9.64772031e-02,6.75573945e-02,-1.99362580e-02},{-1.50948644e-01,-2.48127407e-03,-2.44055316e-01,-2.25055411e-01,-9.26117674e-02,1.48439825e-01,2.12619483e-01,1.06809847e-01,4.77173328e-02,-8.68494362e-02,2.46329248e-01,-1.59537852e-01,-2.22390494e-03,7.12650716e-02,-7.18299970e-02,-8.46257955e-02,3.00824523e-01,6.44620582e-02,8.81290659e-02,-6.08655699e-02,-7.54662417e-03,5.20988330e-02,-2.42753979e-02,-8.36955085e-02,2.16038346e-01,3.00024688e-01,4.05535623e-02,-1.95454031e-01,-7.86152035e-02,1.05383685e-02,-1.70508325e-01,-4.10188496e-01,2.26663560e-01,-2.87790984e-01,3.34011823e-01,-2.86318779e-01,-7.86394775e-02,-3.94150354e-02,2.47820154e-01,1.62184238e-01,-1.25758320e-01,1.68077629e-02,7.53580034e-02,1.54484317e-01,-2.59299785e-01,1.97995026e-02,-1.85102988e-02,2.77215093e-01,7.44791925e-02,1.29450768e-01,-1.84865594e-01,1.53443947e-01,5.62279224e-02,1.93140417e-01,-6.50195181e-02,-1.87149704e-01,2.19701320e-01,2.12217085e-02,-1.30937874e-01,-2.20142659e-02,1.22344665e-01,3.44006754e-02,-2.55321786e-02,6.72912458e-03},{3.16754617e-02,-6.60245493e-02,-4.51729372e-02,-1.13029353e-01,8.07432383e-02,-8.26339051e-02,-2.04695001e-01,6.81552291e-02,-4.10095789e-03,-1.17967628e-01,7.60665163e-03,-1.40697807e-01,-6.45876629e-03,-2.39294261e-01,-7.12093562e-02,2.72448003e-01,2.85981059e-01,1.25315497e-02,1.07648671e-01,-2.17693940e-01,2.96854810e-03,1.57314405e-01,9.40644369e-02,-4.53815702e-03,2.94056922e-01,1.08714163e-01,-2.44875222e-01,-1.43535599e-01,2.16307536e-01,7.72029757e-02,-2.07753330e-01,-1.40855014e-01,1.12223290e-02,-4.66388427e-02,2.52194535e-02,5.48390904e-04,-6.89043477e-02,3.50393504e-02,3.89242828e-01,-1.56163126e-01,-7.88251087e-02,2.10498333e-01,-1.04617164e-01,2.17008919e-01,-8.43165591e-02,1.38507374e-02,9.15357098e-02,-3.00162882e-01,1.30674258e-01,-1.87189251e-01,3.18415165e-01,-1.10267632e-01,-9.70838740e-02,1.30003318e-01,5.61228581e-03,1.31116360e-01,3.95632870e-02,8.21858644e-02,-1.53078482e-01,1.76802069e-01,-1.52194098e-01,1.09442808e-01,3.75480980e-01,-3.77618261e-02},{1.90506026e-01,5.18625416e-02,6.37192726e-02,1.82854041e-01,1.48304582e-01,-9.89249647e-02,-2.69178152e-01,1.82703454e-02,1.23690486e-01,-7.20082596e-02,-2.01076180e-01,1.58868020e-03,-1.55563310e-01,5.37009299e-01,1.39644817e-01,5.90039082e-02,-1.14643537e-02,1.61400378e-01,-8.71738512e-03,-1.41801581e-01,-8.41455311e-02,-9.17898268e-02,-1.36363760e-01,1.39234349e-01,4.88981185e-03,-2.41608128e-01,7.70392120e-02,3.50217000e-02,-2.81463295e-01,-8.14477503e-02,-6.09316938e-02,-1.40603155e-01,-1.44750506e-01,2.39797190e-01,2.78504100e-02,-7.18946382e-02,-1.04421765e-01,6.81272428e-03,-1.27017394e-01,-1.69192538e-01,6.72925711e-02,1.02442205e-01,-1.51129350e-01,-1.47085741e-01,-6.30761087e-02,-1.25326319e-02,1.67313591e-02,7.07239285e-02,3.03095323e-03,5.43778874e-02,4.11933195e-03,-5.98115139e-02,-1.14931706e-02,-7.13275447e-02,6.24379255e-02,-2.26620972e-01,1.20661378e-01,-9.13741067e-02,1.65892243e-01,1.26428977e-01,-7.03669637e-02,7.06421584e-02,-8.53113607e-02,-1.54885739e-01},{-1.09200805e-01,-5.17350323e-02,8.93606916e-02,1.51990846e-01,4.12333041e-01,-8.94867405e-02,-8.88459533e-02,-1.34703323e-01,3.88114750e-02,-1.50995761e-01,2.36387119e-01,5.18991277e-02,3.44333127e-02,-1.62824959e-01,-5.42281456e-02,3.01830415e-02,-2.04993591e-01,1.57232452e-02,2.28399485e-01,2.63899505e-01,-2.56350547e-01,1.10113867e-01,-1.54820293e-01,2.30524436e-01,1.99596629e-01,-2.27595065e-02,1.63714871e-01,-1.14724070e-01,-2.13157728e-01,2.38638937e-01,-6.52894676e-02,-1.61182538e-01,1.05645910e-01,-1.38723865e-01,-3.00611287e-01,1.51547253e-01,-1.16382420e-01,-2.14907639e-02,1.39531985e-01,-6.93469718e-02,2.35350877e-01,-2.89223269e-02,-4.95785028e-02,1.27597496e-01,-1.39105260e-01,-5.15960716e-02,6.80668056e-02,-1.04429368e-02,-7.00793862e-02,-4.73413616e-02,1.78662330e-01,1.85155511e-01,-2.90724277e-01,3.17097991e-03,1.47306561e-01,6.78833798e-02,2.86027968e-01,4.81858663e-02,1.46814138e-01,1.01547472e-01,-9.97420698e-02,-1.05611138e-01,-2.78273132e-02,-1.58244848e-01},{5.02778217e-02,-1.31663963e-01,-4.94877174e-02,-2.53120333e-01,-2.54392922e-01,1.51368335e-01,2.17677802e-01,1.19744673e-01,-2.58311182e-01,-2.86314432e-02,-1.55693814e-01,-8.38571191e-02,-3.46673518e-01,-8.36144686e-02,-8.53051916e-02,7.77488798e-02,5.45612611e-02,1.72161572e-02,-1.49989739e-01,1.93041548e-01,-9.40340981e-02,8.96521956e-02,1.20170169e-01,-4.75050695e-02,-9.52584371e-02,-5.98130282e-03,-8.34910870e-02,1.27058655e-01,6.79317787e-02,2.69797370e-02,-1.34797022e-01,-9.00172144e-02,9.91216078e-02,-1.85464054e-01,2.03516930e-01,1.19713746e-01,-1.79780032e-02,8.93064067e-02,7.19188452e-02,5.45745529e-02,1.46625489e-01,7.14981854e-02,1.65529609e-01,1.65333703e-01,1.14591733e-01,-2.21421078e-01,8.31121877e-02,-2.02336371e-01,1.73877910e-01,1.19530052e-01,1.37493145e-02,-3.05168480e-01,1.12593375e-01,-2.73016214e-01,-1.55361950e-01,-1.49540052e-01,-9.03057531e-02,-7.14444518e-02,8.27621147e-02,-1.04029670e-01,-1.23427898e-01,-4.40074280e-02,9.59964842e-02,7.08896248e-03},{1.07831821e-01,1.67605642e-03,-1.48111712e-02,-1.50499105e-01,2.09516943e-01,1.86163351e-01,1.07386813e-01,-1.03614345e-01,-4.21534300e-01,2.49542054e-02,-1.18887790e-01,1.18397497e-01,2.13287659e-02,1.91640295e-02,2.05991998e-01,3.93995792e-02,-8.68852958e-02,1.56946704e-02,-4.31173667e-02,-1.53411180e-01,1.17770426e-01,-4.44537252e-02,-1.19876862e-02,4.03140448e-02,1.47267833e-01,-1.34242445e-01,9.98566449e-02,5.62461838e-02,3.01279336e-01,2.80366335e-02,1.46073714e-01,-4.56285896e-03,9.49634761e-02,7.97718838e-02,-9.12175551e-02,5.84671088e-02,1.92879915e-01,-1.01438060e-01,1.15965512e-02,1.60455052e-02,-1.50141537e-01,-1.09082401e-01,1.10985665e-03,-1.82650119e-01,-2.12143231e-02,-2.44979054e-01,-1.99220225e-01,1.45425528e-01,-4.71708812e-02,-2.32795656e-01,-2.11426646e-01,7.14832246e-02,-7.69563839e-02,1.08344011e-01,-1.29435301e-01,-2.18039319e-01,-1.52044609e-01,4.81645763e-02,2.70299196e-01,-1.95377752e-01,-5.72612649e-03,2.37114489e-01,3.45050655e-02,-1.30128831e-01},{-2.31279060e-01,-2.72341877e-01,1.38416559e-01,-8.55603442e-02,-2.60053873e-01,3.89194004e-02,5.41338138e-02,8.67226571e-02,9.79730207e-03,2.32182488e-01,1.14657164e-01,6.18628897e-02,-6.70392066e-03,1.08594388e-01,2.87670583e-01,1.68834627e-01,5.77172749e-02,3.99413139e-01,3.29898670e-02,2.56055325e-01,2.14033034e-02,-1.34903893e-01,2.75423497e-01,-2.19220728e-01,-1.82683766e-01,2.29867637e-01,-1.37304664e-01,-9.20371115e-02,1.50648549e-01,-7.11613297e-02,1.64556459e-01,1.87016293e-01,1.02508493e-01,-1.84767038e-01,-8.44884366e-02,9.88411531e-02,1.94431633e-01,1.06318600e-01,-1.79514140e-01,-2.66639382e-01,-2.02039495e-01,2.19794884e-02,6.41596094e-02,-2.17761934e-01,-2.81812608e-01,1.05446361e-01,1.48934960e-01,2.52986997e-02,1.14481233e-01,9.48981494e-02,-5.53213917e-02,-6.58193678e-02,7.40754306e-02,-2.27165923e-01,6.70750290e-02,-1.66701619e-02,1.76955350e-02,-2.10707426e-01,9.68877822e-02,-5.51346503e-02,1.92915782e-01,6.91075623e-02,4.54523228e-02,-7.60426074e-02},{-9.50992778e-02,-7.06966072e-02,2.21099302e-01,-2.61418104e-01,-2.71447245e-02,1.32647067e-01,8.30980539e-02,-1.92797169e-01,-2.71423999e-02,-9.48099643e-02,1.73565313e-01,-3.34426939e-01,1.73901811e-01,1.60903350e-01,-7.92385116e-02,1.05183855e-01,2.09328309e-02,-1.75673291e-01,1.09377518e-01,-3.05964462e-02,1.82528108e-01,9.96755660e-02,-5.95955513e-02,-7.02190697e-02,3.54746252e-01,-2.22585201e-02,2.08652750e-01,6.26723375e-03,-1.26271620e-01,-2.09303219e-02,6.67436272e-02,-6.16460517e-02,-1.19262695e-01,1.04468815e-01,1.56061381e-01,-1.08384527e-01,-2.58637965e-01,-1.46851376e-01,-1.31448964e-02,-1.88865334e-01,-9.42773744e-02,2.94313766e-02,4.47950587e-02,4.27147627e-01,-2.63223976e-01,3.08813363e-01,-8.53945240e-02,-1.69823214e-01,-5.52144535e-02,-2.70281494e-01,2.53535241e-01,1.48867548e-01,4.55038212e-02,1.52345672e-01,-1.67867243e-01,3.61070298e-02,4.01909649e-02,1.48888621e-02,3.12487275e-04,5.25945984e-02,-2.52401475e-02,-1.56654418e-01,1.02526829e-01,8.70304927e-02},{-9.33185294e-02,1.26252457e-01,1.88347191e-01,5.67031428e-02,-2.97570098e-02,1.55052021e-01,-1.80763081e-01,-5.86091131e-02,1.89670511e-02,1.91052020e-01,3.36508065e-01,2.45011388e-03,-1.87541023e-02,-1.63862556e-01,2.54926225e-03,-6.91100657e-02,9.03066061e-03,6.21567946e-03,5.27703986e-02,1.20265536e-01,6.95104301e-02,-1.64989814e-01,1.46650001e-01,-4.14622903e-01,3.26670408e-02,-1.24155566e-01,3.40218693e-01,6.52531609e-02,-7.83300474e-02,-2.52136350e-01,8.59673992e-02,-2.47249112e-01,2.26037372e-02,2.50825822e-01,1.64650992e-01,3.59179527e-02,1.47727475e-01,-1.11504987e-01,-1.32121235e-01,3.43814045e-02,1.36629701e-01,-1.42910674e-01,5.44502810e-02,2.44990289e-02,-4.83789295e-02,4.38385718e-02,1.18736193e-01,2.01871455e-01,-1.51495621e-01,1.69695124e-01,-5.28803654e-02,-1.44475892e-01,7.84856826e-02,9.77677107e-02,-2.42886506e-02,1.29514001e-02,6.45553023e-02,1.34771109e-01,-6.91412538e-02,1.18505567e-01,-1.25036776e-01,8.06885734e-02,-6.94829375e-02,1.91527023e-03},{-2.08421528e-01,2.44219318e-01,-2.00959206e-01,1.60425231e-01,-9.97154266e-02,-9.36212484e-03,5.85318841e-02,-3.58663835e-02,-6.30460009e-02,-7.99455866e-02,-1.95180938e-01,-1.77897140e-01,2.02578027e-02,1.86501503e-01,-1.86332539e-01,-2.05319390e-01,-1.20778732e-01,2.05433279e-01,-1.24488562e-01,-2.86181131e-03,1.91220008e-02,-1.75504953e-01,-1.29889876e-01,-1.46422032e-02,-1.12430267e-02,-1.28060281e-01,-9.77528188e-03,4.30890098e-02,-1.06010869e-01,-1.06964476e-01,1.01855941e-01,-1.39399081e-01,-5.79803716e-03,1.61592141e-01,6.39612898e-02,-8.33564810e-03,-1.18044250e-01,-7.44343698e-02,-2.36491784e-01,-1.03608944e-01,2.36147437e-02,-3.03576916e-01,-1.40868183e-02,-5.12602508e-01,6.53581172e-02,-1.61095727e-02,-2.54513305e-02,9.88979340e-02,-7.72366375e-02,3.33967842e-02,-2.61570245e-01,1.96907520e-01,1.82913095e-01,-1.49292767e-01,1.75617617e-02,-1.90184653e-01,-2.13803314e-02,4.94605973e-02,-2.06034467e-01,-1.14205569e-01,-7.09779933e-02,-1.94878399e-01,-1.19571676e-02,8.62948522e-02},{-2.63684541e-01,2.25130506e-02,-1.15032867e-01,-1.15303546e-02,-1.01918451e-01,-3.15432370e-01,5.30344620e-02,-1.01734482e-01,-1.44951165e-01,-1.31813660e-01,7.17067644e-02,3.02998841e-01,-6.99597597e-02,2.52244681e-01,8.10515434e-02,4.77272607e-02,1.00732483e-01,8.74736384e-02,-8.20489526e-02,-2.61458874e-01,-6.56930134e-02,-4.11273800e-02,6.19242564e-02,9.12915841e-02,-6.17842786e-02,1.68062344e-01,-2.84267187e-01,-2.03960761e-01,2.55814403e-01,9.71115679e-02,1.49275502e-02,3.42411995e-02,-1.93510335e-02,-1.88433841e-01,-1.30690470e-01,-6.08650930e-02,1.20192572e-01,1.05010711e-01,-4.35052142e-02,-1.74299348e-02,-3.26900125e-01,9.11658555e-02,1.43752053e-01,-2.09842429e-01,-7.58517608e-02,-3.21933557e-03,1.60470963e-01,1.53089330e-01,-1.39260739e-01,-1.15754582e-01,-3.44006233e-02,-1.34395197e-01,2.26689085e-01,-2.56879367e-02,-4.25013341e-02,-1.15596302e-01,-9.72202271e-02,-1.58628151e-01,-1.68589443e-01,-3.18744153e-01,2.29172885e-01,2.29884237e-01,1.70799360e-01,-8.18604827e-02},{1.93960592e-01,1.62040785e-01,-7.49925822e-02,1.72433361e-01,3.82260792e-02,9.13014263e-02,-1.75644279e-01,9.20374840e-02,-6.03268966e-02,-6.12699054e-02,-2.10228637e-02,2.48056836e-02,-3.21280099e-02,-1.61200032e-01,-1.32109061e-01,-1.00335993e-01,5.76640740e-02,-9.37701166e-02,-4.27144356e-02,-4.38623466e-02,1.13340266e-01,-8.65230411e-02,1.92550704e-01,-1.54984398e-02,-2.72088528e-01,-6.98831528e-02,3.15207988e-02,2.02481285e-01,-5.21801263e-02,-2.08749488e-01,2.10709766e-01,-2.21853018e-01,4.10781540e-02,-1.61606390e-02,2.44878635e-01,2.31266264e-02,-2.69782126e-01,-1.24305980e-02,-1.17178582e-01,2.17533901e-01,-2.30202988e-01,-2.48838723e-01,1.50837138e-01,7.57604092e-02,1.12533249e-01,8.73602480e-02,-9.36745182e-02,3.15090641e-02,-6.96079358e-02,6.10275753e-02,-6.01981804e-02,1.69237554e-01,9.14327800e-02,-1.96971774e-01,-6.90114200e-02,-2.98976570e-01,-1.07418619e-01,1.01457223e-01,-7.12279081e-02,-1.23658828e-01,-2.46740863e-01,-7.56893679e-03,1.13726996e-01,4.29042242e-02},{-9.81337354e-02,-1.46333411e-01,1.23895258e-01,-2.35871505e-02,-7.74592683e-02,-8.43036696e-02,-1.20700277e-01,-5.57367615e-02,1.21021077e-01,-2.32815996e-01,-1.33517891e-01,-9.51502472e-02,-2.33613610e-01,-1.20153472e-01,1.61982745e-01,2.08375260e-01,1.28312528e-01,2.47714013e-01,2.49590296e-02,2.02314675e-01,-8.94595459e-02,-1.90990180e-01,1.43876776e-01,3.33961956e-02,2.18540609e-01,-1.10769764e-01,-8.87244120e-02,-2.47463509e-01,8.24949518e-02,1.14616580e-01,1.71034351e-01,1.59327582e-01,-1.14397146e-01,1.05203830e-01,-5.81701472e-03,-3.42749715e-01,-1.23930991e-01,-9.12197009e-02,8.54869187e-02,-1.71826079e-01,-8.59694257e-02,1.09521851e-01,-6.29591420e-02,-1.49955079e-01,2.06601117e-02,-1.94135904e-02,-1.36270463e-01,7.53177181e-02,2.69339323e-01,-4.57966961e-02,-1.86284725e-02,-3.40735503e-02,7.83862248e-02,-2.12066740e-01,1.66047052e-01,-6.45910427e-02,2.35243022e-01,-1.60041079e-01,-2.89322197e-01,6.83112517e-02,6.52160421e-02,1.63012207e-01,-1.08189106e-01,-1.98817760e-01},{-2.99062282e-01,-2.68207714e-02,-1.93469748e-01,-9.30690113e-03,-1.70623809e-01,-2.60354131e-02,1.05481185e-01,3.83511331e-04,2.81068627e-02,-7.93550909e-02,-3.32999498e-01,3.94833721e-02,-6.34768084e-02,1.83798268e-01,1.24351881e-01,-4.92337942e-02,5.17218187e-02,2.21526548e-01,-2.43530840e-01,2.64637219e-03,2.54028082e-01,-3.14885937e-02,1.77739576e-01,3.13680649e-01,8.29039025e-04,-1.20948486e-01,1.82344943e-01,-1.08603939e-01,4.43871357e-02,-2.54268080e-01,-2.60326695e-02,8.66626203e-03,-9.06664580e-02,2.17617050e-01,5.55976899e-03,-1.88862264e-01,8.59757587e-02,3.78885679e-02,7.66144246e-02,-1.22365139e-01,-6.79313913e-02,-1.56860873e-01,3.28805111e-02,-4.25056428e-01,-6.46405816e-02,1.18767358e-01,-2.14798853e-01,3.21459681e-01,1.81250423e-01,4.72401381e-02,9.28431470e-03,-6.13131151e-02,2.53222764e-01,-7.05188587e-02,2.35878141e-03,-1.62452012e-01,-1.88830242e-01,-1.31904446e-02,-2.34232515e-01,8.95494893e-02,-1.13431662e-02,-1.04229651e-01,9.60115120e-02,-1.53027564e-01},{-2.50455171e-01,1.19096465e-01,-2.61899382e-01,1.42424509e-01,-1.14204384e-01,-1.20659592e-02,1.07424945e-01,1.72331870e-01,2.40350693e-01,7.54008768e-04,-8.30517784e-02,-8.87126848e-02,-3.72435719e-01,3.08207963e-02,-2.39421114e-01,4.47866097e-02,6.52266890e-02,-8.98604468e-02,-1.54964710e-02,-2.60714710e-01,9.15820077e-02,3.50762159e-03,2.62099989e-02,-6.93896189e-02,-1.98389605e-01,5.72777875e-02,1.08746633e-01,8.54580253e-02,-2.02269107e-01,-1.47092268e-02,-1.97860390e-01,3.26347314e-02,-3.69447358e-02,2.50796899e-02,1.19078182e-01,-2.74574280e-01,3.82710025e-02,-1.03399105e-01,-2.49016032e-01,8.61861743e-04,7.75986016e-02,1.65236458e-01,-1.32092416e-01,5.59598915e-02,8.80483240e-02,-1.51017308e-01,-1.13501370e-01,-4.05691899e-02,-2.56286301e-02,-9.57114697e-02,8.30623657e-02,-4.03191984e-01,-8.36434290e-02,4.95310500e-02,-3.04193869e-02,7.50570968e-02,-8.62626061e-02,6.34163991e-02,1.72332212e-01,5.38431332e-02,-1.59149945e-01,-2.95200527e-01,-1.74597710e-01,2.63737720e-02},{1.43264905e-01,3.97517765e-03,-2.01355126e-02,-5.65376692e-02,-1.97912514e-01,2.78901726e-01,1.56642776e-02,2.35804543e-01,-1.48460791e-01,1.01879038e-01,2.05259904e-01,-7.19817495e-03,6.32802397e-02,-2.47154295e-01,3.83445024e-02,-2.16277212e-01,-3.63097154e-02,-1.91541612e-01,1.23145387e-01,2.70049460e-02,-9.78813842e-02,-1.30785480e-01,-7.01657683e-02,-7.23425671e-02,9.00669619e-02,2.92273588e-03,-1.59384131e-01,-2.07671866e-01,2.58023874e-03,1.48857504e-01,2.74261087e-01,2.56676465e-01,-1.18869096e-01,1.67397201e-01,-1.56510189e-01,-3.97298522e-02,-1.31242946e-01,1.16720498e-01,2.87891272e-02,-2.48566329e-01,2.54321069e-01,-7.85228088e-02,-1.93108484e-01,-6.18838966e-02,-1.22357167e-01,1.19309768e-01,-5.75922057e-03,-5.29085658e-02,1.46543160e-01,5.51363453e-02,-1.84071288e-01,-2.34770533e-02,1.67723492e-01,4.85228896e-02,-1.11658484e-01,6.46626577e-04,-9.43459868e-02,-1.61135033e-01,-2.96335459e-01,-3.62955965e-02,1.57025322e-01,1.26870483e-01,2.25347698e-01,-1.24683470e-01},{6.34841993e-02,2.29481518e-01,-1.45581797e-01,-9.06861648e-02,1.59018431e-02,-3.91180068e-02,1.04711175e-01,-3.21539342e-01,-1.44579187e-01,4.89496067e-03,-1.20200112e-01,-2.94349879e-01,-3.81844491e-02,8.86087120e-02,-1.87314278e-03,3.48212048e-02,-1.27927288e-02,1.89990833e-01,-1.12073667e-01,-1.54896215e-01,-2.62672715e-02,-3.76969784e-01,-8.51083361e-03,1.56108990e-01,-3.69609036e-02,-1.43144473e-01,-2.66458809e-01,-6.67031333e-02,1.56912029e-01,-5.78378402e-02,-1.05928428e-01,-3.42368931e-02,-9.94292721e-02,7.58396015e-02,-9.59060937e-02,2.12081492e-01,6.94288760e-02,1.80009827e-01,1.62831858e-01,-7.09560588e-02,-9.79999639e-03,4.83245170e-03,8.86534378e-02,-3.03478122e-01,4.28888798e-01,-4.48195599e-02,2.44694859e-01,1.34731874e-01,1.84530959e-01,1.43400624e-01,2.95055266e-02,8.14707279e-02,8.44246522e-02,-3.83210301e-01,6.40924945e-02,2.96129763e-01,-4.13197875e-02,-5.25411926e-02,-1.53311685e-01,5.88410087e-02,9.58549231e-02,5.17104752e-03,5.52659370e-02,-5.20417765e-02},{9.80672240e-02,-7.40668178e-02,2.84615934e-01,1.31929770e-01,-1.08462580e-01,-2.43149608e-01,1.68870622e-03,-1.83547102e-02,1.11491598e-01,-6.24393411e-02,8.59643295e-02,6.99805990e-02,1.75790057e-01,-1.07754134e-02,-1.82696596e-01,1.48256525e-01,2.14565033e-03,1.07994318e-01,-1.47423446e-01,1.98958457e-01,-6.60861731e-02,-2.85759896e-01,-1.07933253e-01,1.01668827e-01,1.44709021e-01,-5.44023216e-02,7.65138492e-02,1.82858273e-01,-7.83696249e-02,1.41415358e-01,1.81413382e-01,4.69981462e-01,-1.36275157e-01,1.06616810e-01,-8.18362460e-02,1.70662567e-01,-3.85509781e-03,3.71045955e-02,2.03592014e-02,2.43891608e-02,-1.39316231e-01,6.44488037e-02,-3.82097334e-01,-2.33491033e-01,3.30531858e-02,4.16115522e-01,-1.06830001e-01,-1.65817738e-02,-1.89876165e-02,6.13614433e-02,-1.48375049e-01,-1.01322336e-02,2.73372620e-01,1.41884029e-01,1.88352366e-03,-2.04143643e-01,-4.89173904e-02,-1.38525456e-01,-2.59145629e-02,-1.20702699e-01,2.25664839e-01,1.78633705e-01,7.27715269e-02,-2.48839810e-01},{3.48332385e-03,4.29425128e-02,3.01156759e-01,3.60114098e-01,-3.84847336e-02,-2.50171185e-01,2.59323537e-01,3.54098640e-02,-7.78867453e-02,2.42371634e-01,-1.79999143e-01,1.16767153e-01,-1.19350813e-01,-2.52788514e-02,1.26605868e-01,1.20067410e-01,1.21656895e-01,-9.49285626e-02,-6.91916496e-02,-2.75781732e-02,1.02349602e-01,6.20265864e-03,-6.98850378e-02,4.93944958e-02,-2.66697973e-01,1.15123726e-01,-6.05556890e-02,-4.46698107e-02,5.44157028e-02,8.90840814e-02,-2.25156751e-02,-1.50629103e-01,-1.94590718e-01,1.64031014e-02,-2.74586529e-01,7.29564950e-02,9.72731970e-03,-2.25120440e-01,5.12654074e-02,-4.12636772e-02,1.61676779e-01,1.00093573e-01,-1.34753808e-01,4.02651839e-02,4.13744375e-02,-2.22090650e-02,-1.24785557e-01,2.55196184e-01,1.95970777e-02,2.48002335e-02,-2.42978588e-01,1.07052244e-01,2.60659993e-01,4.92007583e-02,-2.32148282e-02,-1.51936874e-01,-1.19910337e-01,-1.73340201e-01,-1.03348508e-01,-1.27376139e-01,2.40829140e-01,1.08774163e-01,-1.47890866e-01,-3.33586305e-01},{-9.38186646e-02,-1.57335552e-03,-1.92947060e-01,-7.48228356e-02,2.78592296e-02,-1.69618919e-01,1.48434728e-01,-7.80975893e-02,-1.85236037e-02,9.96386819e-03,1.59244329e-01,-8.36110339e-02,-1.63219079e-01,2.75667049e-02,4.13956419e-02,3.34051847e-02,4.92255911e-02,-8.83468240e-02,6.95760250e-02,2.12845411e-02,-1.73254028e-01,2.35030860e-01,1.98417842e-01,2.84056097e-01,-2.66002379e-02,2.07164019e-01,-3.61911684e-01,-1.09765828e-01,3.89024243e-02,4.82293442e-02,-2.76065320e-02,-8.14153999e-02,2.93124408e-01,8.55920911e-02,6.49648979e-02,-3.21202837e-02,-3.91169563e-02,2.47807860e-01,1.13252133e-01,-9.98537242e-02,-1.87894017e-01,-6.28408324e-03,1.91586927e-01,-3.38716149e-01,3.45981240e-01,-1.19329691e-02,3.20014432e-02,2.81493329e-02,-1.72586352e-01,1.65980995e-01,-2.11723661e-03,2.87774894e-02,-1.14242323e-01,-1.74765766e-01,-7.78904259e-02,-3.18811208e-01,-8.82161260e-02,-6.26473352e-02,-1.94808394e-02,-1.38283223e-01,1.86002091e-01,6.32656738e-02,4.14470285e-02,1.14602275e-01},{1.15014818e-02,-6.76043034e-02,2.77522564e-01,1.93260297e-01,-3.58072311e-01,-3.29352319e-02,6.57989755e-02,7.34434053e-02,1.45044819e-01,-1.63467035e-01,-1.95990931e-02,-6.06460683e-02,1.60429627e-01,-5.22589236e-02,-3.07493657e-03,9.58496854e-02,9.80735384e-03,2.72983573e-02,-7.99778625e-02,-5.51376306e-02,1.82363778e-01,6.01762794e-02,1.39271334e-01,-6.21260256e-02,-2.31072083e-02,4.01898026e-01,-2.11793467e-01,-2.19204694e-01,-2.37161666e-02,1.07405782e-01,6.64240271e-02,1.13619819e-01,-2.34174564e-01,-5.08602113e-02,3.93073082e-01,1.10782415e-01,8.22428763e-02,5.45357056e-02,-8.38132650e-02,-3.01011443e-01,2.83442922e-02,4.75417152e-02,3.57315466e-02,-1.93535507e-01,8.52995962e-02,9.29422155e-02,6.39730468e-02,5.85555620e-02,-6.25004023e-02,3.37355733e-02,-1.02923095e-01,-9.85456482e-02,1.50689006e-01,-1.86638143e-02,-3.54416072e-02,1.92066938e-01,-1.41637608e-01,-1.09073013e-01,-2.51939088e-01,-7.03473240e-02,-5.29235117e-02,9.75102093e-03,1.01513460e-01,1.04628265e-01},{-1.78173959e-01,-2.18822155e-02,-3.90887372e-02,1.42358437e-01,1.20689496e-01,1.95499863e-02,7.84736425e-02,2.31471613e-01,7.45537579e-02,1.50346071e-01,-7.52474442e-02,2.04147756e-01,2.72226781e-01,-1.29462987e-01,3.02798599e-01,2.75473952e-01,1.02567347e-02,-1.84982568e-01,-2.44087160e-01,-1.49094820e-01,2.44289204e-01,-3.65342833e-02,1.51399881e-01,7.97811896e-02,-1.06192693e-01,2.15366241e-02,-1.67074218e-01,2.56278843e-01,-1.41367510e-01,1.67897329e-01,-1.46414667e-01,8.09764490e-02,-1.29001245e-01,1.49185717e-01,-2.95907557e-02,2.42835097e-02,-1.87424332e-01,-1.50433168e-01,4.13607918e-02,1.65737033e-01,4.36168127e-02,-7.46442974e-02,5.64071760e-02,-1.20261624e-01,1.72434211e-01,1.38069704e-01,-3.73212755e-01,1.20303057e-01,-1.91433970e-02,-1.49485603e-01,-2.02057809e-01,-1.36555493e-01,1.11831576e-02,5.04259281e-02,-4.83782738e-02,-2.23372560e-02,-2.80386776e-01,-2.18124032e-01,4.25845310e-02,1.99040696e-02,3.77240814e-02,-7.95698389e-02,8.58666450e-02,-1.47343025e-01},{5.88629721e-03,-9.46779773e-02,7.89692625e-02,4.20689881e-02,-1.34358844e-02,1.08243674e-01,-2.51450986e-02,-8.45684856e-02,-1.51426598e-01,-3.99312526e-02,7.78004978e-05,4.33978178e-02,7.25008175e-02,2.36608624e-01,3.19927543e-01,-1.03525840e-01,-3.62342089e-01,-2.06136078e-01,-1.88874573e-01,1.28688350e-01,6.96687475e-02,2.71556322e-02,2.76066631e-01,-2.79268861e-01,-1.68050513e-01,-2.75569916e-01,-1.10080922e-02,3.08919307e-02,-2.13274341e-02,-9.02118608e-02,-9.10066813e-02,-6.36969060e-02,-2.02872500e-01,-1.91775933e-01,1.18020356e-01,2.14859068e-01,-1.23288505e-01,1.34437025e-01,-9.40395370e-02,-1.03335045e-01,-1.47360936e-01,1.56887382e-01,1.83398575e-01,-3.16842236e-02,2.00911477e-01,-1.81954533e-01,9.39313546e-02,-9.84748676e-02,-3.09574697e-02,9.59871858e-02,-4.43234071e-02,-6.29426464e-02,2.20279083e-01,-8.74265358e-02,9.93973389e-02,2.09953059e-02,6.91781715e-02,-2.93368064e-02,-4.59605865e-02,-3.37878019e-01,-2.54444301e-01,2.12732330e-02,-2.50531137e-01,-1.31112173e-01},{1.87860563e-01,5.93104996e-02,-3.19788493e-02,-1.09420158e-01,-1.95084170e-01,-2.21813247e-01,-1.22671783e-01,-3.08985729e-02,1.28647566e-01,2.11278498e-01,2.26909183e-02,9.82880145e-02,-8.50704610e-02,3.29366326e-01,2.39009961e-01,1.34674177e-01,7.44380355e-02,-2.44988613e-02,3.32780071e-02,1.72570124e-02,1.39094725e-01,-5.60001805e-02,-7.22769052e-02,1.61481917e-01,2.73570508e-01,-1.74349602e-02,1.69791281e-01,5.62604107e-02,-1.36410430e-01,2.73766611e-02,-6.88995991e-04,3.40356112e-01,-1.24981061e-01,1.38369873e-01,1.07866481e-01,-8.32328871e-02,1.77935455e-02,2.53927976e-01,7.54154772e-02,-1.82735115e-01,1.28059104e-01,-5.76657169e-02,6.38078377e-02,-4.35730278e-01,2.06048951e-01,4.04689275e-02,-7.54492506e-02,-1.03587778e-02,-1.64072409e-01,1.78885162e-01,9.19385478e-02,1.90679714e-01,5.35249747e-02,-1.65449440e-01,1.81463942e-01,-2.43489787e-01,-1.43858850e-01,-6.09854944e-02,7.77327567e-02,-2.42686510e-01,4.67227921e-02,1.86339706e-01,7.23268613e-02,-8.70536491e-02},{-1.31823331e-01,1.45215273e-01,3.84252906e-01,-5.43443933e-02,-5.96312582e-02,-8.02180916e-02,-1.73866078e-01,-1.31834701e-01,7.24891946e-02,1.07971698e-01,2.80712277e-01,-3.22019696e-01,2.56711751e-01,-2.02202380e-01,-7.74387270e-03,7.01635843e-03,7.83911049e-02,-1.70697257e-01,4.39951234e-02,1.26690701e-01,2.64807969e-01,-1.60143882e-01,-2.33575046e-01,-7.93981552e-02,-8.68041664e-02,4.81375344e-02,5.36836386e-02,-7.16363639e-02,-1.29896924e-01,6.38303754e-04,-5.02796695e-02,-1.24908961e-01,2.90862858e-01,-2.08787665e-01,-7.34826252e-02,8.23872089e-02,-2.02189282e-01,-1.04028307e-01,-2.90608257e-02,1.12850130e-01,2.76166573e-03,-1.03347711e-01,-2.70392951e-02,8.46460536e-02,-1.13764651e-01,-8.99644475e-03,6.62420467e-02,-6.58964068e-02,1.43312007e-01,1.12640504e-02,-1.42415881e-01,-7.06291273e-02,-1.15305252e-01,1.49258405e-01,-7.15674907e-02,-1.77198589e-01,8.34852010e-02,2.61757821e-01,1.24730356e-01,1.31397936e-02,5.35234110e-04,1.83321252e-01,-4.15291265e-02,2.37328224e-02},{3.26141827e-02,-7.60754049e-02,-3.59783530e-01,1.12956554e-01,4.20116819e-02,1.62048429e-01,-4.71308175e-03,9.15401429e-02,1.85201734e-01,2.17354417e-01,-6.57370165e-02,-1.02871768e-01,9.92214456e-02,-2.27331713e-01,1.88055579e-02,-5.60141653e-02,1.48915201e-01,-2.75994316e-02,1.26371205e-01,-4.64727394e-02,4.33944948e-02,-1.14613520e-02,-7.39746122e-03,4.14026305e-02,8.35610330e-02,9.22566727e-02,-1.60989061e-01,2.50472575e-01,-9.38131586e-02,4.58911173e-02,-6.18184283e-02,-1.10497884e-02,2.96889484e-01,8.95496681e-02,3.50409672e-02,-4.67091426e-02,4.81101722e-02,-8.95720944e-02,-1.69123441e-01,8.21276382e-02,2.93238878e-01,-5.97445220e-02,-2.21772119e-02,1.15715407e-01,2.42387295e-01,-1.66782439e-01,2.40290817e-02,2.75092751e-01,-2.09972307e-01,-3.59287225e-02,1.01108424e-01,-1.26003459e-01,5.70988022e-02,-2.48179287e-02,2.20182090e-04,1.35741383e-01,3.83608304e-02,4.37209159e-01,1.23856952e-02,-1.62011400e-01,1.22726085e-02,-1.00605218e-02,2.44047157e-02,1.50983304e-01},{1.45345598e-01,-4.30364050e-02,1.73187982e-02,-1.53653249e-01,1.10262178e-01,2.81044506e-02,-1.54132694e-01,2.12212816e-01,-2.51860321e-02,4.29922454e-02,4.12110500e-02,-2.48667374e-02,1.50007889e-01,5.31659089e-02,-4.84095998e-02,-3.18856072e-03,4.17459816e-01,1.60175517e-01,5.23108914e-02,-1.55128404e-01,-4.89142956e-03,4.49438959e-01,5.13762683e-02,1.29185528e-01,-3.89389917e-02,3.44893485e-02,-4.71240655e-03,2.28105530e-01,-5.29637933e-02,2.62099728e-02,-1.44502982e-01,-7.35777915e-02,1.01029478e-01,-8.99218023e-02,-2.06607915e-02,5.99428155e-02,-7.00666532e-02,-2.13974565e-01,4.51189317e-02,1.85896441e-01,9.78300124e-02,1.14045896e-01,-1.11635424e-01,2.60717809e-01,-3.66800487e-01,2.25478128e-01,-7.35634044e-02,-2.39181891e-01,7.08397254e-02,-1.06574111e-01,2.13078707e-01,-2.07909927e-01,-1.69507176e-01,1.56827435e-01,8.41511488e-02,1.38269290e-01,2.57056415e-01,-1.26942173e-01,5.12289524e-01,-1.08020380e-01,1.76875100e-01,4.48373333e-02,2.38610581e-01,1.43415630e-01},{2.27719117e-02,-9.45502743e-02,-1.67167976e-01,-8.37944299e-02,-4.20270301e-02,1.88874885e-01,3.36216778e-01,-1.56724289e-01,-1.30711928e-01,7.46203065e-02,-2.32564852e-01,3.03402722e-01,-2.61748582e-01,3.34260683e-03,1.30302891e-01,-1.68221191e-01,-1.38198450e-01,8.57722759e-02,-1.71318784e-01,-1.56387702e-01,-4.61800918e-02,3.74041013e-02,8.95057842e-02,5.58604524e-02,1.55912647e-02,3.35992306e-01,-1.82523876e-01,-3.18181306e-01,2.53466100e-01,5.24308309e-02,4.50005420e-02,4.69573922e-02,-6.22425340e-02,1.65233716e-01,-1.88371867e-01,-2.28127763e-01,2.92863131e-01,-2.00604245e-01,1.84493542e-01,-2.64962792e-01,-1.29444107e-01,-3.17316428e-02,-4.10512313e-02,-2.69718021e-01,1.29304126e-01,-1.74842738e-02,8.44572857e-02,2.60410219e-01,8.79517421e-02,1.14745960e-01,-1.12961948e-01,-3.91806476e-02,2.07007036e-01,3.10397521e-02,5.44335097e-02,1.76602542e-01,-3.24545503e-01,1.00291714e-01,2.56263483e-02,-2.62147814e-01,2.68185824e-01,1.08827546e-01,-1.38751492e-01,-4.83787097e-02},{-1.37196928e-01,1.39575869e-01,1.08882144e-01,-2.11496875e-01,-1.01543479e-02,-1.46819293e-01,-1.50728002e-01,2.21779808e-01,1.09921634e-01,5.17098978e-02,-1.54192969e-01,1.36613101e-01,-9.19091851e-02,-1.90734744e-01,2.52204686e-01,-5.40172383e-02,1.12359636e-01,4.86744568e-02,-7.23185688e-02,-2.19224647e-01,1.11366682e-01,1.34309217e-01,1.15708567e-01,1.01509489e-01,-1.41296893e-01,1.21475235e-02,1.64365813e-01,3.40057327e-03,-6.59534857e-02,1.83097664e-02,5.81726767e-02,-1.21081859e-01,-2.12471277e-01,-5.53578176e-02,-1.52716905e-01,4.08048071e-02,-2.36946847e-02,-1.13975160e-01,1.25008285e-01,-1.57459602e-01,1.34709612e-01,1.04340263e-01,-3.78032207e-01,2.45313779e-01,-2.41862878e-01,1.02314726e-01,2.28475202e-02,8.46235827e-03,-2.13846676e-02,-1.24629438e-02,1.86405867e-01,3.68437394e-02,-1.45796224e-01,5.78506850e-02,-1.40788391e-01,-3.28922807e-03,-1.44671246e-01,-1.76935583e-01,6.09918535e-02,1.46742418e-01,-2.15418562e-01,-1.17877061e-02,1.58659682e-01,4.46349233e-02},{-5.67201115e-02,-3.85718457e-02,2.20743805e-01,1.06388353e-01,3.92011441e-02,-1.27092570e-01,-2.73617581e-02,-9.33294669e-02,2.75442712e-02,-3.49096721e-03,-3.12114749e-02,6.39991611e-02,1.50975194e-02,1.75408684e-02,1.31554352e-02,1.55246466e-01,-9.76089910e-02,-1.38388887e-01,1.94849893e-01,1.81231529e-01,-3.62343714e-02,-1.60558596e-01,-1.24429137e-01,-1.02699541e-01,2.71382481e-01,-3.59016061e-02,-1.05517544e-01,-1.30216807e-01,-1.22880630e-01,-1.12831846e-01,2.56649666e-02,-2.35818669e-01,6.77634329e-02,1.03410698e-01,2.73021627e-02,4.65205126e-02,2.87764966e-01,-7.47143552e-02,7.90841207e-02,4.67907228e-02,4.08491373e-01,-1.19020592e-03,7.93774650e-02,2.97323138e-01,-2.57219989e-02,7.42862523e-02,-1.94089673e-02,3.26961949e-02,-1.61071703e-01,-1.36608720e-01,2.11445674e-01,2.07033247e-01,3.38619649e-02,1.78410172e-01,-8.93916413e-02,-1.48703158e-01,1.72124103e-01,1.45983309e-01,-2.33824536e-01,-1.02731675e-01,-2.53524836e-02,-2.64427513e-01,1.50828600e-01,-2.01074947e-02},{7.45591372e-02,2.36805215e-01,-2.43934579e-02,8.77837986e-02,9.37936679e-02,2.61887640e-01,1.76073506e-01,4.42202389e-02,1.03958152e-01,-1.34396493e-01,1.04729757e-01,3.57794352e-02,-1.26561791e-01,1.54407993e-01,-3.07036247e-02,-6.95149377e-02,-4.13117930e-02,5.68469279e-02,1.70577139e-01,1.95205268e-02,-3.52167279e-01,-5.39798886e-02,-5.29314391e-02,1.19862720e-01,3.35348062e-02,-1.04749337e-01,2.14114189e-01,-1.27552673e-01,8.68968964e-02,-4.28329632e-02,-1.72800601e-01,-1.86554968e-01,3.97436351e-01,-1.92014307e-01,1.15351472e-02,2.10270938e-02,-2.34352365e-01,-8.57488587e-02,2.00877473e-01,-2.10733637e-02,1.02191165e-01,-7.75172710e-02,1.30761072e-01,-2.69107133e-01,1.48739651e-01,-8.20333064e-02,-5.24124950e-02,9.58635136e-02,-1.56584144e-01,-5.29353879e-02,2.18508482e-01,5.68216257e-02,-3.50492969e-02,-5.95811717e-02,1.00130357e-01,-1.10844374e-02,2.65927732e-01,3.60266715e-01,-1.18496902e-01,-9.89432633e-02,1.04722157e-01,1.13377512e-01,3.00344020e-01,1.69666559e-01},{-6.66596219e-02,7.19406754e-02,2.80674398e-01,1.37101308e-01,-1.54013023e-01,-5.34453914e-02,-3.60766351e-02,-1.28532544e-01,-1.62612215e-01,-2.94149518e-02,-1.57926470e-01,1.24816842e-01,1.57937065e-01,1.25736877e-01,1.97393581e-01,-2.46204063e-01,-7.49643147e-03,1.36489168e-01,7.00742751e-02,-1.18498299e-02,3.00588131e-01,2.84549117e-01,-1.18313223e-01,-1.04177609e-01,-2.52678514e-01,2.17169821e-02,8.42151046e-02,3.21160674e-01,-1.59870405e-02,-4.06764373e-02,2.61764489e-02,-4.35960153e-03,-2.44708404e-01,-1.42654091e-01,2.31360551e-02,-6.39309688e-03,-4.21791710e-02,1.84322894e-01,-7.30610639e-02,-1.48231387e-01,1.38858736e-01,4.56872173e-02,-6.49603903e-02,2.21917093e-01,-2.25209966e-01,-5.96731938e-02,8.08669478e-02,1.02675155e-01,-1.82633087e-01,5.95249087e-02,-1.56381354e-01,-1.29861400e-01,-8.25749487e-02,2.65259538e-02,1.95454881e-02,1.59330860e-01,1.91806868e-01,1.96509287e-02,7.55318627e-02,2.82689128e-02,-1.59935072e-01,-3.11564915e-02,-6.70817792e-02,-6.87026605e-03},{-1.25405401e-01,-5.43686673e-02,-3.49629372e-02,1.41134307e-01,-2.89159119e-01,-5.25194556e-02,8.07905197e-02,-1.51238397e-01,3.11616361e-02,-3.44162583e-02,2.87359543e-02,-1.43550292e-01,4.25301790e-02,-4.78644669e-02,-1.10426813e-01,-1.37098968e-01,-1.74265191e-01,-4.71388429e-01,-8.59070867e-02,2.67472506e-01,1.50621712e-01,-1.31264016e-01,-2.90979398e-03,7.79964998e-02,-1.05896004e-01,-7.73535818e-02,-8.15681964e-02,2.14749184e-02,-1.05977580e-01,1.77998051e-01,2.71508604e-01,-5.94498813e-02,-1.97398022e-01,2.00409278e-01,-1.31081222e-02,2.08583280e-01,6.42204806e-02,1.80768102e-01,7.91988596e-02,1.60343528e-01,1.36328526e-02,1.34201020e-01,4.65895534e-02,-4.83239628e-02,-1.66655295e-02,5.64613789e-02,-2.12659016e-02,-5.03818840e-02,-1.74562782e-01,2.14606851e-01,-2.68164515e-01,1.43252844e-02,-7.47868270e-02,-3.54967803e-01,-2.54550874e-01,-4.33326233e-03,-4.66557331e-02,-6.27860473e-03,-2.44956955e-01,-3.42543185e-01,1.78821370e-01,2.74320953e-02,-2.91938156e-01,-3.82248402e-01},{-1.53806224e-03,9.08157527e-02,9.15502012e-02,1.38183892e-01,-1.57755334e-02,-1.87728673e-01,-3.02738428e-01,1.58389986e-01,-2.56581772e-02,-4.06549051e-02,7.54503980e-02,-2.75072176e-02,1.43845290e-01,-1.80891007e-02,-1.46151455e-02,-7.59259835e-02,-7.48318583e-02,-1.01010673e-01,-4.42743868e-01,-1.51966289e-01,-1.99080199e-01,1.40668020e-01,5.19500598e-02,-4.41875570e-02,3.12378760e-02,-8.29637125e-02,1.00607023e-01,5.46412468e-02,-8.24479088e-02,-2.72234790e-02,-7.51989111e-02,-9.35685858e-02,1.22719370e-01,3.34121674e-01,9.87934619e-02,-1.02942169e-01,-1.51745707e-01,-3.25508714e-01,1.02254972e-01,-1.66941807e-01,-1.40330166e-01,8.69006962e-02,-1.00654334e-01,-2.88064852e-02,-1.71980411e-01,-6.54337555e-02,-4.41192649e-02,7.74039188e-03,-1.76595911e-01,-1.25744089e-01,1.03435196e-01,-8.17528293e-02,1.08225808e-01,-9.88215059e-02,6.29766956e-02,-9.59273800e-02,6.76162243e-02,1.32262006e-01,1.43513903e-01,1.76374361e-01,1.90414011e-01,8.92230310e-03,1.50305584e-01,1.00361342e-02},{-3.55446637e-02,1.64736584e-01,1.30114667e-02,-3.56859947e-03,-9.72222611e-02,-8.02885145e-02,1.13752745e-01,-1.91816106e-01,-1.67107046e-01,-1.15362868e-01,-3.63588259e-02,-5.59454225e-02,1.56011239e-01,-7.55774081e-02,9.65484008e-02,-2.09608357e-02,6.74934732e-03,-1.07840329e-01,1.39017567e-01,4.71419804e-02,1.01459414e-01,-2.22723290e-01,-1.80201054e-01,1.89347282e-01,-7.76526928e-02,1.12358242e-01,-5.30261174e-02,-2.16757312e-01,9.88858119e-02,-2.68612299e-02,-3.02491821e-02,-2.25143433e-02,3.24368402e-02,2.19823774e-02,-2.46294215e-01,2.51711071e-01,-2.27404356e-01,7.81845152e-02,1.47033855e-01,-1.57355100e-01,-6.46194741e-02,-2.74462868e-02,-4.23290253e-01,-9.58361775e-02,-2.23621503e-01,-4.59122360e-02,1.72328934e-01,-3.97315510e-02,4.68561705e-03,-9.89997685e-02,-2.14783952e-01,5.70948571e-02,4.28826958e-02,1.58688173e-01,-5.25657274e-02,1.47213504e-01,-1.24972299e-01,2.28859466e-02,-1.09268595e-02,-1.25584140e-01,2.62669444e-01,6.09589815e-02,3.31027880e-02,-1.64003804e-01},{-2.05877453e-01,-1.10993259e-01,1.71543553e-01,-2.13347822e-01,1.33403897e-01,-6.97628558e-02,-2.40531996e-01,1.81980222e-01,1.04218006e-01,2.44681031e-01,6.89575672e-02,-1.17882468e-01,7.66132697e-02,-2.16273293e-01,2.65507638e-01,-7.85631463e-02,-4.46986295e-02,2.33224437e-01,-4.76500131e-02,-4.18397486e-02,1.52829126e-01,-4.16886469e-04,-3.69658247e-02,-2.08930656e-01,-1.73019677e-01,-2.06673950e-01,-8.07560142e-03,1.69739679e-01,-1.38677359e-01,-1.98792368e-01,7.63517171e-02,9.63444356e-03,-1.82430789e-01,1.52582705e-01,9.12509114e-02,2.79137548e-02,-1.09967142e-01,4.06027846e-02,1.03201754e-01,-2.24311993e-01,-3.56032550e-02,-1.01205096e-01,9.21215340e-02,8.69508311e-02,2.15969458e-01,6.76482394e-02,-7.93223232e-02,1.31378353e-01,6.65013865e-02,7.09276944e-02,-2.78040737e-01,-1.44911394e-01,-1.30430967e-01,-5.57754785e-02,3.04416604e-02,-6.47706836e-02,1.67761013e-01,-1.17596865e-01,1.03791095e-01,1.37664050e-01,-1.41271725e-01,1.62309706e-02,-1.48603782e-01,2.38342613e-01},{-6.04502894e-02,-5.00606745e-02,-8.30128640e-02,-3.67071778e-01,1.38570115e-01,7.42063224e-02,-6.28838167e-02,-1.10447809e-01,1.38592236e-02,-9.51546058e-02,4.45121191e-02,1.79077890e-02,-1.18121020e-01,-6.35045767e-02,-9.60709229e-02,8.84381402e-03,6.77458420e-02,-2.78103016e-02,1.40109137e-02,-2.04526316e-02,-1.29454523e-01,5.48400991e-02,-3.15111309e-01,-2.53927615e-03,3.03276539e-01,1.30634710e-01,-1.87453911e-01,-1.57761991e-01,-9.08206701e-02,2.30880052e-01,8.57011378e-02,1.64312169e-01,-1.39140800e-01,-8.99828076e-02,-1.93800271e-01,1.38177067e-01,-1.00035667e-01,-1.41066104e-01,-2.10835040e-01,-9.82601102e-03,1.09513082e-01,-7.48941675e-02,-3.55361879e-01,-1.54115275e-01,-2.36586750e-01,-2.03521699e-01,3.23434658e-02,3.01175594e-01,9.06797722e-02,-3.07462160e-02,4.69015911e-02,9.96001065e-02,-1.47715718e-01,-6.51352182e-02,2.84031648e-02,8.18703696e-02,-3.05958707e-02,3.79184745e-02,-1.25636905e-01,1.91196501e-01,4.65901829e-02,-1.22686557e-01,1.29513681e-01,-1.03976533e-01},{-1.39342353e-01,-9.10921618e-02,9.67415050e-02,5.60401045e-02,-4.08993751e-01,-2.52046287e-01,-9.84329060e-02,7.41014779e-02,8.29300880e-02,1.17230453e-01,-1.27699882e-01,7.81481341e-02,-7.30736032e-02,1.09817870e-01,3.43438417e-01,-6.21770583e-02,-8.38571787e-02,7.24013969e-02,-2.00760290e-01,-2.16186970e-01,1.18970126e-01,1.75112095e-02,1.96245044e-01,-5.60686039e-03,-1.33934185e-01,1.66349992e-01,-2.67754436e-01,-2.11626306e-01,5.16112745e-02,4.95754592e-02,1.30759954e-01,5.27811088e-02,-6.84293285e-02,9.95028764e-03,9.88334138e-03,-7.89643154e-02,-2.18376011e-01,1.35252997e-01,1.08268328e-01,-1.20288134e-01,-3.12043577e-01,1.29810244e-01,-2.30295748e-01,-5.26248634e-01,2.78559569e-02,9.04179960e-02,2.37808209e-02,2.44180784e-01,1.89698890e-01,-2.42428571e-01,3.04718856e-02,-1.02910131e-01,7.72967786e-02,9.38951299e-02,-1.33658964e-02,-2.05016986e-01,-1.51386872e-01,-1.93955570e-01,1.96561459e-02,2.42554285e-02,1.92229629e-01,-4.51943576e-02,-2.38453805e-01,-2.29959026e-01},{1.25857234e-01,4.97331880e-02,-3.67818885e-02,1.17270932e-01,-1.00497201e-01,-8.80475119e-02,-1.46517128e-01,1.89040333e-01,3.51516873e-01,6.75136819e-02,-1.02962039e-01,-6.67790249e-02,2.20242999e-02,2.61144519e-01,3.54923587e-03,-1.39026210e-01,-6.19614013e-02,2.27148980e-02,-7.13730901e-02,-9.37724113e-02,1.10701531e-01,9.31207761e-02,-8.30153152e-02,1.48313835e-01,-7.35886917e-02,-1.36277288e-01,1.25914842e-01,-2.66652722e-02,1.60212412e-01,-1.23377860e-01,-8.86107907e-02,6.29068632e-03,5.14025390e-02,1.36197880e-01,1.31172121e-01,5.21059963e-04,-2.66668200e-01,-2.59056259e-02,1.02433279e-01,-3.21488589e-01,-1.20739639e-01,-7.55098090e-02,-1.37334123e-01,-2.93743044e-01,-6.19119443e-02,2.38052309e-01,1.18729591e-01,-5.78115284e-02,3.16243112e-01,6.66271076e-02,-6.02471828e-02,2.38211825e-02,1.77406132e-01,-1.11773759e-01,-1.02061247e-02,-1.62014812e-01,6.51252940e-02,-3.25346261e-01,-1.00814275e-01,8.93889666e-02,2.17339784e-01,3.44260573e-01,5.59369922e-02,8.16150680e-02},{9.11417305e-02,-6.13099895e-02,5.05477749e-02,-4.73789312e-02,-2.60086447e-01,1.49648622e-01,2.08271280e-01,-9.44053680e-02,-6.71628937e-02,-7.05576092e-02,5.87677024e-02,-6.35257587e-02,-5.57440296e-02,1.31975383e-01,1.67790502e-01,-2.60441273e-01,-2.79125482e-01,-3.32732975e-01,-1.14563182e-01,8.71658772e-02,2.90800296e-02,-2.10013285e-01,-1.56095922e-01,-2.87771970e-02,-3.12737636e-02,-1.14222169e-01,-1.07916825e-01,-6.99804816e-03,-1.87440693e-01,-1.56696185e-01,3.01048364e-02,1.85884401e-01,-5.45668192e-02,-9.91679821e-03,-1.44284263e-01,-4.48372923e-02,1.03674822e-01,1.76861703e-01,-2.16965064e-01,-2.24189293e-02,-6.97532147e-02,7.87650347e-02,8.44285935e-02,-1.26338571e-01,-2.01836765e-01,6.67750016e-02,7.07202405e-02,-1.47368584e-03,-2.31934175e-01,4.86788787e-02,-1.87304676e-01,-9.79349762e-02,2.32708454e-01,6.92976862e-02,6.96760928e-03,-2.22375184e-01,-1.07910469e-01,-2.92666018e-01,-1.21820480e-01,-4.42101881e-02,1.76640213e-01,1.03952125e-01,4.63868938e-02,-6.92370683e-02},{4.17868234e-02,-3.34849715e-01,8.72921571e-02,-2.94805944e-01,1.13207832e-01,-2.40332726e-03,-2.23291293e-02,-6.56747073e-02,8.86983350e-02,2.57602364e-01,-2.50472814e-01,-1.23307835e-02,3.16154659e-02,4.53875996e-02,1.11090943e-01,6.71543777e-02,-1.09223165e-01,-1.07719749e-01,-2.34423485e-02,-5.87326214e-02,1.25550643e-01,-1.19387306e-01,-1.77114457e-01,1.25285864e-01,1.33297965e-01,1.68664556e-03,1.86165884e-01,-2.75260657e-01,-6.13534376e-02,-1.57866180e-01,-5.24949990e-02,1.17392287e-01,-1.00474596e-01,1.55781373e-01,5.02753146e-02,3.26518901e-02,-1.91869453e-01,7.38867745e-03,2.17744149e-02,-1.16841927e-01,1.59281373e-01,7.15351896e-03,2.97919028e-02,1.13067411e-01,1.42006516e-01,1.63867310e-01,-1.08611435e-02,3.55186850e-01,1.98880196e-01,4.82852431e-03,-2.16627583e-01,9.94639546e-02,1.30456001e-01,5.84983863e-02,1.87749099e-02,-7.74273798e-02,7.97377601e-02,-1.82057187e-01,-1.30264774e-01,-2.19371036e-01,1.09716877e-01,2.41785765e-01,-1.83240116e-01,-3.47935110e-01},{1.60475716e-01,-1.54035464e-01,-2.24423274e-01,1.66811608e-02,-1.45762637e-01,4.16435208e-03,1.15025833e-01,6.23863786e-02,-2.80933715e-02,1.62799463e-01,-1.01497471e-01,1.75666258e-01,-1.60175174e-01,5.38994707e-02,-1.15567714e-01,-1.52106360e-01,9.72922985e-03,7.38179088e-02,-7.25352764e-02,-4.24775220e-02,2.43401885e-01,-8.19638669e-02,2.37322778e-01,-3.95810939e-02,-1.05401419e-01,2.25198388e-01,-1.37221888e-01,-1.02582559e-01,1.09375075e-01,4.29874212e-02,4.02869061e-02,-3.53560969e-02,4.89385426e-02,1.50055364e-01,-2.65853305e-04,-1.24363542e-01,4.50168690e-03,-1.00474000e-01,1.94227010e-01,-1.68559641e-01,2.19390228e-01,-7.03682303e-02,3.06920916e-01,-2.08217233e-01,2.56344050e-01,5.70555264e-03,5.25847226e-02,-4.66796719e-02,-3.82185169e-02,-1.73048943e-01,1.14359602e-01,-1.87820718e-01,-1.07781701e-01,-3.31423342e-01,-1.45538049e-02,-1.27315342e-01,-2.49504864e-01,-4.99605000e-01,8.68840218e-02,-8.12416151e-02,6.24737293e-02,2.66479738e-02,2.03402843e-02,-4.81479242e-02},{2.88514316e-01,-8.13220516e-02,6.22422434e-02,9.95917693e-02,7.33316690e-02,-2.31294055e-02,6.42355084e-02,-7.71457478e-02,-5.47484346e-02,1.20145315e-02,-9.53644365e-02,1.80633143e-01,3.79628427e-02,-2.29140088e-01,1.04904585e-01,3.42247069e-01,1.40846046e-02,7.62249678e-02,8.11845064e-02,-1.16286492e-02,1.09243736e-01,1.03207514e-01,-3.91151682e-02,7.91358203e-02,1.53020054e-01,-5.97107336e-02,7.15370029e-02,3.15354675e-01,3.26763481e-01,-2.27903426e-02,-6.37190649e-03,8.79466608e-02,-1.05768062e-01,1.62925735e-01,1.51487038e-01,9.40808654e-02,2.51450241e-01,1.57554388e-01,9.32366177e-02,1.34523995e-02,6.62589073e-02,1.89051822e-01,-2.23546758e-01,-1.90443099e-01,2.71457642e-01,-2.87999939e-02,-1.97870493e-01,1.22568704e-01,1.11094140e-01,-4.55871634e-02,1.74019977e-01,9.32922959e-02,2.78935879e-01,-1.36271924e-01,-1.14893176e-01,4.59144264e-02,-3.27656418e-01,-8.94625187e-02,9.92028043e-03,-2.09769130e-01,-3.81255895e-02,7.02866986e-02,8.23357701e-02,-2.66132146e-01},{-2.85340339e-01,3.73876840e-02,-6.65563792e-02,-1.62588447e-01,-1.15852825e-01,-1.44207655e-02,2.44970191e-02,5.14321923e-02,-8.08807388e-02,1.65975034e-01,5.94943017e-02,-2.97958814e-02,-3.52201015e-02,-2.07474932e-01,-1.63081586e-01,-1.32940695e-01,-1.47000119e-01,-2.46605694e-01,2.25532338e-01,2.69792140e-01,6.17926940e-02,-3.45000550e-02,4.34116926e-03,-4.36795771e-01,1.53826237e-01,5.93053102e-02,7.88372457e-02,1.06277466e-02,-2.64068097e-01,-8.69795009e-02,2.77445465e-03,-1.36058003e-01,2.00658843e-01,1.39383897e-01,-8.23782571e-03,1.23842098e-01,-4.61392924e-02,-3.81354317e-02,-1.00411937e-01,1.15847373e-02,6.62324727e-02,6.36145845e-02,-8.40904489e-02,2.33036652e-01,1.67452786e-02,1.51756153e-01,-1.34791240e-01,1.59797207e-01,-3.64754722e-02,-3.10048372e-01,4.58694473e-02,-1.49316788e-01,1.61397755e-02,1.31797686e-01,-1.26564100e-01,8.78607333e-02,-7.20579326e-02,4.47452307e-01,1.65086165e-01,7.63628855e-02,-5.19157480e-03,3.11223138e-02,-3.94990406e-04,7.81401247e-02},{-1.83273643e-01,-9.16220546e-02,1.66863039e-01,6.06705025e-02,4.45350930e-02,1.03275165e-01,7.85853639e-02,6.76506311e-02,-9.24138352e-02,1.87398568e-01,-4.93337847e-02,-9.00185183e-02,5.07492796e-02,2.51953453e-01,2.02131018e-01,-1.42236296e-02,1.08591281e-01,3.84216160e-02,-3.04984469e-02,1.58317953e-01,-4.57003675e-02,-2.59319067e-01,9.21393558e-02,-6.86765686e-02,-1.98770970e-01,-2.69849915e-02,1.83110647e-02,1.61272094e-01,2.73642689e-01,5.22547886e-02,1.08354226e-01,3.72454703e-01,5.59632592e-02,-7.87759721e-02,-2.82744877e-02,-1.34784147e-01,-9.74971335e-03,1.99960992e-01,3.49683054e-02,-2.17894409e-02,-7.07628354e-02,-1.18501700e-01,-2.63218194e-01,-6.79930970e-02,3.15767936e-02,-1.26122832e-04,3.15233208e-02,-1.47528872e-01,-2.18729988e-01,1.85158718e-02,-2.00236976e-01,-5.70680387e-02,-7.77780786e-02,-8.45685974e-02,6.90689534e-02,-4.13368493e-02,-3.12923416e-02,-5.04383235e-04,2.87734973e-03,-1.55930012e-01,-3.59961480e-01,1.54542908e-01,1.57800257e-01,2.21770823e-01},{2.72055119e-01,6.00243062e-02,-1.25904813e-01,-1.61310360e-02,-4.18411605e-02,2.00135499e-01,-2.46223226e-01,-2.86830813e-02,-1.52159855e-02,-4.10295725e-02,-2.15785563e-01,2.10325330e-01,-5.24384677e-02,5.63756488e-02,2.45815031e-02,1.18473254e-01,-1.13906455e-03,1.72126904e-01,1.32410944e-01,-3.54797661e-01,-4.71575893e-02,-2.66207367e-01,-2.25072011e-01,1.00676514e-01,-1.48051694e-01,-9.83447358e-02,1.57370567e-01,9.09860954e-02,-2.92116012e-02,7.48166889e-02,1.53455496e-01,1.85716361e-01,-1.16396993e-01,3.03554684e-02,-3.60172652e-02,-2.99259424e-02,1.89920932e-01,1.69806071e-02,-2.28050172e-01,-2.33843192e-01,-1.86390355e-01,-7.47906324e-03,-1.81302339e-01,-2.59249918e-02,3.18623573e-01,-2.63584238e-02,1.48956299e-01,6.09045178e-02,-6.20032027e-02,2.34871969e-01,-3.54733169e-01,3.44030671e-02,1.03263780e-01,3.49382684e-02,4.59181741e-02,-1.75521113e-02,-1.31851742e-02,1.73694659e-02,-5.33017963e-02,-1.86483130e-01,4.20378707e-02,-3.09377797e-02,1.49183169e-01,1.17884157e-02},{-2.03196555e-01,9.50028151e-02,-8.15054104e-02,-1.23168072e-02,-7.10581020e-02,1.16314597e-01,-8.74856636e-02,1.15773968e-01,1.36570364e-01,8.26058090e-02,-2.61497311e-02,-8.22884366e-02,1.15328021e-01,-1.20891467e-01,3.70859772e-01,-1.65246174e-01,-5.85125796e-02,1.79791585e-01,-2.43976071e-01,6.38197456e-03,-7.72868916e-02,-2.84807622e-01,-7.40210414e-02,7.84489959e-02,-2.41845697e-01,-3.32636312e-02,-2.18828857e-01,-3.38603884e-01,1.12446547e-01,1.10495560e-01,3.78731987e-03,-6.47793114e-02,8.39397907e-02,-1.49285018e-01,-6.46237703e-03,-4.76536825e-02,1.88644212e-02,3.74819905e-01,-1.66474298e-01,-1.64903611e-01,-6.79286793e-02,-3.78948078e-02,1.22750640e-01,2.54877005e-02,1.15047321e-01,-2.60307223e-01,-5.11673978e-03,-4.65837419e-02,-9.43036303e-02,6.72018528e-02,-1.12940721e-01,5.61107788e-03,1.67717487e-01,-1.43928751e-01,-5.56788817e-02,1.30330566e-02,-2.11031735e-03,-2.06466392e-03,-1.32885814e-01,-2.37435341e-01,-1.98747948e-01,7.08632320e-02,-3.03521790e-02,-6.75262362e-02},{5.50381932e-03,-3.25165063e-01,7.22589567e-02,-5.81268035e-03,3.84005159e-02,3.38812955e-02,-3.46175022e-02,-5.28819971e-02,-2.01800168e-01,-9.90783274e-02,1.29443824e-01,8.73035938e-02,-3.44326757e-02,9.28865448e-02,-7.76490523e-03,2.15713590e-01,1.94421392e-02,2.97227670e-02,9.65112001e-02,5.66025674e-02,4.17605191e-02,-1.07671410e-01,1.01132892e-01,5.32379150e-01,7.51807094e-02,1.97269004e-02,-2.06396371e-01,-2.06489965e-01,1.95862234e-01,2.61706263e-02,1.53541025e-02,1.24154292e-01,3.89691778e-02,-1.24560013e-01,-3.14257890e-02,2.06193626e-01,1.61198616e-01,1.30430073e-01,1.77728042e-01,-2.55959898e-01,-1.32125720e-01,-3.66963036e-02,-5.99925891e-02,-3.51434499e-01,-2.07741976e-01,3.60915437e-02,1.23404711e-01,9.30085871e-03,-1.53832853e-01,1.04946591e-01,-1.37834147e-01,-2.81498224e-01,3.33548278e-01,-2.83167243e-01,8.47233459e-02,8.03657696e-02,-1.41651660e-01,2.33548810e-03,-5.83448820e-02,-7.03258365e-02,2.25037172e-01,1.60766855e-01,1.67358473e-01,-1.75239369e-01}};
const float HIDDEN_BIASES_1[64] = {-0.13395259,-0.03561843,0.01491443,-0.03822146,-0.0269136,0.00538065,0.02929343,0.0757601,0.04039306,-0.11104425,0.00211013,0.08721881,0.08620321,-0.00358555,0.04076939,0.03586014,0.14031799,-0.07594518,-0.11147539,-0.11356597,0.07187103,0.11719858,0.00394891,-0.02167486,0.05422796,0.0446117,0.09801529,0.02272057,0.03714098,0.03574002,-0.07904182,-0.00548495,0.04164559,0.02322364,0.07909872,-0.02210987,0.07750548,-0.03958412,0.05061154,0.03219518,-0.01154217,-0.05929657,-0.06506627,0.05765629,-0.02158475,-0.07888481,0.04427864,-0.08783206,0.05679524,-0.03528946,-0.05316477,-0.00866041,-0.01928145,0.04018129,0.0567586,0.12923495,0.07698202,0.04152014,-0.00939707,0.05032908,0.01436977,0.06031077,0.09823871,0.00400898};
const float OUTPUT_WEIGHTS[8][64] = {{6.18543848e-02,-1.17062358e-02,-1.94920227e-02,5.10033406e-02,-2.99804304e-02,3.05669941e-02,-9.25446749e-02,-4.35268916e-02,1.02692984e-01,1.31888781e-03,1.25207990e-01,6.53418005e-02,-2.35929955e-02,-9.37239304e-02,-7.00072348e-02,2.51754932e-02,-1.15368128e-01,9.29831937e-02,1.15465291e-01,1.56323880e-01,4.62882183e-02,-3.92078683e-02,-6.19070306e-02,-8.82834382e-03,-8.37912038e-02,-6.88991472e-02,2.72751041e-02,-1.37336915e-02,3.24399618e-04,2.75809155e-03,-7.53492862e-03,-9.29077119e-02,-5.52363275e-03,-1.11188166e-01,-5.03590591e-02,1.00438625e-01,-5.08555584e-02,1.18202902e-02,8.82679131e-03,7.00375140e-02,-1.07230090e-01,-4.03661802e-02,7.53177330e-02,-1.05329826e-01,3.70091088e-02,-6.26191348e-02,1.10785961e-02,-3.46988905e-03,-1.89232841e-01,1.76305268e-02,-5.26442267e-02,-7.53099564e-03,-6.72911629e-02,-4.97736223e-02,5.05715571e-02,-6.28094077e-02,-1.19092487e-01,-9.04802885e-03,1.33539721e-01,-1.07435577e-01,-1.49257928e-02,-6.04276359e-03,-5.39469905e-02,1.15271278e-01},{-9.51285660e-02,2.73032393e-02,-5.29619381e-02,1.15948438e-03,-3.77582833e-02,3.69057655e-02,7.22668245e-02,-2.95726005e-02,6.54166788e-02,-1.23112416e-02,9.08457562e-02,7.40853623e-02,-1.23461969e-02,1.10489514e-03,-2.70342547e-02,-2.38139648e-03,5.57177775e-02,-4.77819610e-03,-4.95069027e-02,-9.56401899e-02,2.08919138e-01,5.23134694e-02,-2.02593468e-02,-9.42243338e-02,-2.83734184e-02,3.38091999e-02,1.04225442e-01,8.98359939e-02,-7.64092579e-02,-2.83019096e-02,1.17788222e-02,-6.12084009e-02,9.18686241e-02,-1.22908108e-01,-3.90922464e-02,1.15546204e-01,-2.47626081e-02,-7.79145584e-02,8.75741914e-02,-6.11112043e-02,-8.15247744e-02,7.58043826e-02,-3.25506963e-02,7.32064918e-02,-1.11396752e-01,-2.42506918e-02,1.25853986e-01,-5.05130775e-02,-1.44323707e-02,-4.11693566e-03,-4.10824120e-02,-1.07145652e-01,-4.53889892e-02,-1.34188924e-02,-3.15419137e-02,4.09668311e-03,-1.65282652e-01,1.33353695e-01,-2.06737220e-02,4.17326204e-03,2.46263854e-02,1.32426405e-02,4.65768315e-02,1.36546250e-02},{7.75138673e-04,1.26336306e-01,-1.43499486e-02,-1.61995385e-02,-4.06246595e-02,3.13687362e-02,1.06766544e-01,1.31327808e-02,-1.30037412e-01,-3.27700265e-02,6.37922660e-02,1.76286732e-03,-7.61342496e-02,6.89104423e-02,3.92517112e-02,7.38351792e-02,9.98481512e-02,8.78604800e-02,-1.34991288e-01,5.42651862e-03,-1.29057458e-02,-9.73444730e-02,1.89417332e-01,-4.34541181e-02,-5.94007559e-02,-4.82090712e-02,1.26441568e-01,-1.22648023e-01,6.28270805e-02,-5.65858297e-02,-2.92726047e-02,6.75108656e-02,1.64104793e-02,-1.80296563e-02,4.95006284e-03,2.36301944e-02,6.92153499e-02,-1.25070751e-01,-2.44919565e-02,-9.14701223e-02,1.29838297e-02,-4.87552732e-02,-1.24757020e-02,8.92688110e-02,-2.51493510e-02,3.65470373e-03,-1.28622372e-02,-3.67988385e-02,6.95119612e-03,-9.30376872e-02,3.05197742e-02,-6.60198629e-02,9.07168686e-02,7.66070792e-03,-1.76573098e-02,9.85849928e-03,-1.39774717e-02,-4.21627164e-02,-1.13941431e-01,-5.01722954e-02,6.02917047e-03,-1.02168648e-02,1.19345106e-01,7.08381832e-02},{7.91865811e-02,-3.52336317e-02,-1.17824957e-01,2.42279395e-02,-8.79617855e-02,3.07688322e-02,3.33584249e-02,-8.35831463e-03,1.29939094e-01,3.63433957e-02,-3.58413942e-02,-9.17858332e-02,-3.44472118e-02,-5.08816503e-02,-1.31447827e-02,7.19749257e-02,5.68148447e-03,1.00053936e-01,-1.14238421e-02,1.02055140e-01,-1.30077481e-01,1.02278933e-01,-7.87885711e-02,3.45855877e-02,-6.31190538e-02,-3.94796133e-02,-1.24730906e-02,-8.63959938e-02,1.99715029e-02,-2.79278979e-02,-1.36347145e-01,1.21378422e-01,2.71133911e-02,7.48963356e-02,-5.41335382e-02,2.04782579e-02,-1.98600572e-02,-8.77513587e-02,-2.05292031e-01,3.92509624e-02,-4.26218510e-02,-2.88323290e-03,6.79155141e-02,1.56995319e-02,-2.80757230e-02,1.69106126e-02,1.20301604e-01,-8.72467384e-02,-5.86933456e-02,-3.99735682e-02,1.19914979e-01,-2.05986172e-01,1.22993410e-01,-4.64075692e-02,-7.35011790e-03,-1.62173864e-02,3.06337755e-02,-9.41099077e-02,1.01752542e-01,-4.74768057e-02,-2.29916126e-02,5.08638136e-02,-8.84808153e-02,1.40738949e-01},{-1.75152913e-01,-5.66507317e-02,8.95891860e-02,2.89770275e-01,-6.24256618e-02,-5.02974354e-02,-4.38419096e-02,-7.81754628e-02,1.37978911e-01,-1.41727388e-01,-9.20413733e-02,2.77424827e-02,2.38012552e-01,3.54491502e-01,-2.09398881e-01,-8.01203474e-02,4.57145497e-02,8.92712623e-02,3.56994569e-02,-1.09903425e-01,-7.27235973e-02,-1.72123656e-01,6.72142431e-02,-1.36593550e-01,-1.09214060e-01,7.52329528e-02,1.63428664e-01,-5.41081205e-02,2.04699039e-01,1.45967379e-01,-5.50236888e-02,-1.07338235e-01,3.32233846e-01,-1.26734972e-01,1.95603937e-01,1.44886822e-01,8.55759680e-02,2.76437271e-02,1.38532221e-01,1.10232435e-01,-1.47544131e-01,2.81843543e-02,-1.93880364e-01,3.23921889e-01,3.47049609e-02,1.04424022e-02,7.95235857e-02,-1.38214305e-01,6.63442025e-03,1.78957209e-01,-4.92155552e-02,2.47533359e-02,-1.36243820e-01,3.40581506e-01,3.05892408e-01,-3.91440801e-02,2.04119340e-01,1.68986782e-01,9.31822360e-02,-9.47474390e-02,-1.35250345e-01,-9.46893841e-02,2.00014710e-01,5.12099788e-02},{-1.73032880e-01,1.15976771e-02,1.10699579e-01,2.19013065e-01,7.84436464e-02,-2.88300769e-04,-1.41013265e-01,1.73534960e-01,-4.52120730e-04,-1.51342034e-01,-5.51056527e-02,-4.95668948e-02,1.79837659e-01,1.05942689e-01,-2.00800747e-01,1.47753790e-01,-4.86871712e-02,-5.82670793e-02,-1.94521584e-02,-1.41687199e-01,-9.14056003e-02,1.27185732e-01,1.37951046e-01,6.16360456e-03,-1.04509905e-01,1.02581840e-03,2.43208796e-01,-2.02549830e-01,3.54133487e-01,1.88517481e-01,-2.18568057e-01,1.49435148e-01,7.38217309e-02,1.92325041e-01,1.16023183e-01,7.80553371e-02,8.84660631e-02,5.17140441e-02,1.33027598e-01,2.80674726e-01,-7.66831497e-03,-2.68021971e-01,-1.58699200e-01,1.52947143e-01,-2.12998390e-02,-1.54389173e-01,-3.49686928e-02,6.28618822e-02,1.26473472e-01,4.07798216e-02,1.57344028e-01,7.10669905e-02,-3.85735976e-03,2.26716518e-01,1.87381074e-01,2.03467146e-01,1.87928081e-01,9.11773518e-02,1.05053693e-01,-1.25713691e-01,6.30833507e-02,1.73892863e-02,8.70171860e-02,2.03973919e-01},{6.63226396e-02,-2.41259038e-01,9.62698758e-02,3.00991505e-01,-2.06188798e-01,2.32599191e-02,-3.50440852e-02,1.59663379e-01,2.32875600e-01,-3.07825536e-01,-7.79275149e-02,-9.97666568e-02,2.21130595e-01,1.51330158e-01,-2.27859661e-01,8.89368355e-02,-2.35174283e-01,-2.45646164e-01,2.40406796e-01,-5.82415201e-02,-1.30746782e-01,1.20575540e-01,1.10040925e-01,-3.36569697e-01,1.39872119e-01,2.38744885e-01,3.23969312e-02,-9.26834047e-02,8.55111331e-02,1.95138380e-01,3.35256644e-02,-3.23854052e-02,2.33963355e-01,8.83625299e-02,9.00198147e-02,-1.03837699e-01,3.91111076e-02,-1.14441961e-02,1.89024843e-02,1.39504537e-01,-1.92519754e-01,8.38181973e-02,-1.37186646e-01,3.49086434e-01,2.66899541e-02,5.35516953e-03,5.86048365e-02,-4.17781249e-02,-2.75432263e-02,1.10418007e-01,3.55420560e-02,3.08405552e-02,5.33650480e-02,4.20623980e-02,1.40582696e-01,-4.76786271e-02,8.69958997e-02,-5.63863255e-02,1.96641237e-01,-9.39101726e-02,-2.39891256e-03,3.89813930e-01,1.87406972e-01,7.51733631e-02},{-2.88982429e-02,-1.10161835e-02,1.77114844e-01,2.50576675e-01,-7.67827332e-02,-5.94692566e-02,-2.08380520e-01,-7.94441439e-03,-7.99698159e-02,-1.25421599e-01,-6.71217451e-03,-2.81056971e-03,2.03767449e-01,1.79179624e-01,-1.82245836e-01,1.88122511e-01,-1.03218608e-01,-1.68512687e-01,-1.29301660e-03,-2.11587518e-01,-3.56291756e-02,2.00906061e-02,1.35192603e-01,-1.23588361e-01,5.19281346e-03,1.61340058e-01,1.06023215e-01,-2.25619338e-02,7.48869330e-02,2.40642458e-01,-1.44374901e-02,-7.75735900e-02,2.24777609e-01,4.85284701e-02,2.56445743e-02,-4.55824798e-03,2.20800862e-02,4.80303764e-02,1.82458997e-01,2.07970172e-01,-2.79606208e-02,-5.83721250e-02,-2.40350500e-01,1.03950292e-01,-9.67300385e-02,-1.97994620e-01,-1.41744427e-02,7.46016726e-02,9.10533443e-02,-1.96284223e-02,4.35530469e-02,1.56163737e-01,-2.32422873e-01,1.16872877e-01,1.86827645e-01,1.62452772e-01,1.05003528e-01,6.72478974e-02,2.88587231e-02,-1.30223706e-01,1.43428996e-01,9.15271193e-02,2.36153841e-01,2.23790273e-01}};
const float OUTPUT_BIASES[8] = {-0.04925229,0.03218171,0.05007365,0.00079075,-0.01399901,0.04174736,-0.02990478,0.01848537};
#endif
