//
// Created by davi on 7/22/21.
//

/*
 * My self trained neural network.
 */

#ifndef UNTITLED_NEURALNETWORK_H
#define UNTITLED_NEURALNETWORK_H

const double OUTPUT_WEIGHTS[8][64] = {{-1.02122068e-01, 2.29220510e-01,  -3.01462375e-02,
                                              1.55361980e-01,  1.00022163e-02,  -1.24662086e-01,
                                              4.50443402e-02,  7.52411336e-02,  8.14136788e-02,
                                              1.28089458e-01,  -2.58817002e-02, -1.41511913e-02,
                                              9.27925482e-02,  4.59502041e-02,  -2.17097387e-01,
                                              1.50670230e-01,  -2.45698482e-01, -5.70925847e-02,
                                              -1.32160977e-01, 2.05886468e-01,  3.88344675e-01,
                                              -1.33480309e-02, 2.55627884e-03,  -1.24409676e-01,
                                              1.77104175e-01,  -2.12321699e-01, 1.62736729e-01,
                                              2.55618036e-01,  -1.05095729e-01, -2.13368207e-01,
                                              2.96357702e-02,  -1.09522175e-02, -1.55129805e-01,
                                              -8.82219151e-02, -1.30661115e-01, -5.42992689e-02,
                                              2.52693892e-01,  -3.33893627e-01, 8.82473891e-04,
                                              1.21474247e-02,  -3.81317995e-02, -4.90056127e-02,
                                              1.23056680e-01,  -8.64422470e-02, -2.03593731e-01,
                                              -5.01550548e-02, 1.04748107e-01,  1.31616622e-01,
                                              -2.38716871e-01, 4.30771522e-02,  1.20826140e-01,
                                              1.63597524e-01,  7.50251636e-02,  2.54087240e-01,
                                              1.33215278e-01,  1.24054104e-01,  -1.94727898e-01,
                                              2.31172613e-04,  -5.68728782e-02, 6.58968017e-02,
                                              1.97656900e-01,  -3.30178486e-03, -7.75192752e-02,
                                              -4.56606597e-02},
                                      {1.36572912e-01,  1.33456573e-01,  -3.96553837e-02,
                                              8.11360553e-02,  5.34045324e-02,  1.64666325e-01,
                                              -2.36558169e-03, -1.18059283e-02, -1.00063935e-01,
                                              -7.82636628e-02, 4.03222255e-02,  -6.81119040e-02,
                                              2.71258414e-01,  2.19233856e-01,  -7.97745064e-02,
                                              4.38253544e-02,  -6.67196289e-02, -5.31255752e-02,
                                              1.35928512e-01,  -4.12327051e-02, 5.21405227e-03,
                                              -8.31992626e-02, -8.52894261e-02, 7.01306853e-04,
                                              2.67074376e-01,  -4.09161486e-02, -1.94117680e-01,
                                              3.54261957e-02,  -6.83210120e-02, -2.25500613e-01,
                                              -2.11642459e-02, 1.06508434e-01,  5.89097999e-02,
                                              -5.10562168e-05, -1.02464817e-02, 1.29720541e-02,
                                              -7.19835162e-02, -8.96014869e-02, -3.78711298e-02,
                                              7.50486031e-02,  -1.57961071e-01, 5.00179492e-02,
                                              -1.70106426e-01, -1.68318003e-01, -2.65016090e-02,
                                              3.00088394e-02,  8.02252442e-02,  1.35952294e-01,
                                              -3.64848822e-01, -8.23827535e-02, 1.12341918e-01,
                                              -4.30371426e-02, 5.24623739e-03,  -3.10870027e-03,
                                              -2.01399431e-01, 5.54961599e-02,  2.01360255e-01,
                                              -6.46958128e-02, -9.83089656e-02, 5.85522726e-02,
                                              8.68405476e-02,  -1.84973150e-01, -4.13140059e-02,
                                              -8.05893540e-02},
                                      {2.13082865e-01,  -1.18380569e-01, -5.04068471e-02,
                                              -1.37639150e-01, -1.87543109e-01, -9.58896130e-02,
                                              1.45170555e-01,  1.71670113e-02,  -2.47228786e-01,
                                              1.19709045e-01,  7.17008486e-02,  9.80411842e-02,
                                              -6.80225715e-02, -7.38684386e-02, 1.10039540e-01,
                                              1.33262575e-01,  -4.49074954e-02, -4.90401797e-02,
                                              -2.65150052e-02, 2.45512471e-01,  4.93020192e-02,
                                              -2.31556017e-02, -3.65576446e-02, -1.34981528e-01,
                                              5.01167774e-02,  -8.04995149e-02, -2.00878885e-02,
                                              4.82598543e-02,  -1.66135415e-01, 6.29674643e-02,
                                              3.50766666e-02,  -5.66665456e-02, 2.09259510e-01,
                                              -3.49216126e-02, 1.24434128e-01,  -1.24117501e-01,
                                              -6.95107691e-03, -7.47994930e-02, -1.53136447e-01,
                                              -1.33481428e-01, 1.44956559e-01,  -1.31215811e-01,
                                              6.06971383e-02,  -8.55008215e-02, -1.91962332e-01,
                                              -1.69303611e-01, -6.83029881e-03, -8.20229873e-02,
                                              1.09824665e-01,  1.22258514e-01,  -1.69062525e-01,
                                              -1.49076670e-01, -1.06297642e-01, 1.37623809e-02,
                                              -1.21569522e-01, -1.12110309e-01, 3.01222000e-02,
                                              2.20922887e-01,  -9.49924067e-02, 6.67870939e-02,
                                              9.42990333e-02,  6.45921975e-02,  4.64016162e-02,
                                              2.38814026e-01},
                                      {3.71982157e-02,  -1.52117059e-01, -6.95322379e-02,
                                              -1.22855589e-01, 2.52218153e-02,  -2.11928144e-01,
                                              -1.63923025e-01, -4.42714952e-02, 2.47839242e-01,
                                              8.34101588e-02,  4.41781851e-03,  1.52826235e-02,
                                              3.10932323e-02,  8.36944208e-02,  -1.47213474e-01,
                                              1.54148906e-01,  6.49690852e-02,  -9.12861601e-02,
                                              -1.06794946e-02, -6.38511628e-02, 2.26323485e-01,
                                              -1.36603504e-01, 3.07380825e-01,  -1.44030139e-01,
                                              7.16925561e-02,  3.77994888e-02,  7.36284107e-02,
                                              -2.34014671e-02, 2.49656495e-02,  1.32255971e-01,
                                              -1.66440934e-01, 5.80225438e-02,  -8.25226679e-02,
                                              -1.73757300e-01, -4.24209014e-02, 6.02911413e-02,
                                              3.96498442e-02,  4.93129194e-02,  -1.19451053e-01,
                                              -1.93287060e-01, 1.26100212e-01,  5.10041192e-02,
                                              4.84830849e-02,  2.42337123e-01,  1.18583962e-01,
                                              1.74869701e-01,  1.60683207e-02,  2.42452957e-02,
                                              1.22226536e-01,  1.32457480e-01,  -1.36453062e-01,
                                              8.02912842e-03,  9.92035344e-02,  -1.02380753e-01,
                                              7.00632185e-02,  -7.25443810e-02, 5.15558720e-02,
                                              1.41096309e-01,  8.74467045e-02,  -7.39499703e-02,
                                              -1.75308228e-01, 1.22139260e-01,  -1.80840641e-01,
                                              9.51151103e-02},
                                      {1.90744340e-01,  -4.25523669e-02, -4.19560894e-02,
                                              -7.84727857e-02, 1.36937141e-01,  -1.24753565e-02,
                                              2.27649376e-01,  6.82689473e-02,  5.18835615e-03,
                                              -2.32974425e-01, 4.30519767e-02,  -1.42361328e-01,
                                              -4.01393585e-02, 4.14529676e-03,  1.78851277e-01,
                                              -2.25701202e-02, 5.10061942e-02,  3.04372944e-02,
                                              9.10010263e-02,  -7.24433595e-03, -1.67914033e-02,
                                              7.72856758e-04,  1.03723118e-02,  -5.01771532e-02,
                                              2.67303362e-02,  8.27505589e-02,  2.46499963e-02,
                                              2.45354138e-02,  5.47742285e-02,  1.30793229e-01,
                                              4.31468152e-02,  -5.17682694e-02, -1.90800786e-01,
                                              -1.35615440e-02, 1.01934277e-01,  -6.88967556e-02,
                                              4.41426560e-02,  1.21156543e-01,  -8.44947994e-02,
                                              -7.03235790e-02, -1.07273228e-01, 8.78364965e-02,
                                              -1.57767534e-01, 7.04936534e-02,  6.09707870e-02,
                                              -2.90979482e-02, -1.34334877e-01, 2.94291288e-01,
                                              4.15106863e-02,  -2.36049071e-01, -9.77817848e-02,
                                              -1.21595405e-01, -1.37311980e-01, -4.44163829e-02,
                                              9.62898787e-03,  1.12969931e-02,  -5.73997051e-02,
                                              3.54807451e-02,  2.46128649e-01,  -1.68257564e-01,
                                              -1.14510395e-01, 1.79642379e-01,  -3.16870064e-02,
                                              1.69450551e-01},
                                      {-8.36846605e-02, -6.37874529e-02, -4.16334905e-02,
                                              1.44958779e-01,  1.30265392e-02,  -8.16803426e-02,
                                              6.15085401e-02,  -3.81864868e-02, 1.32338598e-01,
                                              -1.67515829e-01, 5.28403074e-02,  -2.03089267e-01,
                                              -4.19546384e-03, -1.36790007e-01, -4.52726856e-02,
                                              2.38044396e-01,  -1.08199082e-01, -1.54607698e-01,
                                              2.71754742e-01,  1.22994483e-01,  1.42542779e-01,
                                              -1.86444707e-02, 3.94398235e-02,  -6.06908128e-02,
                                              -9.92508009e-02, -2.09612653e-01, 1.59895107e-01,
                                              1.21736318e-01,  -2.80467458e-02, -1.10018961e-02,
                                              2.40719408e-01,  -2.60660648e-01, 2.13147640e-01,
                                              2.31316555e-02,  -1.00137539e-01, -2.25741714e-01,
                                              -1.04494818e-01, 3.64491642e-02,  8.23409185e-02,
                                              -6.15689829e-02, -2.45822836e-02, -9.13231894e-02,
                                              -9.69740376e-02, -1.11220151e-01, -1.86210461e-02,
                                              5.41701838e-02,  -2.65050530e-01, -5.88665307e-02,
                                              2.33535673e-02,  -5.23579679e-02, 5.23620658e-02,
                                              1.37932390e-01,  7.23321065e-02,  5.97784892e-02,
                                              1.66890338e-01,  6.07261285e-02,  -2.07592040e-01,
                                              3.64535600e-02,  -1.62992358e-01, 6.72402233e-02,
                                              3.30237336e-02,  -5.19970374e-04, -7.29327127e-02,
                                              7.53724873e-02},
                                      {-5.60513660e-02, -1.24645956e-01, -8.90285373e-02,
                                              -1.35337627e-02, -1.70788720e-01, -6.88492283e-02,
                                              7.83689171e-02,  -1.13109529e-01, 1.34693086e-01,
                                              -7.89512768e-02, 1.30399585e-01,  -1.81647539e-01,
                                              1.99813470e-02,  -7.14119002e-02, -5.82963265e-02,
                                              1.61158979e-01,  -2.54766405e-01, -3.24511975e-02,
                                              1.61262657e-02,  -8.44090134e-02, 3.93864252e-02,
                                              -7.91527331e-02, -5.00477627e-02, -1.21929802e-01,
                                              2.26754606e-01,  1.31673947e-01,  -2.78017856e-02,
                                              2.66116232e-01,  8.71376172e-02,  1.71344876e-01,
                                              1.43393382e-01,  -2.02431723e-01, -3.27592785e-03,
                                              -2.30039656e-02, -2.53067225e-01, -6.34879023e-02,
                                              -1.17476635e-01, -1.95743376e-03, 2.26474386e-02,
                                              -9.19477940e-02, -8.20824355e-02, -1.36806458e-01,
                                              -2.13800415e-01, -3.64426412e-02, -7.37876892e-02,
                                              1.42053485e-01,  -1.50390208e-01, 4.82531525e-02,
                                              -8.91084373e-02, -3.59567106e-02, -7.82285705e-02,
                                              -1.17522806e-01, 1.31064385e-01,  1.57555878e-01,
                                              7.33735561e-02,  1.49572849e-01,  -1.04345642e-01,
                                              -3.57226357e-02, 1.48945406e-01,  7.54155219e-02,
                                              -3.22794020e-02, 5.52450679e-02,  -1.29032686e-01,
                                              -1.15929253e-01},
                                      {1.18901551e-01,  -1.86949238e-01, -1.29233062e-01,
                                              -1.69491217e-01, 1.86061844e-01,  -7.23154694e-02,
                                              2.03122906e-02,  2.99111634e-01,  1.62037298e-01,
                                              -1.27552170e-02, 8.79332274e-02,  -2.64363199e-01,
                                              -5.71278445e-02, -1.21219866e-01, 7.29844719e-02,
                                              -5.14037535e-02, 2.39817038e-01,  -3.80439870e-02,
                                              2.77467668e-01,  -1.12395808e-01, -8.06131884e-02,
                                              -1.57583952e-01, -1.94044173e-01, -1.42980754e-01,
                                              4.14142944e-02,  2.52147336e-02,  1.64206609e-01,
                                              2.46772379e-01,  4.06236202e-02,  1.64766237e-01,
                                              -1.31070307e-02, -1.32361248e-01, 5.37653193e-02,
                                              1.40593201e-01,  -1.56694427e-01, 1.39375731e-01,
                                              -3.40813585e-02, 1.92190915e-01,  -9.45051536e-02,
                                              -1.62114158e-01, -3.58429365e-02, -7.58264884e-02,
                                              -6.25226423e-02, -9.31240171e-02, 6.30424963e-03,
                                              -2.06815936e-02, -9.27122086e-02, -9.71782729e-02,
                                              4.12687138e-02,  1.09776491e-02,  -5.53502850e-02,
                                              1.14629939e-02,  -8.26113969e-02, 4.28562425e-02,
                                              7.83499144e-03,  1.00206040e-01,  -1.48111582e-01,
                                              7.77468681e-02,  2.42465168e-01,  2.70088911e-01,
                                              1.16704226e-01,  1.23678796e-01,  -1.17835782e-01,
                                              1.15856610e-01}};
const double OUTPUT_BIASES[8] = {0.16184343, -0.06632838, 0.08084231, -0.07452463, -0.06064195,
                                 0.1544393, 0.05141842, 0.00901007};
const double HIDDEN_WEIGHTS0[64][18] = {{-1.89440921e-02, -3.01066861e-02, -4.54469435e-02,
                                                -1.84073448e-01, -6.39502585e-01, -2.95242250e-01,
                                                6.78636074e-01,  -2.31073692e-01, -2.23431647e-01,
                                                2.93644238e-03,  4.12909657e-01,  -4.71283048e-02,
                                                -3.78341898e-02, 4.99006845e-02,  1.02785096e-01,
                                                -3.00609291e-01, -8.03674012e-02, 3.22093576e-01},
                                        {2.10500896e-01,  2.43408039e-01,  -1.49874076e-01,
                                                1.76192392e-02,  3.36285710e-01,  -2.32886329e-01,
                                                3.69133979e-01,  7.92857558e-02,  -7.44218975e-02,
                                                3.49977687e-02,  2.64757369e-02,  -2.48874098e-01,
                                                -6.84013486e-01, 5.79464316e-01,  1.71633676e-01,
                                                2.88953900e-01,  3.23635757e-01,  -3.37041110e-01},
                                        {-1.96514446e-02, -5.21169603e-01, -3.16382945e-01,
                                                1.52963310e-01,  -1.23098807e-03, 1.77076906e-01,
                                                -4.37330455e-01, 2.55228132e-01,  3.05763155e-01,
                                                -3.44926894e-01, 3.33890319e-02,  -5.83410263e-02,
                                                -4.67944562e-01, 1.51841044e-01,  1.84912458e-02,
                                                1.68478966e-01,  1.00579865e-01,  3.40261310e-02},
                                        {1.42403498e-01,  -1.18293598e-01, -3.34332585e-01,
                                                -1.45647287e-01, 2.11777389e-01,  -3.46093148e-01,
                                                3.98194604e-03,  5.77472329e-01,  2.25595579e-01,
                                                3.20927501e-01,  1.49075687e-01,  1.59354657e-01,
                                                -6.09839797e-01, 1.56055465e-01,  4.90491062e-01,
                                                4.95193712e-02,  1.89125612e-01,  2.15668276e-01},
                                        {-3.07516932e-01, 1.28467485e-01,  6.09106012e-02,
                                                7.21407458e-02,  4.52209115e-01,  -1.08896546e-01,
                                                5.94052561e-02,  -2.33564973e-01, 2.49576867e-01,
                                                -1.02083921e-01, -8.65200832e-02, -3.73563319e-01,
                                                -7.09815383e-01, -1.83227941e-01, 8.07873011e-02,
                                                -4.05455261e-01, 2.22728282e-01,  -1.16924435e-01},
                                        {1.07235141e-01,  -2.17130527e-01, 1.73950329e-01,
                                                9.95484442e-02,  -2.59795219e-01, -2.92182565e-01,
                                                1.71593621e-01,  1.52329609e-01,  2.57091999e-01,
                                                1.88683629e-01,  1.51103199e-01,  -6.24953926e-01,
                                                -1.48285091e-01, -2.36112624e-01, 3.12840641e-01,
                                                -3.34553480e-01, 2.45087072e-01,  4.11383761e-03},
                                        {1.25482157e-01,  1.19517095e-01,  -7.02033043e-01,
                                                2.94244587e-01,  8.00836012e-02,  5.22829108e-02,
                                                1.84406415e-01,  2.70998359e-01,  -4.64517206e-01,
                                                1.43318340e-01,  2.56905645e-01,  -1.33981004e-01,
                                                7.33309865e-01,  5.11835404e-02,  9.12442207e-02,
                                                8.81888419e-02,  2.12299258e-01,  1.20960616e-01},
                                        {-4.23662543e-01, 1.68721467e-01,  -6.90767989e-02,
                                                1.66955113e-01,  -6.10137954e-02, 1.69185832e-01,
                                                3.84559691e-01,  2.94888079e-01,  -3.24012935e-01,
                                                8.94590989e-02,  4.79155600e-01,  -5.80804311e-02,
                                                4.12136316e-01,  -1.02842122e-01, -4.23490219e-02,
                                                2.09034070e-01,  1.98364347e-01,  -1.97235212e-01},
                                        {1.41072050e-01,  1.86262682e-01,  5.43418378e-02,
                                                4.99070734e-01,  -4.03102040e-01, -2.20080569e-01,
                                                -3.36019546e-01, 1.29002571e-01,  -1.78699289e-02,
                                                -4.98942025e-02, 7.01782852e-02,  3.04044485e-01,
                                                2.04993710e-02,  3.70097607e-01,  2.27525115e-01,
                                                -2.10701585e-01, -5.08058444e-02, -3.83042574e-01},
                                        {1.82034492e-01,  3.37256528e-02,  -2.23274827e-01,
                                                -2.16668963e-01, 2.73028553e-01,  -3.65665942e-01,
                                                -3.94714743e-01, 6.38363510e-02,  -3.12980622e-01,
                                                1.55768916e-01,  -1.23330861e-01, -1.16268344e-01,
                                                -6.48884196e-03, -2.03922495e-01, -3.68981212e-01,
                                                -1.08443685e-01, -5.87885857e-01, -7.32654764e-04},
                                        {5.93444288e-01,  -1.32154748e-01, 4.50924069e-01,
                                                -4.63660151e-01, -2.73897320e-01, -4.74395081e-02,
                                                -7.03135133e-02, 7.93752447e-03,  -2.70845294e-01,
                                                -1.03643611e-01, -4.25725073e-01, 5.49696982e-02,
                                                -2.16184050e-01, -3.71643215e-01, 1.95859104e-01,
                                                -2.28994370e-01, -1.71290278e-01, -1.16751648e-01},
                                        {-2.85378814e-01, 1.48135841e-01,  2.64138371e-01,
                                                -1.16658621e-01, -1.29578961e-02, -2.64068544e-01,
                                                -3.46835822e-01, -1.50701597e-01, 8.78312737e-02,
                                                -1.15360774e-01, 4.68345471e-02,  -3.40385169e-01,
                                                -3.64677429e-01, 1.25336424e-01,  3.16374600e-01,
                                                -6.11334033e-02, -2.67573774e-01, 5.28953195e-01},
                                        {1.17141075e-01,  -1.63027104e-02, 3.85439657e-02,
                                                7.30718493e-01,  -2.50739068e-01, -2.93850482e-01,
                                                6.98287487e-02,  -2.41011158e-01, 3.31668526e-01,
                                                1.68384477e-01,  -1.35836095e-01, 3.11085641e-01,
                                                -1.84662938e-02, 1.04502738e-01,  -8.19302350e-02,
                                                -1.82239056e-01, 1.90503538e-01,  1.57786325e-01},
                                        {-5.39720580e-02, 1.01566218e-01,  2.76984960e-01,
                                                6.18997812e-01,  1.39483571e-01,  -1.26710534e-01,
                                                -2.83813268e-01, -3.75610963e-02, 8.97439793e-02,
                                                -6.95920438e-02, 3.89321774e-01,  -7.24896714e-02,
                                                -9.74381939e-02, -7.09708333e-02, -6.81408793e-02,
                                                1.48938969e-01,  -1.97855413e-01, 3.85289967e-01},
                                        {2.93076839e-02,  -4.06393111e-02, 3.33985984e-01,
                                                -2.02866226e-01, -7.09471166e-01, 1.11628659e-01,
                                                -4.05237675e-01, -3.30757326e-03, 1.46937473e-02,
                                                -2.36011609e-01, 5.18306978e-02,  -2.91252166e-01,
                                                2.63697296e-01,  1.03641758e-02,  4.39736396e-01,
                                                1.89193815e-01,  -2.95014083e-02, -1.07706234e-01},
                                        {-2.58664892e-04, -7.36898422e-01, -1.27187762e-02,
                                                1.27408385e-01,  -1.80014484e-02, -1.68482468e-01,
                                                -1.38188824e-01, -3.05581372e-02, -2.55674005e-01,
                                                2.66903162e-01,  1.38187498e-01,  -9.44988653e-02,
                                                -1.28680229e-01, -6.20829284e-01, -3.24058920e-01,
                                                1.59381837e-01,  2.93425679e-01,  -1.57927707e-01},
                                        {-1.23267762e-01, 2.72531658e-02,  1.34168535e-01,
                                                2.29880158e-02,  -1.71438068e-01, -1.43241405e-01,
                                                6.58881187e-01,  -1.10921019e-03, -1.85649291e-01,
                                                -2.32236683e-01, 2.31025174e-01,  -2.17125058e-01,
                                                9.04380456e-02,  1.12776533e-01,  3.98397684e-01,
                                                -7.50146925e-01, -8.95677134e-02, -5.82488328e-02},
                                        {-2.79414982e-01, -9.27012973e-03, -1.67719334e-01,
                                                -4.54245031e-01, -6.63168356e-02, -3.29053849e-01,
                                                3.65196913e-01,  -8.87973234e-02, 1.06603570e-01,
                                                -5.43284774e-01, 2.58113772e-01,  2.80671805e-01,
                                                2.43257597e-01,  -5.92736388e-03, 3.66477281e-01,
                                                -2.92608030e-02, -3.40094194e-02, -2.35983193e-01},
                                        {-3.34742248e-01, 1.51129141e-02,  4.49783355e-01,
                                                -3.11219662e-01, 5.27197659e-01,  2.81446427e-01,
                                                2.33148023e-01,  -5.35736196e-02, 6.08975738e-02,
                                                1.61413953e-01,  1.70852374e-02,  7.03272372e-02,
                                                -2.58665651e-01, 1.97180018e-01,  3.85790199e-01,
                                                -4.98679072e-01, 1.09831765e-01,  2.15573251e-01},
                                        {-1.74492538e-01, -5.13839304e-01, 1.17360502e-01,
                                                8.58382806e-02,  -7.23206550e-02, 9.84860063e-02,
                                                -4.38708276e-01, 2.67693847e-01,  2.19767660e-01,
                                                -4.41877209e-02, 1.70880616e-01,  -1.83437094e-01,
                                                1.10798247e-01,  7.16443837e-01,  -1.41656220e-01,
                                                2.71835595e-01,  5.25279522e-01,  7.68914819e-02},
                                        {-3.33704352e-01, 9.99542028e-02,  -1.86427742e-01,
                                                -3.98371041e-01, -5.32503650e-02, -1.54017016e-01,
                                                -1.16465375e-01, -8.66030343e-03, -2.45803103e-01,
                                                5.26740327e-02,  -2.54324734e-01, -1.63940802e-01,
                                                -3.68978024e-01, 1.45690709e-01,  2.64999658e-01,
                                                -4.70811188e-01, 5.14832258e-01,  -2.73053050e-01},
                                        {-2.43897110e-01, -1.85268328e-01, 5.76802790e-01,
                                                1.63585037e-01,  -2.98148453e-01, 4.42288071e-03,
                                                1.29928574e-01,  -1.64911717e-01, -1.41473666e-01,
                                                1.48122013e-01,  -3.74337226e-01, -4.94761139e-01,
                                                -2.79968649e-01, -3.62220705e-01, 1.50050059e-01,
                                                -8.78437087e-02, 2.52552062e-01,  -3.75191897e-01},
                                        {2.96893060e-01,  -6.65287673e-02, -6.01374924e-01,
                                                4.52646799e-02,  -3.13828647e-01, -6.40050352e-01,
                                                -1.32842183e-01, -7.04287887e-02, -3.26668948e-01,
                                                -1.92157373e-01, -2.12493673e-01, 3.88841748e-01,
                                                3.23077440e-02,  1.65048778e-01,  2.23228797e-01,
                                                -1.84939489e-01, -2.51896322e-01, -3.59663367e-01},
                                        {-3.51525933e-01, 4.06800747e-01,  5.53647399e-01,
                                                -2.17888415e-01, -2.25580737e-01, 4.49346840e-01,
                                                5.93341999e-02,  -1.10834286e-01, 9.65044368e-03,
                                                -2.25009233e-01, 6.33612499e-02,  -3.78877521e-02,
                                                -5.05985379e-01, -8.95718262e-02, 7.56919309e-02,
                                                -4.06761885e-01, 3.32041204e-01,  1.67617649e-01},
                                        {1.24279812e-01,  -9.20415670e-02, 5.89600265e-01,
                                                1.88821852e-01,  -5.02635390e-02, -2.52260298e-01,
                                                3.42010647e-01,  8.64789337e-02,  -9.34070442e-03,
                                                4.77198400e-02,  1.89924434e-01,  4.64461058e-01,
                                                1.87065303e-01,  -2.93158710e-01, 2.80376434e-01,
                                                -5.40598392e-01, -1.10315621e-01, 7.85051659e-02},
                                        {2.12732792e-01,  4.15738553e-01,  1.63443655e-01,
                                                3.71590033e-02,  1.64053794e-02,  2.12584481e-01,
                                                3.83206338e-01,  -8.91983733e-02, -3.78481299e-02,
                                                -2.52376914e-01, -2.85583735e-01, -8.45618546e-02,
                                                4.87867817e-02,  1.32591650e-01,  1.42799035e-01,
                                                3.35665256e-01,  -3.80014151e-01, 5.39284587e-01},
                                        {-4.13171947e-01, -1.42777711e-01, 1.97727412e-01,
                                                -4.27871704e-01, -9.08451974e-02, 5.02043545e-01,
                                                -1.78809360e-01, 1.66218847e-01,  5.86086065e-02,
                                                -2.07621813e-01, 3.66100103e-01,  -1.03278056e-01,
                                                4.59660888e-01,  -3.73629540e-01, -1.54817522e-01,
                                                1.39157008e-02,  2.61650652e-01,  1.42066717e-01},
                                        {1.26542017e-01,  -1.42006263e-01, 2.95246005e-01,
                                                1.62171084e-03,  -1.72058061e-01, -1.61763914e-02,
                                                -2.05843225e-01, -3.88024718e-01, 6.93246946e-02,
                                                -6.20742440e-02, -1.54752070e-02, -6.66207671e-01,
                                                -4.41288561e-01, 4.65229034e-01,  5.33675263e-03,
                                                5.54805398e-01,  6.59020841e-02,  1.59334898e-01},
                                        {-2.20543370e-01, -7.85473511e-02, 3.56977582e-01,
                                                8.97227824e-02,  -1.32442817e-01, 3.62634003e-01,
                                                4.97465372e-01,  1.64613709e-01,  -2.46482298e-01,
                                                2.99668610e-01,  5.79014659e-01,  2.01194867e-01,
                                                4.26602811e-02,  3.94650102e-01,  -1.12540953e-01,
                                                -3.39748293e-01, 3.99061948e-01,  1.87390909e-01},
                                        {-2.23624349e-01, -6.72337055e-01, 4.31990415e-01,
                                                -2.19161436e-01, -1.82899818e-01, 8.83234516e-02,
                                                -4.07098919e-01, 1.92867756e-01,  -2.93687079e-02,
                                                3.63491565e-01,  -1.07434295e-01, 1.10482968e-01,
                                                1.04213640e-01,  -1.03488564e-03, -1.58404037e-01,
                                                2.99138010e-01,  -1.64721370e-01, -5.08074127e-02},
                                        {3.83752942e-01,  -6.59214079e-01, -3.49784911e-01,
                                                3.76033306e-01,  -9.61069018e-02, -1.42456740e-01,
                                                -8.14786851e-02, 2.23527357e-01,  4.17294353e-02,
                                                8.52696076e-02,  3.25316787e-01,  1.69162527e-02,
                                                -1.60031021e-02, 2.26855576e-01,  -1.19820423e-01,
                                                2.70706743e-01,  1.95902884e-02,  1.82454269e-02},
                                        {3.10760826e-01,  1.50734007e-01,  8.74258429e-02,
                                                1.03373632e-01,  -6.54002232e-03, 5.91665447e-01,
                                                4.13837761e-01,  4.27912921e-01,  -1.13945149e-01,
                                                -7.92431310e-02, 1.96695298e-01,  -3.75799797e-02,
                                                3.04981798e-01,  3.38526487e-01,  9.62652937e-02,
                                                3.32582206e-01,  8.00306424e-02,  5.24741150e-02},
                                        {-1.68016911e-01, 1.11070104e-01,  2.59391487e-01,
                                                8.35104287e-02,  9.74327028e-01,  -6.12566620e-02,
                                                5.47580747e-03,  -6.86482564e-02, 2.54459143e-01,
                                                1.98365211e-01,  -1.69297382e-01, -4.72738706e-02,
                                                -1.11695953e-01, 3.20553422e-01,  2.11958468e-01,
                                                1.47753567e-01,  1.79598570e-01,  6.58615083e-02},
                                        {2.32450932e-01,  -1.72842085e-01, 3.97626132e-01,
                                                2.52040893e-01,  -3.93811427e-02, -2.09363967e-01,
                                                1.84666410e-01,  1.96882129e-01,  -1.10585622e-01,
                                                3.56701016e-02,  -3.16908419e-01, 3.69348019e-01,
                                                -8.13331977e-02, 2.46249467e-01,  2.35874504e-01,
                                                2.31135488e-01,  -1.81019083e-01, -4.26980317e-01},
                                        {-1.09216303e-01, 3.84011060e-01,  -1.61049932e-01,
                                                1.12679480e-02,  -1.74900353e-01, -4.49282080e-01,
                                                -2.07700402e-01, 1.04875313e-02,  2.23535642e-01,
                                                3.12599614e-02,  3.96664478e-02,  7.57545382e-02,
                                                -2.69978106e-01, 5.71489751e-01,  6.18401825e-01,
                                                7.26152491e-03,  -2.68989235e-01, -1.00232977e-02},
                                        {-2.28258222e-01, -1.40711721e-02, -9.00793821e-02,
                                                -3.88433099e-01, -5.16302943e-01, -3.40191811e-01,
                                                -9.66157019e-02, 4.27649200e-01,  -4.80265260e-01,
                                                2.14740029e-03,  -6.33305078e-03, -6.49004802e-02,
                                                -3.32028002e-01, -2.02269405e-01, -2.36918330e-01,
                                                -1.85474202e-01, 1.84019387e-01,  1.53277302e-02},
                                        {4.89604086e-01,  1.49422318e-01,  -1.02946147e-01,
                                                2.87092596e-01,  -7.25292265e-02, 5.07580070e-03,
                                                -8.09967425e-03, -1.02334537e-01, 2.06606044e-03,
                                                -1.43037587e-01, -2.85496265e-01, -1.13979597e-02,
                                                -1.26366198e-01, -3.20308894e-01, -1.46359354e-01,
                                                -3.08621854e-01, 1.87371895e-01,  -3.83042872e-01},
                                        {-9.84083116e-02, 1.30244613e-01,  -1.21615902e-01,
                                                -3.89978796e-01, 7.64165401e-01,  2.04501852e-01,
                                                1.35519668e-01,  -3.04427519e-02, -2.70390958e-01,
                                                2.72470415e-01,  -1.78079158e-01, 1.48927152e-01,
                                                -3.46698463e-01, -3.37545753e-01, 3.36041972e-02,
                                                -4.18541394e-02, 1.21549517e-01,  -4.06809330e-01},
                                        {9.64211449e-02,  -6.33906946e-02, 5.82367301e-01,
                                                3.06173176e-01,  2.43614584e-01,  3.26110661e-01,
                                                1.28937215e-01,  2.17337891e-01,  1.21110938e-01,
                                                -1.53848946e-01, -2.45766312e-01, -4.35913980e-01,
                                                1.69981167e-01,  -3.37522119e-01, -2.40679249e-01,
                                                -3.34724993e-01, -8.34081396e-02, 1.55784041e-01},
                                        {5.79038635e-03,  1.68109573e-02,  3.24842215e-01,
                                                5.22307038e-01,  1.84863776e-01,  1.17688119e-01,
                                                4.45591986e-01,  -1.45270064e-01, -3.97919446e-01,
                                                1.43936565e-02,  -2.88386904e-02, -2.62304604e-01,
                                                2.40876496e-01,  -1.94806442e-01, -7.10288510e-02,
                                                1.45721152e-01,  -4.48423713e-01, 1.69652596e-01},
                                        {7.29728416e-02,  -1.10295080e-01, -3.03767890e-01,
                                                2.06151098e-01,  -1.93877369e-02, 1.61231443e-01,
                                                -4.14089710e-01, 2.07334384e-01,  1.96884528e-01,
                                                2.44118907e-02,  -2.36740083e-01, 4.20693427e-01,
                                                2.18229927e-02,  -1.26526922e-01, -9.30938721e-02,
                                                4.60749239e-01,  3.93827647e-01,  7.68174157e-02},
                                        {4.97181892e-01,  -1.37766108e-01, 1.24080200e-02,
                                                3.31595451e-01,  -3.84211898e-01, 3.63540202e-02,
                                                7.76792616e-02,  2.60766566e-01,  2.64497548e-01,
                                                -4.71836850e-02, 1.50522456e-01,  -1.95883214e-01,
                                                4.15801227e-01,  1.27717659e-01,  3.40877995e-02,
                                                -3.05537581e-01, -4.35471028e-01, -1.04791075e-02},
                                        {6.84412047e-02,  -1.45080388e-01, -3.67877595e-02,
                                                1.72598258e-01,  2.81097502e-01,  3.54270667e-01,
                                                3.55304927e-01,  9.83570963e-02,  -1.22249365e-01,
                                                -2.46076286e-01, 7.16120526e-02,  -1.98569223e-01,
                                                1.67259634e-01,  3.13911080e-01,  1.84775174e-01,
                                                4.36863154e-01,  -4.52689856e-01, -2.98025489e-01},
                                        {5.55213802e-02,  3.09185982e-01,  4.00425009e-02,
                                                -3.20201479e-02, 2.54685253e-01,  -3.30798835e-01,
                                                -1.10328391e-01, -2.02391908e-01, -4.38330054e-01,
                                                -5.29932916e-01, 2.54747570e-01,  -9.11215171e-02,
                                                -4.57048714e-02, 6.34757996e-01,  1.19966172e-01,
                                                1.90225348e-01,  -7.13046119e-02, -5.89416139e-02},
                                        {-9.89109874e-02, -1.38784155e-01, -3.01672161e-01,
                                                -1.79686010e-01, 7.47288615e-02,  3.35232317e-01,
                                                2.67822146e-01,  3.91463488e-01,  1.49501506e-02,
                                                3.76522690e-01,  3.92127037e-02,  -2.78979957e-01,
                                                3.30737889e-01,  3.95590812e-01,  -1.24448404e-01,
                                                1.04406059e-01,  -2.92495042e-01, -2.35763788e-01},
                                        {-6.23770468e-02, -9.60216969e-02, 6.82811141e-01,
                                                -1.78153455e-01, -5.88123575e-02, 4.09619093e-01,
                                                1.63566351e-01,  2.43404120e-01,  -9.28937420e-02,
                                                2.22503036e-01,  -1.01996981e-01, 3.11883956e-01,
                                                -2.59249449e-01, -1.89660639e-01, -9.84509569e-03,
                                                3.35738599e-01,  1.76732138e-01,  -2.65111595e-01},
                                        {2.88920909e-01,  -2.83909798e-01, -2.39766911e-01,
                                                -1.67217746e-01, 7.62866139e-02,  -1.70346245e-01,
                                                -1.72819927e-01, 2.50472009e-01,  -2.82859951e-01,
                                                5.11666119e-01,  -3.01786244e-01, -2.27451891e-01,
                                                6.74390376e-01,  2.65536606e-01,  9.92633700e-02,
                                                -2.50138640e-01, -5.65361157e-02, -7.68454326e-03},
                                        {3.49537283e-01,  2.46073604e-01,  1.77541479e-01,
                                                -3.94965947e-01, 4.93125021e-01,  2.46182442e-01,
                                                2.51358569e-01,  -3.44453871e-01, 2.35770762e-01,
                                                -1.87857579e-02, -2.33602107e-01, -6.20642910e-03,
                                                -8.82496126e-03, 5.81464708e-01,  -3.16093057e-01,
                                                3.48436266e-01,  1.33751467e-01,  9.66716930e-02},
                                        {9.80338752e-02,  -4.11988199e-01, 4.30637777e-01,
                                                1.70915440e-01,  -4.92854901e-02, 2.26841301e-01,
                                                -3.19899857e-01, 1.26223832e-01,  -5.72771192e-01,
                                                4.45698500e-01,  1.29556153e-02,  1.12600857e-02,
                                                1.15851037e-01,  -3.71513784e-01, 2.76545495e-01,
                                                -6.04168996e-02, -3.86316508e-01, 1.60430968e-01},
                                        {2.31601065e-03,  5.35399437e-01,  -4.19092625e-01,
                                                9.46759880e-02,  1.67300195e-01,  1.05582960e-02,
                                                -3.65847021e-01, -7.16127921e-03, 1.09299928e-01,
                                                -1.96091101e-01, 2.94383109e-01,  -1.96467936e-01,
                                                -3.98910731e-01, -2.52017319e-01, 3.95037919e-01,
                                                1.43359870e-01,  2.66595900e-01,  3.36734831e-01},
                                        {4.69210967e-02,  -2.95648705e-02, -4.19389933e-01,
                                                -2.08723858e-01, 1.63712561e-01,  -3.77073646e-01,
                                                7.96639174e-02,  -4.13409084e-01, 1.44984826e-01,
                                                2.31038898e-01,  -1.65792763e-01, 1.87286490e-03,
                                                1.99150026e-01,  2.44987085e-02,  2.51652867e-01,
                                                -7.41352588e-02, 4.46129262e-01,  3.46357316e-01},
                                        {2.40840733e-01,  3.04325998e-01,  -2.51649320e-01,
                                                -4.14436817e-01, -1.51597336e-01, 3.56295377e-01,
                                                -3.31452161e-01, 2.78309882e-01,  5.26358634e-02,
                                                -2.72457778e-01, -1.80222660e-01, 3.54570486e-02,
                                                -1.99557826e-01, -5.94090879e-01, 1.87066454e-03,
                                                1.50941029e-01,  -8.98035094e-02, -2.24243570e-02},
                                        {1.41328499e-01,  -1.30262583e-01, 1.32827526e-02,
                                                -1.76332831e-01, -2.41125003e-01, 3.13813090e-02,
                                                2.32013926e-01,  2.57852465e-01,  3.82510483e-01,
                                                -3.69309127e-01, 8.53677019e-02,  -4.90439802e-01,
                                                -4.42492425e-01, -7.90341079e-01, -2.63676941e-01,
                                                1.33045055e-02,  2.07294166e-01,  -2.63243839e-02},
                                        {4.69283283e-01,  -3.13044131e-01, -4.07624632e-01,
                                                1.51704952e-01,  -3.78592342e-01, -1.31549940e-01,
                                                -1.13852613e-01, -6.92294538e-02, -5.85563123e-01,
                                                3.16848084e-02,  4.87917587e-02,  -2.85452127e-01,
                                                -4.35495347e-01, 1.33634815e-02,  1.74226031e-01,
                                                1.44617304e-01,  1.78009421e-01,  -1.92793843e-03},
                                        {-1.77090034e-01, 3.40293407e-01,  -3.12521644e-02,
                                                2.34989092e-01,  -1.73537806e-01, -4.03320521e-01,
                                                -2.07166016e-01, -9.65247229e-02, 3.59609306e-01,
                                                -1.59216136e-01, 1.82022214e-01,  2.77251333e-01,
                                                1.56757794e-02,  -4.38339962e-03, 1.63859129e-01,
                                                -1.15458211e-02, 2.21132800e-01,  1.08695358e-01},
                                        {-3.39316458e-01, 2.29833901e-01,  9.48957026e-01,
                                                -6.08844869e-02, -2.36285061e-01, 5.37106156e-01,
                                                -1.76960707e-01, 6.42389283e-02,  6.58136010e-02,
                                                -4.42515641e-01, 6.21209666e-03,  -1.15616794e-03,
                                                -2.62338817e-02, -3.51050228e-01, -2.00215831e-01,
                                                -2.34521747e-01, 1.12993173e-01,  -1.56670600e-01},
                                        {2.48559818e-01,  1.33735508e-01,  -3.56197581e-02,
                                                -2.00790390e-01, -2.22361460e-01, 1.75668404e-01,
                                                -5.69838226e-01, -2.77493447e-02, -2.25901995e-02,
                                                3.34913850e-01,  3.97902310e-01,  -4.39537317e-01,
                                                3.20829839e-01,  8.29743519e-02,  -7.05135092e-02,
                                                6.00091927e-02,  -8.46491754e-02, -1.38394684e-01},
                                        {-4.72600162e-01, -2.47076899e-01, 1.59187064e-01,
                                                5.66859066e-01,  -3.24075460e-01, 1.88920110e-01,
                                                5.96156903e-02,  -2.01682094e-02, -4.13601175e-02,
                                                1.92330696e-03,  6.38239607e-02,  1.48174122e-01,
                                                -9.11136940e-02, -7.13086963e-01, -1.83722675e-01,
                                                4.30585928e-02,  -1.72665939e-01, 1.35163188e-01},
                                        {-4.87499177e-01, -2.56065726e-01, -3.94277900e-01,
                                                -2.00670451e-01, -2.57295072e-01, 4.64241713e-01,
                                                -1.23994090e-01, -6.27075806e-02, 8.88213962e-02,
                                                -8.27748552e-02, 3.47064793e-01,  -3.08103442e-01,
                                                3.52916010e-02,  -3.88297826e-01, 1.47525221e-01,
                                                -1.78551510e-01, 1.27580926e-01,  3.22363824e-01},
                                        {4.23650950e-01,  1.90757215e-01,  3.61988246e-01,
                                                -1.15049474e-01, 1.11160927e-01,  4.09068353e-02,
                                                -6.56629652e-02, -2.41015479e-01, -2.30560988e-01,
                                                -1.37986004e-01, 9.97059494e-02,  -3.84920329e-01,
                                                -8.49797949e-02, 1.43368363e-01,  2.10189465e-02,
                                                3.08124840e-01,  1.91999197e-01,  -4.76295233e-01},
                                        {-1.28652140e-01, 1.10083327e-01,  3.90400767e-01,
                                                1.93086453e-02,  -2.57808745e-01, 2.20128015e-01,
                                                3.54483575e-01,  -1.91907436e-01, -4.53143604e-02,
                                                3.41780037e-01,  5.21747530e-01,  -1.04288228e-01,
                                                6.99838340e-01,  -4.15801048e-01, 3.05309236e-01,
                                                -2.16390900e-02, -5.26112318e-01, -1.53261319e-01},
                                        {-2.82368120e-02, -5.80950499e-01, 2.51853943e-01,
                                                -1.96872786e-01, -4.62224156e-01, 2.54781917e-02,
                                                1.72834825e-02,  -5.78377843e-01, -3.34886536e-02,
                                                4.49714549e-02,  4.36591983e-01,  4.67239507e-02,
                                                7.91636929e-02,  -3.20629179e-01, -2.48389110e-01,
                                                2.26293311e-01,  -1.98936254e-01, 3.22592944e-01},
                                        {-1.12106480e-01, 5.12632132e-01,  -2.81115711e-01,
                                                4.70687211e-01,  -2.66053468e-01, 1.49299502e-02,
                                                3.19083445e-02,  -2.77194500e-01, 1.89553916e-01,
                                                -3.57410580e-01, 2.51998007e-01,  -1.19727835e-01,
                                                5.01707852e-01,  -2.43366715e-02, 4.44481969e-01,
                                                -9.32923034e-02, 1.27663821e-01,  2.48437449e-02},
                                        {9.20080245e-02,  2.56473392e-01,  -6.96445882e-01,
                                                -2.75385797e-01, -2.19669327e-01, 1.67042077e-01,
                                                -3.32364477e-02, -3.57582122e-01, 2.60551065e-01,
                                                3.83579046e-01,  4.19425398e-01,  -3.99704129e-02,
                                                -5.68295002e-01, -4.62455869e-01, -1.48173600e-01,
                                                3.84490713e-02,  -5.78472428e-02, -2.31932223e-01}};
const double HIDDEN_BIASES0[64] = {0.11324732, -0.08974385, 0.07072765, 0.0556979, -0.02623594,
                             0.04781222, -0.00460095, -0.03496225, -0.00212233, 0.03937312,
                             0.10130244, -0.0154901, 0.14124174, 0.14992414, -0.08005267,
                             0.01644203, 0.04232098, 0.16075912, 0.0771971, 0.03945333,
                             0.02111997, -0.01599178, 0.16088678, -0.04554881, -0.07032593,
                             0.06017928, -0.01574745, -0.02704598, 0.04475832, 0.07243722,
                             0.0147899, 0.07970759, 0.00587213, -0.064899, 0.12475363,
                             0.05617729, -0.06554054, -0.12559894, -0.09473027, 0.15914714,
                             0.01143979, -0.07579131, 0.01237421, -0.00809235, -0.01538053,
                             0.03040835, 0.09416284, -0.07692644, 0.11871298, 0.07602839,
                             0.12094706, -0.11706556, -0.05659543, -0.05027652, 0.01743799,
                             -0.02791869, -0.13918729, -0.01050377, -0.01717312, 0.10861725,
                             0.11283258, 0.08496428, -0.09707381, -0.05820502};
const double HIDDEN_WEIGHTS1[64][64] = {{-1.20959409e-01, -2.06317380e-02, 2.01403141e-01,
                                          -9.28082913e-02, -2.40840033e-01, 2.45718285e-02,
                                          8.11805874e-02,  3.10326740e-02,  -1.08097859e-01,
                                          3.31202708e-02,  -1.32395893e-01, -1.55187353e-01,
                                          1.43796846e-01,  -2.64171958e-01, 4.22701314e-02,
                                          2.38496795e-01,  1.44526809e-01,  -2.42180690e-01,
                                          -2.86081433e-01, -8.81917551e-02, -1.72944039e-01,
                                          -1.37417138e-01, 1.74015183e-02,  -1.59628004e-01,
                                          4.24171627e-01,  9.84117985e-02,  -1.37155717e-02,
                                          -4.97368462e-02, -2.17809111e-01, -8.32768083e-02,
                                          1.96354598e-01,  4.61051688e-02,  4.43779267e-02,
                                          -8.54822434e-03, -8.34439474e-04, 2.77110636e-01,
                                          3.42861749e-02,  -6.67716563e-02, 1.99703708e-01,
                                          -2.93287393e-02, 3.44532877e-01,  1.18492030e-01,
                                          2.82020103e-02,  -5.17023820e-03, -6.30592704e-02,
                                          -2.49142170e-01, 1.60733849e-01,  1.78901739e-02,
                                          1.42240539e-01,  -2.03884244e-01, -8.05279762e-02,
                                          -1.81113407e-02, -5.80993481e-02, 2.19874144e-01,
                                          -8.71255063e-03, -9.30266641e-03, 2.78971530e-02,
                                          8.65346864e-02,  -2.14916825e-01, -2.12345496e-02,
                                          1.51918441e-01,  1.55778840e-01,  -3.62488180e-02,
                                          -3.30715664e-02},
                                  {-4.11206484e-02, 6.94074407e-02,  -6.87197298e-02,
                                          6.66283369e-02,  8.75002816e-02,  -2.07829759e-01,
                                          8.08839649e-02,  -6.10588416e-02, 1.41809881e-01,
                                          9.67719480e-02,  -7.57776573e-03, 2.07142949e-01,
                                          -2.28816122e-01, 2.67044634e-01,  -1.00137062e-01,
                                          -3.43813211e-01, 2.08007526e-02,  1.06667846e-01,
                                          7.72115514e-02,  1.26932397e-01,  -7.35477656e-02,
                                          -8.04192275e-02, 2.20022753e-01,  -9.01229382e-02,
                                          -2.07321420e-01, -1.37056589e-01, 7.49178007e-02,
                                          2.44132280e-01,  6.37647649e-03,  -6.32287636e-02,
                                          2.31290087e-01,  -1.84297234e-01, 2.89045244e-01,
                                          9.99894813e-02,  1.66398972e-01,  -1.15065366e-01,
                                          -4.96731922e-02, -3.32013369e-01, 8.60140622e-02,
                                          1.93414539e-01,  8.96687955e-02,  -1.69782624e-01,
                                          1.32001370e-01,  1.08548574e-01,  3.38033848e-02,
                                          -1.60804734e-01, 7.90169686e-02,  2.74038702e-01,
                                          -1.23902395e-01, 1.28052577e-01,  -9.18194875e-02,
                                          -9.62423608e-02, -2.07330868e-01, 4.12715785e-02,
                                          1.73334241e-01,  1.96961448e-01,  -2.65718400e-01,
                                          -1.58087268e-01, -1.44240484e-01, 1.93812951e-01,
                                          -7.46139977e-03, -2.68017888e-01, 1.55672386e-01,
                                          1.36640668e-01},
                                  {-4.06729355e-02, -7.24584609e-02, 6.59951121e-02,
                                          -1.34586304e-01, 4.27765362e-02,  1.37717398e-02,
                                          -3.60338092e-02, 3.15988027e-02,  1.14603639e-01,
                                          -2.72449553e-01, -1.53835461e-01, -1.81690119e-02,
                                          6.31675124e-02,  1.44448221e-01,  1.38747355e-03,
                                          2.12960392e-01,  -4.32742685e-02, -1.49531081e-01,
                                          1.39688566e-01,  1.92049846e-01,  1.66984290e-01,
                                          3.01226974e-01,  1.29018212e-02,  -1.94957659e-01,
                                          5.24128526e-02,  -2.60515571e-01, 2.30281487e-01,
                                          -1.18233867e-01, -1.29421940e-02, -2.15522051e-01,
                                          -2.36474313e-02, 2.29532942e-02,  9.94620249e-02,
                                          2.69309282e-01,  -2.18866691e-01, -1.64781600e-01,
                                          1.01933472e-01,  -1.51712060e-01, 7.16771483e-02,
                                          -1.97150975e-01, 1.92147896e-01,  -1.53266013e-01,
                                          2.01072872e-01,  5.86514845e-02,  2.37480663e-02,
                                          -3.15130889e-01, -1.00687020e-01, 3.92660797e-02,
                                          -2.22300172e-01, 1.23150222e-01,  -1.47244066e-01,
                                          -2.65264422e-01, 8.67418721e-02,  1.14237219e-01,
                                          3.63991410e-02,  1.30201355e-01,  -2.14552879e-01,
                                          6.63228054e-03,  -2.96351779e-02, 1.76639870e-01,
                                          -6.83796033e-02, 2.96223462e-02,  -2.00256053e-02,
                                          -3.49483699e-01},
                                  {-1.71304256e-01, 2.82191396e-01,  1.54089987e-01,
                                          5.45170065e-03,  1.47245824e-02,  -2.27376282e-01,
                                          -1.53281584e-01, -5.41865453e-02, -1.79491267e-01,
                                          7.73927867e-02,  5.29527217e-02,  5.12575388e-01,
                                          -3.93125489e-02, -5.85877001e-02, 1.55310631e-01,
                                          -1.15637816e-01, -3.66245359e-01, 1.53165013e-01,
                                          9.41952765e-02,  2.68767625e-01,  3.91978212e-02,
                                          -1.09988354e-01, -2.02548914e-02, -5.49090803e-02,
                                          -5.34566492e-02, 4.56283391e-02,  8.41078013e-02,
                                          7.31979385e-02,  1.56813607e-01,  3.68584320e-02,
                                          -9.55837220e-02, 1.43034682e-01,  1.70024574e-01,
                                          7.76081309e-02,  3.03171903e-01,  -3.24701071e-01,
                                          1.36284187e-01,  -2.59237364e-02, -1.24322735e-02,
                                          -2.01234907e-01, 1.78470328e-01,  -3.24225366e-01,
                                          8.36609229e-02,  9.14165378e-02,  -1.06982261e-01,
                                          2.26665009e-02,  -9.04311892e-03, 9.79130268e-02,
                                          -1.29392579e-01, 1.77097619e-01,  -1.12309709e-01,
                                          -1.64027791e-02, -2.04064041e-01, -9.18787066e-03,
                                          -1.30741879e-01, -1.14866123e-01, -6.97840378e-02,
                                          -2.95041680e-01, -1.55893445e-01, 2.43648812e-02,
                                          -1.05989933e-01, -2.07898960e-01, -8.36963058e-02,
                                          -1.66044667e-01},
                                  {-8.35096538e-02, 2.03113005e-01,  -7.12412968e-02,
                                          2.40807366e-02,  -2.54262060e-01, -1.99836969e-01,
                                          -2.27621738e-02, -3.91415879e-02, -1.09247854e-02,
                                          1.30147457e-01,  -2.88082004e-01, 2.75243193e-01,
                                          -8.73860940e-02, 2.14305855e-02,  4.99853045e-02,
                                          5.88693693e-02,  -5.10955304e-02, 6.26017824e-02,
                                          2.94817507e-01,  -2.00337976e-01, -4.28014509e-02,
                                          3.10017169e-02,  -3.01099956e-01, 2.59548604e-01,
                                          -1.46049056e-02, 2.64814645e-02,  2.59884030e-01,
                                          1.78974211e-01,  -2.56066382e-01, -1.00047715e-01,
                                          7.00829551e-02,  2.80212983e-02,  5.07919639e-02,
                                          -3.38663027e-04, -6.48219436e-02, -3.08781955e-02,
                                          1.93302959e-01,  -5.15360236e-02, 4.81822714e-02,
                                          1.44835860e-01,  -4.49451990e-02, 3.14277895e-02,
                                          6.88518509e-02,  2.79700816e-01,  -1.56295419e-01,
                                          -1.83006581e-02, -3.64222318e-01, 1.47786170e-01,
                                          -1.56061858e-01, -6.08374886e-02, 1.45884808e-02,
                                          1.66171312e-01,  1.70363449e-02,  -2.55039573e-01,
                                          5.43085337e-02,  2.05882594e-01,  3.20023388e-01,
                                          2.67968476e-01,  8.30697864e-02,  -1.53755978e-01,
                                          -1.14786170e-01, 9.55900326e-02,  -2.49120779e-02,
                                          -3.47069502e-02},
                                  {-6.21119663e-02, 9.39025804e-02,  1.24209270e-01,
                                          -1.68043077e-01, 4.27953526e-03,  -8.03228095e-02,
                                          -1.16827801e-01, 2.48757079e-01,  2.81665504e-01,
                                          -1.08338833e-01, -2.04346497e-02, 1.72619775e-01,
                                          -1.13913074e-01, 4.06979293e-01,  1.22530714e-01,
                                          5.04961498e-02,  -3.67822140e-01, 5.32491691e-02,
                                          4.23727781e-02,  -1.28869772e-01, -1.57244742e-01,
                                          1.12904146e-01,  -7.37553015e-02, -3.71705472e-01,
                                          1.99940041e-01,  9.29376334e-02,  -2.20598280e-01,
                                          1.80651054e-01,  -9.48771313e-02, 1.54106710e-02,
                                          -1.45549357e-01, 1.69081658e-01,  -3.80526632e-02,
                                          2.08572924e-01,  -7.31264204e-02, -3.28257382e-01,
                                          -1.34220362e-01, -2.94849336e-01, 1.72125444e-01,
                                          1.34861171e-01,  -4.38460968e-02, 1.43199056e-01,
                                          2.86666334e-01,  7.87096769e-02,  8.76412541e-02,
                                          -9.05212238e-02, -5.41646704e-02, 8.67277905e-02,
                                          1.57157406e-01,  -6.36308566e-02, -2.70170718e-01,
                                          -2.37254903e-01, 1.02397293e-01,  1.06000490e-01,
                                          2.07145400e-02,  1.39938286e-02,  1.27795354e-01,
                                          1.33748621e-01,  -7.21136034e-02, 9.93431583e-02,
                                          1.40743613e-01,  4.58615497e-02,  7.66987577e-02,
                                          -2.41153136e-01},
                                  {-1.37226328e-01, -4.77863774e-02, -1.15285791e-01,
                                          -8.85727331e-02, 3.87853444e-01,  -1.37649328e-01,
                                          1.02819599e-01,  1.62806094e-01,  2.04113070e-02,
                                          8.72259885e-02,  2.67813858e-02,  -2.88891137e-01,
                                          -1.46682397e-01, -2.32114300e-01, 3.65843959e-02,
                                          -2.29106575e-01, -4.59123887e-02, -9.34318826e-02,
                                          -2.64304519e-01, -6.85536191e-02, -1.87310949e-01,
                                          -7.11339936e-02, -2.31550485e-02, -4.25376631e-02,
                                          9.18176547e-02,  2.10409388e-02,  -2.79915214e-01,
                                          -7.66599178e-02, -2.99693286e-01, -5.17405421e-02,
                                          -7.95603395e-02, 2.12788537e-01,  -1.27688035e-01,
                                          -4.10223566e-02, -4.95213866e-02, 8.37009028e-02,
                                          1.78392649e-01,  -2.91990712e-02, 1.04361447e-02,
                                          6.89679012e-02,  1.69619158e-01,  1.95985690e-01,
                                          5.80092445e-02,  -1.33265570e-01, 4.74013053e-02,
                                          1.97122604e-01,  4.46313620e-02,  9.19586718e-02,
                                          2.69653022e-01,  -1.85421947e-02, -3.56601596e-01,
                                          2.28439569e-01,  -1.54523149e-01, 2.02960130e-02,
                                          -1.50160268e-01, 3.07333916e-01,  1.08250968e-01,
                                          1.80451706e-01,  -1.28313988e-01, 3.53657037e-01,
                                          1.26243532e-01,  -1.43075719e-01, 2.85662096e-02,
                                          3.71563822e-01},
                                  {5.52226305e-02,  7.64749870e-02,  -3.34908992e-01,
                                          -1.03024386e-01, -2.23328248e-01, -3.71731400e-01,
                                          3.03229868e-01,  1.42801739e-02,  -6.28172606e-02,
                                          2.02912360e-01,  7.25764828e-03,  -2.34563043e-03,
                                          1.38658121e-01,  -9.15075988e-02, -6.31042346e-02,
                                          -2.48355091e-01, 2.28896081e-01,  -1.36688977e-01,
                                          2.23632697e-02,  -4.24925566e-01, 1.88474938e-01,
                                          6.35636086e-03,  -1.54012382e-01, -1.11455927e-02,
                                          8.80131721e-02,  -2.64476299e-01, 9.80448797e-02,
                                          -5.22988960e-02, 1.03496671e-01,  -2.34719351e-01,
                                          -2.00492442e-01, 9.49812494e-03,  9.72200781e-02,
                                          -5.64726554e-02, -8.27328935e-02, 1.16784945e-01,
                                          1.07028514e-01,  1.77050874e-01,  2.23715171e-01,
                                          1.93589419e-01,  4.36627045e-02,  2.45483249e-01,
                                          -1.14239357e-01, 4.11674865e-02,  5.73740974e-02,
                                          -2.48073742e-01, -6.31035566e-02, 2.01745778e-01,
                                          1.45578355e-01,  -9.07962676e-03, 1.35862350e-01,
                                          5.96880019e-02,  -5.53488992e-02, -3.06211978e-01,
                                          -5.61343357e-02, -5.10722138e-02, -4.70091812e-02,
                                          -8.10033977e-02, 1.99901555e-02,  -6.25271499e-02,
                                          -1.68531701e-01, -1.30389765e-01, 1.07051447e-01,
                                          3.01008997e-03},
                                  {5.70642911e-02,  3.54113400e-01,  -5.41372262e-02,
                                          1.85145792e-02,  -1.22116111e-01, 1.14184767e-01,
                                          -2.65919715e-02, -6.79762363e-02, -4.16523926e-02,
                                          -3.71236652e-02, 2.33878847e-02,  7.07762092e-02,
                                          -3.12839627e-01, 1.01303477e-02,  -1.17107674e-01,
                                          2.46650651e-01,  -7.06584528e-02, -4.58922200e-02,
                                          2.28973806e-01,  -2.09647730e-01, 2.40740687e-01,
                                          -5.96535951e-02, -8.09487030e-02, 4.53969240e-01,
                                          -9.36218947e-02, 1.11468479e-01,  1.80359349e-01,
                                          -1.15609698e-01, -1.98875338e-01, -9.81902406e-02,
                                          -7.86637291e-02, 4.06579450e-02,  4.66705039e-02,
                                          -3.64678234e-01, -4.54508252e-02, 6.78966045e-02,
                                          1.30649358e-02,  2.80663252e-01,  -2.36182716e-02,
                                          -1.97739258e-01, -2.41508037e-01, 5.45149744e-02,
                                          -2.37854257e-01, 2.63755322e-02,  -2.59617940e-02,
                                          8.41600522e-02,  -1.56158209e-01, 4.30970043e-02,
                                          -1.29437670e-01, -1.37152284e-01, -3.51720192e-02,
                                          1.87170386e-01,  1.72469482e-01,  2.54188508e-01,
                                          -3.92813003e-03, -8.17419291e-02, 6.37619123e-02,
                                          -2.85221767e-02, -1.06587715e-01, -6.41374709e-03,
                                          -2.33354256e-01, 2.76016921e-01,  -1.11369796e-01,
                                          2.80160811e-02},
                                  {4.41359878e-01,  -1.35600090e-01, 2.37069018e-02,
                                          3.08126211e-01,  4.34748344e-02,  1.96103945e-01,
                                          3.07030350e-01,  6.21259585e-02,  1.63981184e-01,
                                          -9.65553895e-02, -2.68300235e-01, 6.93428814e-02,
                                          8.45104679e-02,  -8.77761468e-02, 7.71493018e-02,
                                          2.04754272e-03,  1.65867642e-01,  2.53637463e-01,
                                          1.38855696e-01,  2.01536510e-02,  3.69790681e-02,
                                          1.27944633e-01,  -4.25470956e-02, -4.06289250e-01,
                                          -1.29955202e-01, 1.34915829e-01,  2.17514157e-01,
                                          -2.50453293e-01, 4.41410858e-03,  -1.64919253e-02,
                                          1.81782156e-01,  -3.22732367e-02, 5.50614111e-02,
                                          1.76035002e-01,  4.48880419e-02,  1.47212744e-01,
                                          -2.51702368e-01, -1.38584256e-01, -1.42513951e-02,
                                          -3.31210271e-02, -9.55420434e-02, -2.74155545e-03,
                                          -1.62334174e-01, 2.91289747e-01,  -1.55144632e-01,
                                          1.34711921e-01,  9.57285985e-02,  -1.84521958e-01,
                                          3.32512893e-02,  2.31467649e-01,  1.05538256e-01,
                                          -2.51051247e-01, -7.16096833e-02, 3.08152020e-01,
                                          9.98756364e-02,  -3.39629412e-01, -1.77806959e-01,
                                          -9.64693278e-02, 9.62486416e-02,  1.27856940e-01,
                                          -3.56554985e-02, -1.58016786e-01, 3.43948156e-01,
                                          1.89036533e-01},
                                  {-2.85752058e-01, -5.16778305e-02, 1.85258612e-01,
                                          -3.35467339e-01, -2.92726576e-01, -9.70392153e-02,
                                          1.27640655e-02,  6.00425107e-03,  -6.23231865e-02,
                                          9.31261778e-02,  4.81881313e-02,  -1.08489722e-01,
                                          1.70226648e-01,  -2.26764604e-02, 3.69864732e-01,
                                          -1.26648219e-02, -3.96475583e-01, -7.84340221e-03,
                                          -1.08204477e-01, -1.94592148e-01, 8.77768099e-02,
                                          1.20674327e-01,  -1.39231402e-02, 1.00577092e-02,
                                          5.83907939e-04,  1.08889535e-01,  -1.48822099e-01,
                                          1.75080985e-01,  -2.43156418e-01, 4.25958894e-02,
                                          6.17787428e-02,  -1.78628102e-01, 5.83738945e-02,
                                          -1.70682475e-01, 3.32316384e-02,  -1.08617514e-01,
                                          -1.11484632e-01, -1.03352237e-02, -1.22144938e-01,
                                          8.18135869e-03,  -9.09904204e-03, 2.16708422e-01,
                                          -1.08026713e-01, 1.58729404e-02,  -1.00591183e-01,
                                          1.29464269e-01,  9.35088471e-02,  -2.03909501e-01,
                                          -1.56854793e-01, 9.49963555e-03,  6.86463788e-02,
                                          2.40890890e-01,  9.83999297e-02,  -1.93986539e-02,
                                          7.63841495e-02,  -8.38345736e-02, 9.32863727e-02,
                                          1.09083794e-01,  9.06973630e-02,  8.25123414e-02,
                                          -2.14777052e-01, -3.64802182e-02, 2.52137170e-03,
                                          -9.18125827e-03},
                                  {1.58373654e-01,  -5.49558848e-02, 1.78649847e-03,
                                          4.06660289e-01,  -1.38943583e-01, 3.09587747e-01,
                                          2.56163955e-01,  3.75034288e-02,  2.71042526e-01,
                                          -3.63031387e-01, 1.53958052e-01,  6.41014650e-02,
                                          -4.62203845e-02, -6.65914416e-02, -1.42594919e-01,
                                          -2.64267951e-01, 1.46731764e-01,  2.08211899e-01,
                                          -1.18766921e-02, 1.11030288e-01,  1.53088138e-01,
                                          9.60533395e-02,  -1.25854030e-01, -1.40636396e-02,
                                          -4.85354885e-02, -6.86284155e-03, -3.20001274e-01,
                                          1.56841710e-01,  -7.52561376e-04, 5.87750264e-02,
                                          1.01517394e-01,  1.95458949e-01,  -1.15788616e-01,
                                          9.28065851e-02,  -2.01897379e-02, 2.33278587e-01,
                                          -2.46874020e-02, -2.64664054e-01, 1.45331010e-01,
                                          6.54919595e-02,  6.87114820e-02,  -1.36967316e-01,
                                          4.43415940e-02,  6.39212951e-02,  -9.02111530e-02,
                                          2.64795393e-01,  1.05963513e-01,  -3.06681663e-01,
                                          6.25528172e-02,  3.24688405e-01,  -8.39553177e-02,
                                          -1.52947932e-01, -1.44430205e-01, 2.98236638e-01,
                                          3.54177579e-02,  -7.26532340e-02, -1.30251065e-01,
                                          1.48971705e-03,  -1.02750532e-01, -1.25560844e-02,
                                          2.04222277e-01,  1.68399841e-01,  1.06004179e-01,
                                          -1.48980379e-01},
                                  {6.35716692e-02,  -1.14315242e-01, -3.79787572e-02,
                                          1.64821297e-01,  -3.19139361e-01, -2.62267977e-01,
                                          -8.93861726e-02, 1.42808944e-01,  7.86586106e-02,
                                          4.12908494e-02,  5.79393050e-03,  1.26050547e-01,
                                          -1.81429043e-01, 9.85552669e-02,  -6.92637786e-02,
                                          -1.55793831e-01, -2.39340942e-02, -3.20390016e-02,
                                          -2.67899960e-01, -1.69978574e-01, 1.52058259e-01,
                                          3.94927263e-02,  7.20776170e-02,  -5.23519740e-02,
                                          -2.00139850e-01, 9.92455930e-02,  1.05743371e-01,
                                          1.17734104e-01,  -4.71505299e-02, 9.79546085e-02,
                                          6.81591332e-02,  3.97815183e-02,  2.93041974e-01,
                                          -2.91267838e-02, -1.17907643e-01, 2.72742007e-03,
                                          -1.14700049e-01, 1.47471339e-01,  -2.10900120e-02,
                                          -2.79413521e-01, -7.09162746e-03, -1.29028335e-01,
                                          2.76972771e-01,  7.86379799e-02,  7.51791075e-02,
                                          -1.28322825e-01, 1.31277815e-01,  2.29202479e-01,
                                          1.05140746e-01,  2.38875359e-01,  2.61381716e-01,
                                          -8.75964537e-02, -7.70803839e-02, 2.00187236e-01,
                                          -2.03785121e-01, 2.57539690e-01,  4.24366482e-02,
                                          -2.19522879e-01, 9.98264104e-02,  1.39956027e-02,
                                          1.60384551e-01,  -1.66219711e-01, -1.95698366e-02,
                                          -1.50799081e-01},
                                  {-6.22473890e-03, 5.04880585e-02,  -1.01701073e-01,
                                          4.23241593e-02,  -1.26591712e-01, -6.28291890e-02,
                                          2.07999080e-01,  -1.39503628e-01, 9.58099496e-03,
                                          8.05948228e-02,  7.86958858e-02,  8.31521079e-02,
                                          1.44009218e-01,  2.31790602e-01,  -3.95593345e-01,
                                          -2.62872905e-01, 2.44347448e-03,  1.99025348e-02,
                                          -1.16060957e-01, -1.66131362e-01, -8.92517939e-02,
                                          -1.94511831e-01, 6.75345659e-02,  5.19431382e-02,
                                          -7.65723502e-03, 7.64048025e-02,  -2.44581878e-01,
                                          5.97497150e-02,  1.53842181e-01,  4.52071726e-02,
                                          -1.33068085e-01, -1.01990113e-02, -7.25218281e-02,
                                          7.67538603e-03,  3.30629423e-02,  -9.03622732e-02,
                                          -3.80861789e-01, -1.11254379e-01, 1.91910360e-02,
                                          6.03575051e-01,  -2.73745619e-02, -9.05089304e-02,
                                          -2.62187403e-02, 1.19136207e-01,  1.05764382e-01,
                                          1.21815875e-01,  -2.04328597e-02, 2.13223517e-01,
                                          6.06163181e-02,  1.39201388e-01,  1.59379244e-01,
                                          -1.70985565e-01, -1.28063127e-01, -2.17782229e-01,
                                          2.54050583e-01,  -1.24727033e-01, 2.78570712e-01,
                                          1.70965418e-02,  -8.73022303e-02, -2.60610245e-02,
                                          -5.07937223e-02, -1.55140966e-01, 1.86185747e-01,
                                          -3.97709534e-02},
                                  {3.07800304e-02,  -2.85358340e-01, -2.75778901e-02,
                                          -2.93779910e-01, -7.80375255e-03, 3.02638616e-02,
                                          7.35191703e-02,  9.10829529e-02,  -5.48807941e-02,
                                          -1.73097461e-01, -1.00460097e-01, -1.58847481e-01,
                                          1.35156900e-01,  2.01039147e-02,  2.67148167e-01,
                                          -7.81380162e-02, -6.22403845e-02, -2.08181471e-01,
                                          -1.57330245e-01, -3.46700549e-01, 8.46737847e-02,
                                          -2.50589456e-02, -1.25419438e-01, 1.62819088e-01,
                                          1.95040584e-01,  -6.78637698e-02, -3.57907414e-02,
                                          -3.68442446e-01, 1.72744393e-01,  1.44599289e-01,
                                          -9.44662914e-02, 7.77312070e-02,  -1.99150980e-01,
                                          2.23806035e-02,  2.09367108e-02,  -1.56987712e-01,
                                          -1.01411350e-01, 4.13542613e-02,  1.98652551e-01,
                                          6.59863129e-02,  1.15570221e-02,  2.86868270e-02,
                                          -6.68998659e-02, -4.00602259e-02, -1.41196847e-01,
                                          3.66770662e-02,  -9.03957337e-02, -1.89137757e-01,
                                          5.71469255e-02,  -1.79290652e-01, -4.27677095e-01,
                                          -4.10388485e-02, -2.50660293e-02, -8.46995860e-02,
                                          -3.38418968e-02, -3.97092216e-02, -8.46215431e-03,
                                          3.77504528e-01,  -2.08002925e-01, -1.99456856e-01,
                                          1.39148831e-01,  -5.30566946e-02, 8.87929574e-02,
                                          -1.84529230e-01},
                                  {-7.54512995e-02, 1.14130214e-01,  2.20700294e-01,
                                          -2.21531354e-02, -1.70642436e-01, 6.88312750e-04,
                                          1.29122391e-01,  1.21050261e-01,  -1.06172718e-01,
                                          1.34424716e-01,  1.85130879e-01,  -2.43355948e-02,
                                          -1.90250933e-01, -1.94770828e-01, 1.17882565e-01,
                                          2.31110156e-01,  -2.11871579e-01, -2.94243008e-01,
                                          -1.49873018e-01, -1.62289590e-02, 5.56731895e-02,
                                          -2.17377901e-01, 3.14351171e-01,  -1.64173573e-01,
                                          -5.73123284e-02, -5.12484536e-02, -1.15825206e-01,
                                          1.11042291e-01,  -3.49610955e-01, -5.50029501e-02,
                                          1.84105009e-01,  8.65128729e-03,  1.74971595e-01,
                                          2.39930842e-02,  -1.02754131e-01, 1.95103183e-01,
                                          -2.81132340e-01, 2.19980001e-01,  -2.79836744e-01,
                                          -1.28711373e-01, 7.21336603e-02,  1.18082806e-01,
                                          -4.94369343e-02, 5.64079266e-03,  3.29433829e-01,
                                          -1.52127773e-01, -5.58359362e-02, -1.60021961e-01,
                                          -1.69593886e-01, -1.34297922e-01, 4.81287576e-02,
                                          1.99951530e-02,  3.46216261e-01,  3.25452715e-01,
                                          -1.86410863e-02, 2.18521357e-02,  1.77258447e-01,
                                          7.58060394e-03,  2.02959493e-01,  -2.70698871e-02,
                                          -1.09511636e-01, -1.08742192e-02, -1.93022519e-01,
                                          1.57455727e-01},
                                  {-1.14818208e-01, -7.01966509e-02, 1.99851091e-03,
                                          7.65324458e-02,  -3.92536134e-01, 8.08883384e-02,
                                          6.21018447e-02,  -1.58176959e-01, 1.89624742e-01,
                                          -5.48582859e-02, -2.30281577e-02, -2.17343643e-01,
                                          4.38919097e-01,  5.22142462e-02,  8.59096795e-02,
                                          2.16094837e-01,  -2.62773514e-01, 3.96160707e-02,
                                          2.65583724e-01,  1.82146318e-02,  -1.12600990e-01,
                                          6.32201135e-02,  -3.87015641e-02, 2.53646880e-01,
                                          -9.22483429e-02, 9.44421813e-02,  1.42396957e-01,
                                          -2.96564717e-02, -2.25006178e-01, -5.83013520e-02,
                                          -2.55169719e-01, -2.88003296e-01, 5.09300502e-03,
                                          9.96939093e-02,  -6.29271439e-04, 3.28141116e-02,
                                          -6.15985505e-02, -7.19884187e-02, 1.69463933e-01,
                                          5.25856391e-02,  -2.70568907e-01, 8.40487182e-02,
                                          -1.11010395e-01, -1.17050909e-01, -9.23200324e-02,
                                          -1.69038489e-01, 1.57046616e-01,  3.70881222e-02,
                                          7.93063343e-02,  1.14040032e-01,  8.64090249e-02,
                                          2.50936616e-02,  -1.57066900e-02, -1.55908495e-01,
                                          6.43722862e-02,  3.08237523e-01,  -1.33541627e-02,
                                          2.50145078e-01,  -8.20900425e-02, 2.39030689e-01,
                                          1.17040172e-01,  -2.16520913e-02, 1.55994579e-01,
                                          -6.82383310e-03},
                                  {-2.43679330e-01, -1.14392765e-01, -1.27326816e-01,
                                          3.40995304e-02,  9.56897438e-03,  1.93068415e-01,
                                          7.82449264e-03,  3.56397331e-02,  3.30158770e-02,
                                          -5.60675375e-02, -5.39072752e-02, 1.25312075e-01,
                                          5.19288704e-02,  2.16621712e-01,  -2.38777712e-01,
                                          -1.84453338e-01, 4.12346214e-01,  1.34337023e-01,
                                          2.60933135e-02,  2.39469260e-02,  2.89507173e-02,
                                          1.59443334e-01,  -4.48733494e-02, 1.27748534e-01,
                                          -2.66102463e-01, -2.03348882e-02, 3.96273881e-02,
                                          -9.43800360e-02, 3.64243180e-01,  1.69894397e-02,
                                          4.43037525e-02,  -1.56749472e-01, 2.48271942e-01,
                                          -1.17840983e-01, 1.82688199e-02,  8.36859271e-03,
                                          -2.13464633e-01, -1.79495767e-01, 9.35835093e-02,
                                          -2.21557785e-02, 2.13230029e-02,  -5.65125272e-02,
                                          1.07140809e-01,  3.02884858e-02,  -4.38571721e-03,
                                          -8.94833431e-02, 1.23509556e-01,  -1.85793653e-01,
                                          2.57112920e-01,  -6.82852939e-02, 1.90917146e-03,
                                          -1.61883280e-01, -8.53791088e-02, -4.77984473e-02,
                                          -1.71620131e-01, 8.81699249e-02,  -2.29567453e-01,
                                          1.28210858e-01,  9.12584644e-03,  1.50066003e-01,
                                          3.16374421e-01,  -6.39517307e-02, -1.60705894e-01,
                                          -8.03898871e-02},
                                  {1.73446238e-02,  1.09085441e-01,  -6.67880252e-02,
                                          -1.44281909e-01, -3.14613521e-01, -1.16092108e-01,
                                          1.41630108e-02,  2.74642318e-01,  -1.48685157e-01,
                                          4.04126525e-01,  -1.41990319e-01, 1.18952990e-02,
                                          -3.80529314e-02, -7.14273192e-03, 1.40498370e-01,
                                          1.25372708e-01,  -1.57311067e-01, 6.52211830e-02,
                                          -1.56808108e-01, 4.26039547e-02,  -9.12785381e-02,
                                          -1.27050634e-02, -1.50751054e-01, 1.32126033e-01,
                                          1.33108929e-01,  2.23927513e-01,  -5.98436641e-03,
                                          5.93075622e-03,  1.20779559e-01,  -1.01699017e-01,
                                          6.39935909e-03,  1.24169551e-01,  7.03912750e-02,
                                          -6.17132448e-02, 4.10618819e-02,  -7.06775934e-02,
                                          2.35214859e-01,  1.98178783e-01,  1.83340251e-01,
                                          6.56604171e-02,  -3.39445800e-01, -9.21669230e-02,
                                          4.55527753e-02,  5.49105555e-02,  8.63671899e-02,
                                          -1.04305677e-01, -7.58691579e-02, 2.27392055e-02,
                                          -1.73576996e-01, -2.15942800e-01, 3.13691825e-01,
                                          7.50960037e-02,  1.48811741e-02,  -2.84433782e-01,
                                          5.02143465e-02,  3.69711846e-01,  1.09399632e-01,
                                          1.11324809e-01,  1.63050890e-02,  -4.10876460e-02,
                                          -2.97946483e-01, 1.43081740e-01,  -5.54196276e-02,
                                          -2.23628864e-01},
                                  {-1.10306799e-01, 8.20191391e-03,  1.55991912e-01,
                                          8.35997809e-04,  -9.78137851e-02, -8.44388530e-02,
                                          1.66183263e-01,  3.59130614e-02,  1.51503548e-01,
                                          1.53256595e-01,  -1.09803535e-01, -1.56194925e-01,
                                          -1.17263332e-01, -1.52980685e-01, 5.16758487e-02,
                                          -7.42428424e-03, 3.48955803e-02,  2.45592833e-01,
                                          -7.26354271e-02, -1.20675959e-01, 1.85120180e-01,
                                          3.66603844e-02,  3.69931102e-01,  -1.57921556e-02,
                                          -1.37672976e-01, -1.80055782e-01, -6.43773526e-02,
                                          -4.05247629e-01, -1.12095326e-01, -1.03590392e-01,
                                          2.83381939e-01,  1.71703696e-01,  -2.65753865e-01,
                                          2.99849324e-02,  -5.63948080e-02, -2.97140747e-01,
                                          3.89802933e-01,  8.52137525e-03,  -6.57601282e-02,
                                          -1.16565637e-01, 1.52216941e-01,  2.31997430e-01,
                                          -1.31330278e-03, -2.57155742e-03, 5.24782687e-02,
                                          -3.32063854e-01, -1.33462980e-01, -4.42183882e-01,
                                          -2.68534124e-01, -1.27717808e-01, 4.36671712e-02,
                                          2.84996390e-01,  -2.64778547e-02, 1.46759212e-01,
                                          7.11679906e-02,  -7.92323127e-02, 6.17124289e-02,
                                          -1.06974907e-01, -5.34063987e-02, -2.45446432e-02,
                                          -1.42994702e-01, 2.38404572e-02,  -6.58903345e-02,
                                          9.66197550e-02},
                                  {1.02415107e-01,  5.22235148e-02,  2.04218283e-01,
                                          -8.83124918e-02, -1.97234765e-01, -7.41889998e-02,
                                          1.01299092e-01,  -1.87379763e-01, 1.47671148e-01,
                                          9.41276252e-02,  -1.97670758e-01, -2.33808652e-01,
                                          -1.06611118e-01, -2.14319900e-01, -1.44974470e-01,
                                          1.03629768e-01,  -2.88494118e-02, 1.22955605e-01,
                                          -2.38328442e-01, 4.44010422e-02,  1.07097819e-01,
                                          3.99574004e-02,  8.82172883e-02,  5.43596894e-02,
                                          -2.10108981e-01, -5.06733842e-02, -1.51532605e-01,
                                          7.98798278e-02,  -9.85893905e-02, -1.35683969e-01,
                                          -1.31802574e-01, -6.42106831e-02, -2.02624679e-01,
                                          -3.00924599e-01, 2.63414770e-01,  1.60955012e-01,
                                          -3.02613169e-01, 1.61733896e-01,  -2.32313618e-01,
                                          -3.16639811e-01, 1.23514883e-01,  -1.82886589e-02,
                                          -9.07394588e-02, 2.81983256e-01,  1.63887441e-01,
                                          -1.63879395e-01, -8.05383176e-02, -3.98072265e-02,
                                          -4.49534714e-01, 3.99411432e-02,  1.31621450e-01,
                                          2.41241474e-02,  1.08953170e-01,  -2.07906947e-01,
                                          1.78605944e-01,  -2.48531237e-01, -8.94180313e-02,
                                          -1.60960346e-01, 1.27849802e-01,  -1.00882821e-01,
                                          3.24384682e-02,  3.14219259e-02,  -1.86422676e-01,
                                          -2.78750323e-02},
                                  {-2.49942064e-01, 7.19347969e-02,  -9.92931053e-02,
                                          -9.88967251e-03, 1.71653837e-01,  -3.09091713e-02,
                                          -2.34880283e-01, -4.00668025e-01, 2.04398185e-01,
                                          -6.25614822e-02, 3.89541015e-02,  2.62370586e-01,
                                          5.60307093e-02,  6.44045025e-02,  2.31182831e-03,
                                          -6.39802068e-02, -8.59658048e-02, 2.03860462e-01,
                                          -1.63056031e-02, 2.58913428e-01,  3.66951704e-01,
                                          1.30132973e-01,  -5.87900393e-02, 1.07699029e-01,
                                          -8.77983794e-02, -1.84564859e-01, -2.38516524e-01,
                                          -9.98819545e-02, -8.90199188e-03, -5.68195097e-02,
                                          -2.04018831e-01, -1.46318302e-01, -1.87157810e-01,
                                          1.59179628e-01,  1.27664492e-01,  8.41897130e-02,
                                          2.76474983e-01,  -2.86442395e-02, 1.38538077e-01,
                                          -2.96994627e-01, 1.43177032e-01,  -8.11975002e-02,
                                          -1.38542019e-02, -2.37467080e-01, 3.19627896e-02,
                                          -1.83856208e-02, -1.58237964e-02, -2.44479671e-01,
                                          -8.88081547e-03, -6.21581934e-02, -1.81533813e-01,
                                          -1.16349503e-01, -1.11340515e-01, -1.63747013e-01,
                                          -2.34626651e-01, 9.02820230e-02,  3.98444990e-03,
                                          7.67610371e-02,  -2.54062228e-02, 1.20143265e-01,
                                          1.17290281e-01,  -1.77725762e-01, -1.01041518e-01,
                                          -1.45463660e-01},
                                  {2.40493119e-01,  1.83439985e-01,  1.20991223e-01,
                                          -1.09091727e-02, -2.27566719e-01, 1.39933765e-01,
                                          -1.32298410e-01, 1.59788549e-01,  -6.23891279e-02,
                                          1.37854805e-02,  -9.48678702e-02, -1.53637975e-01,
                                          -7.96177983e-02, 1.37793064e-01,  7.05194995e-02,
